-0.082056,-0.091352,-0.087758,-0.076575,-0.087843,-0.091867,-0.090664,-0.086527,-0.090544,-0.0748
0.04161,0.048377,0.049472,0.040099,0.049651,0.053338,0.05544,0.039843,0.045139,0.041911
-0.067433,-0.064814,-0.071208,-0.063436,-0.070902,-0.075296,-0.07676,-0.061395,-0.068306,-0.064204
0.022544,0.020902,0.023678,0.022569,0.021416,0.023511,0.024336,0.022542,0.022998,0.021655
0.16237,0.16772,0.17244,0.14782,0.17094,0.18405,0.17843,0.16256,0.16747,0.15081
0.033058,0.029149,0.031186,0.027568,0.034844,0.032157,0.032292,0.023713,0.03365,0.026193
-0.03325,-0.031485,-0.035613,-0.027586,-0.033272,-0.036393,-0.033,-0.03131,-0.031733,-0.02869
-0.0013313,0.0025871,-0.0015259,0.00036169,0.0045747,-0.001168,0.0020422,-0.00038326,5.5599e-05,0.00094348
-0.027954,-0.024759,-0.023042,-0.023924,-0.033813,-0.026093,-0.0316,-0.017442,-0.025247,-0.021939
-0.038282,-0.038272,-0.036727,-0.035377,-0.04048,-0.03955,-0.039398,-0.03827,-0.042633,-0.034772
0.0089748,0.013966,0.017739,0.006684,0.010385,0.014992,0.010927,0.013947,0.014956,0.0084394
0.023601,0.017512,0.015652,0.015771,0.022424,0.018447,0.018053,0.01295,0.020644,0.017238
-0.0010884,-0.0015781,0.00053507,-0.00069572,-0.00088949,0.00028559,-0.00034408,-0.0003062,-0.0004012,-0.00098629
-0.0093895,-0.014599,-0.013265,-0.011594,-0.012273,-0.013997,-0.013273,-0.011152,-0.012772,-0.014541
-0.026331,-0.026163,-0.028177,-0.023015,-0.028455,-0.026801,-0.024976,-0.030449,-0.027986,-0.020657
0.0084669,0.0077856,0.0047672,0.0099301,0.0092194,0.00915,0.010191,0.0067494,0.0077331,0.01061
-0.010171,-0.014772,-0.00896,-0.012077,-0.01373,-0.016197,-0.016421,-0.010077,-0.011689,-0.012391
0.00037892,0.0043562,0.0062843,0.0010201,0.0014558,0.0093039,0.0048743,0.0029989,0.0011719,0.0025193
-0.001638,-0.0033202,-0.003586,-0.0033762,-0.0013666,0.0010803,-0.0012042,-0.0033286,-0.00070948,-0.00161
0.0030204,0.0013574,0.0027772,0.0023353,0.00026402,0.0015228,0.00047531,0.0067079,0.0037893,0.0025874
-0.03325,-0.031485,-0.035613,-0.027586,-0.033272,-0.036393,-0.033,-0.03131,-0.031733,-0.02869
-0.02146,-0.023336,-0.017502,-0.021197,-0.023312,-0.026912,-0.026708,-0.018678,-0.022485,-0.021754
-0.014761,-0.015503,-0.014185,-0.012723,-0.013999,-0.016384,-0.013217,-0.014783,-0.013492,-0.012361
0.00053659,-1.7228e-05,-0.00092011,-0.0015133,-0.0010017,-0.001085,0.0010297,0.0038859,0.0023511,0.001474
0.038598,0.036129,0.037537,0.034202,0.0388,0.042232,0.039567,0.039465,0.038864,0.035577
-0.024885,-0.023665,-0.02705,-0.02282,-0.023531,-0.027095,-0.027049,-0.029752,-0.027633,-0.023967
0.012119,0.014427,0.01209,0.011578,0.014072,0.015214,0.014946,0.012686,0.012601,0.012038
-0.03325,-0.031485,-0.035613,-0.027586,-0.033272,-0.036393,-0.033,-0.03131,-0.031733,-0.02869
0.0062648,0.0062488,0.0059629,0.0027458,0.0040825,0.0036531,0.0037496,0.0084576,0.0046531,0.0037073
-0.038323,-0.039054,-0.041894,-0.034227,-0.039337,-0.04048,-0.036882,-0.036745,-0.038947,-0.034645
-0.033332,-0.035283,-0.039086,-0.031136,-0.036062,-0.03794,-0.037105,-0.035466,-0.034631,-0.031799
0.010991,0.01156,0.013446,0.010579,0.012912,0.013644,0.014504,0.010686,0.012541,0.011766
-0.050974,-0.052315,-0.046484,-0.044542,-0.05429,-0.056331,-0.056692,-0.048786,-0.053513,-0.046592
-0.015836,-0.013986,-0.015125,-0.013822,-0.016293,-0.016888,-0.015699,-0.013488,-0.016912,-0.013482
-0.03325,-0.031485,-0.035613,-0.027586,-0.033272,-0.036393,-0.033,-0.03131,-0.031733,-0.02869
-0.0045016,0.0016589,-0.0060822,-0.0013987,-0.0013707,-0.0082783,-0.0020755,-0.0031452,-0.00087716,-0.0024354
-0.035007,-0.041085,-0.042051,-0.033684,-0.041442,-0.04392,-0.044564,-0.036109,-0.039753,-0.034847
0.01523,0.015316,0.019766,0.016499,0.016624,0.021817,0.020497,0.014837,0.014012,0.016114
0.0037339,0.0076167,0.0063643,0.001506,0.0052037,0.0061417,0.0046671,0.005288,0.0072302,0.0029243
0.018676,0.01359,0.011951,0.011998,0.017784,0.014665,0.01396,0.010505,0.016379,0.014067
-0.00096178,-0.0014891,0.00064675,-0.00058727,-0.00076337,0.00039035,-0.00023518,-0.00019733,-0.00026007,-0.00088543
-0.0095545,-0.014722,-0.013417,-0.011739,-0.01244,-0.014141,-0.01342,-0.011298,-0.012959,-0.014679
-0.0067509,-0.0069261,-0.010013,-0.0063593,-0.0084771,-0.0073868,-0.0068688,-0.011273,-0.0064841,-0.0062954
0.037564,0.031708,0.03439,0.032025,0.036124,0.033094,0.035332,0.036121,0.035213,0.03149
-0.016824,-0.011355,-0.013738,-0.013005,-0.014051,-0.013026,-0.013843,-0.017252,-0.014481,-0.012492
0.0036305,0.0020686,0.0025388,0.0036678,0.0029282,0.0029889,0.0037622,0.0056588,0.0025294,0.003238
-0.0094939,-0.010274,-0.010774,-0.01025,-0.0098116,-0.0072863,-0.0103,-0.010162,-0.0083274,-0.0089074
0.0032611,0.0015265,0.0029914,0.0025421,0.00050803,0.0017251,0.00068627,0.0069096,0.0040581,0.0027787
-0.03325,-0.031485,-0.035613,-0.027586,-0.033272,-0.036393,-0.033,-0.03131,-0.031733,-0.02869
-0.033954,-0.032112,-0.031535,-0.032989,-0.032513,-0.037723,-0.035858,-0.030709,-0.036445,-0.032774
-0.016595,-0.017281,-0.019668,-0.013479,-0.015127,-0.016194,-0.014965,-0.017238,-0.015356,-0.013348
0.024165,0.022997,0.021378,0.021855,0.024231,0.023358,0.023336,0.023914,0.026368,0.021901
0.0053249,0.0069038,0.0074131,0.0047365,0.003245,0.0070018,0.004991,0.0067452,0.0020069,0.0042811
-0.01739,-0.016183,-0.019183,-0.016149,-0.014648,-0.018788,-0.018578,-0.022442,-0.019828,-0.017419
0.012581,0.014699,0.012559,0.011975,0.014531,0.015595,0.015361,0.013094,0.013109,0.012408
-0.03325,-0.031485,-0.035613,-0.027586,-0.033272,-0.036393,-0.033,-0.03131,-0.031733,-0.02869
-0.010103,-0.01153,-0.0089682,-0.0108,-0.013492,-0.015563,-0.018589,-0.0056988,-0.013316,-0.012011
-0.0023113,-0.003595,-0.0053666,-0.0056829,-0.0045861,-0.0053979,-0.0059948,6.6648e-06,-0.0074158,-0.0060333
-0.0061838,-0.0057968,-0.010589,-0.003002,-0.0046717,-0.0081227,-0.0042154,-0.0059853,-0.0020447,-0.0028156
0.028121,0.027811,0.029998,0.027009,0.030981,0.033325,0.033266,0.020389,0.029279,0.027808
-0.043459,-0.043682,-0.037514,-0.037319,-0.045446,-0.046177,-0.04731,-0.041043,-0.045249,-0.039404
-0.015992,-0.014203,-0.015458,-0.013963,-0.016483,-0.017014,-0.015746,-0.013736,-0.016939,-0.013684
-0.03325,-0.031485,-0.035613,-0.027586,-0.033272,-0.036393,-0.033,-0.03131,-0.031733,-0.02869
-7.4463e-17,-7.9432e-17,-9.1938e-17,-6.6155e-17,-8.3377e-17,-9.2117e-17,-9.21e-17,-8.2745e-17,-8.3565e-17,-7.5719e-17
7.5812e-18,1.3969e-17,1.1905e-17,1.0052e-17,8.8527e-18,8.3062e-18,1.537e-17,2.7832e-17,9.8417e-18,1.9274e-17
0.0073173,0.0035299,0.0077999,0.0084276,0.0077627,0.0074653,0.0073772,0.0029504,0.004485,0.0071856
-0.020227,-0.023141,-0.025923,-0.019106,-0.018802,-0.023768,-0.017567,-0.025516,-0.024699,-0.016375
0.041061,0.040176,0.048611,0.034846,0.04267,0.043715,0.041222,0.043936,0.045286,0.036351
0.0070641,0.0020017,0.0022185,0.0053922,0.0086016,0.0070003,0.0097054,-0.0086779,0.0019778,0.0040606
-0.0091716,-0.0029513,-0.0096753,-0.0092445,-0.010854,-0.0093383,-0.011626,-0.001288,-0.004297,-0.0097566
-1.2116e-16,-1.1898e-16,-1.2607e-16,-9.8512e-17,-1.3562e-16,-1.2461e-16,-1.2803e-16,-1.3597e-16,-1.3535e-16,-1.0145e-16
-4.7939e-17,-4.0326e-17,-4.0309e-17,-3.7895e-17,-4.0339e-17,-4.1987e-17,-4.2557e-17,-5.7472e-17,-4.9412e-17,-3.9356e-17
-0.010691,-0.0047973,-0.0013657,-0.0095605,-0.010105,-0.0076504,-0.0099437,-0.0076752,-0.0074475,-0.010183
-0.052739,-0.054829,-0.056516,-0.047973,-0.060273,-0.062331,-0.059032,-0.056338,-0.054507,-0.050688
0.044518,0.047953,0.047778,0.038936,0.052753,0.058917,0.050426,0.052112,0.05031,0.04771
-0.02592,-0.024717,-0.018868,-0.020521,-0.030419,-0.029327,-0.026566,-0.018503,-0.022176,-0.021441
-0.015018,-0.01821,-0.017684,-0.017099,-0.017139,-0.017278,-0.017696,-0.016402,-0.018758,-0.016538
1.0022e-16,1.1035e-16,1.1205e-16,9.9128e-17,1.0432e-16,1.3086e-16,1.0837e-16,1.1799e-16,1.2237e-16,9.9305e-17
-1.1595e-16,-1.0819e-16,-1.2457e-16,-9.9926e-17,-1.19e-16,-1.1587e-16,-1.2242e-16,-1.1482e-16,-1.1199e-16,-1.0879e-16
0.0039432,0.0058112,0.0094868,0.001775,0.0034798,0.010662,0.0077212,0.0054104,0.0047427,0.0054566
-0.023734,-0.024008,-0.02149,-0.019841,-0.023992,-0.027777,-0.025601,-0.023758,-0.018807,-0.01963
0.00090118,0.0018306,0.00024776,0.0040169,0.0022522,0.0008223,0.0033824,-0.00093662,-0.0012593,0.0038995
0.016003,0.013634,0.0042921,0.013832,0.01029,0.0088376,0.0070265,0.015536,0.014727,0.012757
-0.018192,-0.020426,-0.015768,-0.0171,-0.019514,-0.018937,-0.021284,-0.014587,-0.019057,-0.018374
3.8274e-17,4.7268e-17,4.5673e-17,3.9035e-17,4.6919e-17,4.4726e-17,4.1799e-17,5.4535e-17,4.2922e-17,3.9277e-17
1.6195e-16,1.7207e-16,1.7836e-16,1.4932e-16,1.8884e-16,1.8282e-16,1.9387e-16,1.6985e-16,1.9018e-16,1.6414e-16
0.036744,0.033576,0.036058,0.033005,0.037557,0.039751,0.038551,0.038579,0.039348,0.035527
-0.0077409,-0.0025714,-0.0061962,-0.0097229,-0.0060584,-0.0051151,-0.0028305,-0.0067792,-0.010346,-0.0079471
-0.017859,-0.020606,-0.0137,-0.018687,-0.021924,-0.024989,-0.022953,-0.012341,-0.017516,-0.017857
-0.0026243,-0.0017067,-0.0021071,-0.0011591,0.0032428,0.0044444,-0.00069535,-0.0057894,-0.0042266,-0.0011572
-0.012845,-0.013678,-0.013045,-0.013751,-0.016978,-0.01514,-0.014903,-0.012978,-0.014517,-0.013317
-2.9368e-17,-3.7743e-17,-3.1255e-17,-2.1007e-17,-2.5979e-17,-1.6114e-17,-2.4779e-17,-3.7843e-17,-1.6202e-17,-2.3716e-17
-3.2382e-17,-4.9005e-17,-4.0652e-17,-3.3054e-17,-3.6271e-17,-3.5126e-17,-4.4731e-17,-3.9143e-17,-4.6957e-17,-2.6665e-17
-8.1404e-05,0.00019024,-9.556e-05,0.0009747,0.00022791,0.00011577,0.001964,-0.00064442,0.00031165,0.0010074
-0.0083642,-0.012083,-0.013295,-0.010604,-0.013098,-0.01032,-0.011732,-0.0047896,-0.011271,-0.0094297
-0.0057567,-0.0057837,-0.0088623,-0.0058023,-0.0019705,-0.0052482,0.00014784,-0.0059171,-0.0041872,-0.0039142
-0.018063,-0.017522,-0.016283,-0.017035,-0.019162,-0.017893,-0.01992,-0.019878,-0.014382,-0.019033
-0.026394,-0.025622,-0.026212,-0.026565,-0.028032,-0.029536,-0.029991,-0.024498,-0.026761,-0.023923
1.8675e-17,1.4827e-17,1.8821e-17,2.0211e-17,1.5428e-17,1.5917e-17,2.1145e-17,6.6275e-18,2.2621e-17,1.329e-17
-2.1521e-17,-2.0301e-18,-1.2359e-17,-1.4208e-17,-7.9301e-18,-3.9848e-18,-2.4113e-18,-1.9524e-17,-2.5658e-17,-7.2541e-18
-0.013691,-0.0077521,-0.0092333,-0.014056,-0.015605,-0.015404,-0.014718,-0.011954,-0.012716,-0.014847
-0.036906,-0.039451,-0.039705,-0.032969,-0.040622,-0.044142,-0.040345,-0.03977,-0.04061,-0.035548
0.042927,0.043315,0.038931,0.036158,0.051055,0.051775,0.046697,0.04535,0.046784,0.042725
-0.026143,-0.024361,-0.023567,-0.021827,-0.031041,-0.029893,-0.027195,-0.021289,-0.023566,-0.021187
0.025576,0.022889,0.025422,0.024693,0.029624,0.032693,0.029622,0.024735,0.025022,0.024986
3.5113e-18,7.1204e-18,-5.9463e-18,1.9986e-18,-8.4647e-20,2.1138e-18,-2.3173e-18,-3.2106e-18,1.2626e-18,1.4541e-18
-3.2642e-17,-2.852e-17,-3.1145e-17,-2.9923e-17,-2.8973e-17,-2.8428e-17,-3.1006e-17,-3.3203e-17,-3.5908e-17,-3.0518e-17
0.011221,0.0049426,0.00884,0.0058614,0.0082446,0.0037029,0.0066907,0.010073,0.0084886,0.0072016
-0.0033668,-0.0053881,-0.0033103,-0.0026119,-0.0026554,-0.00686,-0.0043287,-0.0024894,0.0026279,-0.0025608
0.042933,0.04496,0.041524,0.039311,0.04366,0.041414,0.04476,0.044062,0.042895,0.038322
0.01941,0.018387,0.011508,0.01773,0.015628,0.015094,0.01251,0.019283,0.021216,0.014847
-0.026051,-0.020864,-0.022184,-0.020161,-0.022737,-0.017033,-0.021632,-0.025155,-0.024369,-0.019974
8.5305e-17,9.2025e-17,9.8527e-17,7.6548e-17,9.4977e-17,1.0269e-16,1.0067e-16,8.2542e-17,8.9286e-17,7.7216e-17
-1.8209e-17,-1.402e-17,-1.7181e-17,-1.7385e-17,-1.7859e-17,-2.0175e-17,-1.752e-17,-4.7695e-18,-1.1092e-17,-1.0499e-17
0.00056391,-0.00057321,-0.00038529,0.00069966,-0.00023473,-0.00022397,-0.00098222,0.00077019,-2.9627e-05,0.00065112
-0.01937,-0.015064,-0.021529,-0.018699,-0.017566,-0.016284,-0.015659,-0.017735,-0.025243,-0.018327
-0.026145,-0.025267,-0.025116,-0.027362,-0.026788,-0.02948,-0.027774,-0.021258,-0.026041,-0.02412
-0.0047573,-0.0044193,-0.0017465,-0.0025343,0.0016163,0.003007,0.00052839,-0.0096985,-0.0048155,-0.0033832
0.022637,0.022236,0.023443,0.021236,0.023391,0.023488,0.024214,0.02154,0.023808,0.020464
9.4746e-17,7.9557e-17,7.5612e-17,7.9321e-17,9.2849e-17,8.1141e-17,8.641e-17,7.7613e-17,8.9126e-17,8.0119e-17
-9.5285e-17,-8.6999e-17,-8.1452e-17,-7.7218e-17,-1.0529e-16,-9.9703e-17,-1.0678e-16,-6.9424e-17,-9.7764e-17,-8.3263e-17
0.0078418,0.0071417,0.0018401,0.0074491,0.0052451,0.0058948,0.0072828,0.0025025,0.0057818,0.0088862
-0.0053383,-0.0069278,-0.0066017,-0.0085437,-0.0097842,-0.0072154,-0.008475,-0.001807,-0.0087228,-0.00689
-0.011696,-0.011947,-0.0098067,-0.010523,-0.006497,-0.011232,-0.010034,-0.012457,-0.011084,-0.011189
-0.017229,-0.017066,-0.016535,-0.015479,-0.019143,-0.018507,-0.019095,-0.016046,-0.015323,-0.017967
-0.016477,-0.012842,-0.013256,-0.012446,-0.014702,-0.014799,-0.013564,-0.012618,-0.012527,-0.012917
0.13189,0.13022,0.1285,0.11681,0.13705,0.13752,0.13821,0.12592,0.13746,0.11837
0.011415,0.0087324,0.0065814,0.0096144,0.012265,0.010812,0.012086,0.011898,0.013015,0.0068679
0.015447,0.012185,0.023957,0.013915,0.0097456,0.011678,0.011283,0.018285,0.016001,0.014799
-0.07572,-0.074537,-0.084083,-0.066337,-0.075318,-0.080782,-0.079928,-0.0764,-0.079939,-0.066646
0.021634,0.020478,0.022516,0.016988,0.02528,0.023154,0.023428,0.023983,0.025176,0.018236
-0.019652,-0.018283,-0.020345,-0.017207,-0.02079,-0.019658,-0.019664,-0.019543,-0.021007,-0.016544
-0.0035338,-0.0036152,-0.0033772,-0.0030304,-0.0040651,-0.0036737,-0.0036375,-0.0035444,-0.003879,-0.0030751
0.0093051,0.0071256,0.013722,0.0096048,0.012213,0.012309,0.013251,0.010292,0.010831,0.0095025
0.0028499,0.0039398,-0.00021214,-0.00073571,0.0048328,0.0025657,0.0017353,0.0045227,0.005683,0.00036089
0.041047,0.038471,0.045483,0.037335,0.042723,0.042164,0.043707,0.041918,0.041524,0.03747
-0.003199,-0.0026938,-0.0029899,-0.0028067,-0.003486,-0.0028367,-0.0030443,-0.0031929,-0.0034476,-0.002602
-0.078976,-0.078246,-0.082759,-0.070679,-0.081622,-0.082682,-0.083765,-0.076163,-0.080554,-0.072246
0.043246,0.042968,0.043349,0.040896,0.043791,0.046337,0.045762,0.043458,0.045823,0.040349
-0.019675,-0.020119,-0.020149,-0.017351,-0.020586,-0.019731,-0.021482,-0.01946,-0.022012,-0.019473
-0.025752,-0.024149,-0.025873,-0.026034,-0.025402,-0.030163,-0.02621,-0.027356,-0.026185,-0.022633
0.041212,0.040352,0.0427,0.03849,0.043152,0.045815,0.044376,0.043778,0.045588,0.039807
0.04101,0.038761,0.040634,0.040093,0.03791,0.042559,0.039841,0.039701,0.039864,0.034446
-0.060458,-0.063267,-0.062255,-0.059548,-0.062835,-0.064,-0.065141,-0.065025,-0.066159,-0.055745
0.031046,0.020768,0.021315,0.025625,0.034727,0.026427,0.026114,0.027711,0.03334,0.022891
0.056344,0.051094,0.050737,0.047061,0.056869,0.053888,0.051597,0.05005,0.053939,0.045169
-0.022746,-0.021604,-0.017614,-0.017983,-0.024249,-0.023686,-0.023098,-0.017147,-0.019538,-0.018364
-0.027184,-0.023911,-0.027983,-0.023578,-0.025937,-0.023865,-0.022518,-0.027546,-0.028302,-0.021076
-0.00086843,-0.0024644,-0.0056016,-0.0010949,-0.0011862,-0.0030806,-0.0052207,-0.0044671,-0.0022459,-0.0041466
0.068495,0.072314,0.073788,0.059435,0.076155,0.081227,0.076307,0.068119,0.072601,0.062953
0.12183,0.11652,0.11506,0.10847,0.12546,0.1204,0.12538,0.11309,0.12129,0.10662
-0.014561,-0.011916,-0.016474,-0.014318,-0.010006,-0.012075,-0.012955,-0.018578,-0.012654,-0.014286
0.0044394,0.012749,0.0028197,0.0024512,0.011682,0.0088945,0.0067745,0.003379,0.0096487,-0.00054089
-0.0026832,-0.0025938,-0.0070988,-0.0048598,0.0025526,-0.0021874,-0.0014067,-0.013375,-0.00037833,-0.0060209
0.023456,0.017057,0.025906,0.019582,0.022656,0.023951,0.021939,0.028987,0.02292,0.020736
0.0028279,0.0070688,0.00015095,0.0002758,0.01041,0.0062401,0.0054399,-0.0042708,0.0066584,-0.0018449
-0.0018602,-0.0043521,0.0025892,-6.8797e-05,-0.0057909,-0.0043214,-0.0059778,7.7036e-06,-0.0052078,-0.0016047
-0.0025552,-0.0020806,0.0071638,-0.0013944,-0.0062206,-0.0012814,-0.0050929,0.0046587,-0.0050156,-0.0015553
-0.024802,-0.022859,-0.020117,-0.019771,-0.03139,-0.032364,-0.030751,-0.018665,-0.027069,-0.022338
0.065116,0.064447,0.066983,0.05853,0.071424,0.077786,0.069181,0.054805,0.066756,0.05924
-0.014491,-0.013936,-0.0072867,-0.010935,-0.019385,-0.01693,-0.018168,-0.0071909,-0.016331,-0.011912
0.068538,0.071997,0.073662,0.065582,0.0722,0.075147,0.075819,0.065802,0.071091,0.062415
-0.018611,-0.017363,-0.018984,-0.017642,-0.018407,-0.018047,-0.019412,-0.0099221,-0.015487,-0.015936
-0.071432,-0.070493,-0.075048,-0.064492,-0.073317,-0.077194,-0.074553,-0.06841,-0.073671,-0.062703
-0.019018,-0.018253,-0.017625,-0.01768,-0.019341,-0.017902,-0.019643,-0.0088397,-0.014904,-0.015825
-0.026297,-0.025904,-0.031994,-0.024431,-0.024464,-0.028847,-0.028014,-0.020492,-0.028467,-0.025292
-0.015694,-0.021417,-0.015804,-0.014906,-0.017802,-0.020225,-0.016616,-0.021319,-0.017155,-0.011733
-0.023249,-0.019598,-0.019649,-0.020389,-0.024538,-0.022002,-0.022841,-0.02159,-0.021925,-0.01979
0.009155,0.0095909,0.011868,0.0054029,0.0092138,0.012441,0.0091961,0.011424,0.0095339,0.007861
0.017533,0.018725,0.017776,0.014603,0.016738,0.019911,0.018717,0.01975,0.022861,0.01638
-0.038807,-0.039121,-0.034218,-0.035451,-0.04076,-0.04285,-0.04374,-0.038401,-0.042481,-0.034407
0.028949,0.025829,0.01996,0.021109,0.026431,0.026435,0.029219,0.028815,0.031167,0.025251
-0.024844,-0.023926,-0.025605,-0.024338,-0.023076,-0.024693,-0.025034,-0.023798,-0.02539,-0.021722
-0.0044474,-0.0066781,-0.0085718,-0.0024589,-0.0053397,-0.0094397,-0.0054554,-0.0091027,-0.0083569,-0.004415
-0.013461,-0.013295,-0.010751,-0.013096,-0.01338,-0.014073,-0.015294,-0.013686,-0.015075,-0.014045
-0.0074986,-0.0048867,-0.002426,-0.0076115,-0.0088941,-0.0051336,-0.0077296,-0.003857,-0.0060395,-0.0057562
-0.0022616,0.0010321,-0.0029495,-0.00021836,0.0031923,0.0041917,0.006829,-0.008885,-0.0028461,0.0013435
-0.0093261,-0.0078995,-0.006162,-0.0091147,-0.0094749,-0.0096426,-0.011149,-0.0083038,-0.010018,-0.0094855
0.0059552,0.0049963,0.005107,0.0040422,0.0058986,0.0053227,0.0051805,0.0038927,0.0062433,0.0041917
-0.017031,-0.019575,-0.017615,-0.016287,-0.019486,-0.019167,-0.018686,-0.016689,-0.01786,-0.014847
0.013876,0.01571,0.01224,0.015216,0.014661,0.015962,0.017029,0.015809,0.015968,0.014777
-0.0052349,-0.0050941,-0.007196,-0.0064466,-0.0056906,-0.0057979,-0.0054226,-0.005934,-0.0072219,-0.0061042
0.006107,0.0037481,0.0036263,0.0044531,0.0054311,0.0054542,0.0062782,0.0067122,0.0064822,0.0055007
-0.015628,-0.01473,-0.016151,-0.01583,-0.013509,-0.014797,-0.015128,-0.015927,-0.016112,-0.013695
-0.0079772,-0.010931,-0.012865,-0.0058979,-0.0091061,-0.0138,-0.0099566,-0.011196,-0.011608,-0.0075842
-0.018673,-0.018816,-0.016441,-0.018017,-0.0187,-0.020115,-0.020997,-0.019076,-0.020399,-0.01884
-0.014756,-0.013013,-0.011473,-0.015114,-0.016388,-0.01387,-0.016224,-0.010065,-0.013965,-0.012837
-0.0048845,-0.0013512,-0.0051944,-0.0024748,0.00080315,0.0022468,0.0044083,-0.0098913,-0.0045285,-0.00054355
-0.01479,-0.013909,-0.012538,-0.01445,-0.014912,-0.016225,-0.01736,-0.013981,-0.015764,-0.014692
0.0023305,0.0018588,0.001912,0.00068663,0.002133,0.0017294,0.0013554,8.5597e-05,0.0027159,0.00090586
-0.016668,-0.019243,-0.017063,-0.016248,-0.019213,-0.018589,-0.018351,-0.016067,-0.017486,-0.014502
0.0028277,0.0047559,0.0020778,0.0052793,0.0026986,0.0041929,0.0045646,0.0044311,0.003846,0.0048333
-0.0059506,-0.0051899,-0.006702,-0.0065553,-0.0066121,-0.0062486,-0.0061761,-0.0060205,-0.0069732,-0.0067597
0.002863,0.00046392,0.00079111,0.0011875,0.0019936,0.0021286,0.0026612,0.0034034,0.0029415,0.0025128
-0.0077458,-0.0058772,-0.003266,0.0021379,0.0049264,0.00043707,0.00046381,-0.0073954,0.0032642,-0.00053954
-0.011181,-0.0082976,-0.0084872,-0.012587,-0.011103,-0.012685,-0.010495,-0.0052999,-0.014407,-0.01254
0.0052662,0.0043123,0.0023454,0.00086824,0.0025952,0.00019286,0.0015287,0.0099982,0.0054396,0.00094261
-0.0063377,-0.0047571,-0.0054595,-0.0094054,-0.0095255,-0.013243,-0.0076442,-0.0035051,-0.01353,-0.0088698
-0.017005,-0.010434,-0.014908,-0.018859,-0.010953,-0.011534,-0.012336,-0.011171,-0.016104,-0.0129
0.0062423,0.00095943,0.0044867,0.004318,0.0028086,0.0012948,0.0040036,0.0045846,0.0043601,0.0023637
0.016422,0.018046,0.011009,0.01502,0.013714,0.015779,0.01674,0.018516,0.014987,0.013593
-0.0030896,-0.00034433,-0.0073503,-0.0054468,-0.0054899,-0.0029568,-0.0020099,-0.0038624,-0.0080751,-0.00052994
0.008759,0.0103,0.0016975,0.0069738,0.0099678,0.0083612,0.013284,0.009009,0.0047054,0.0086615
-0.0062967,-0.0075672,-0.0088564,-0.0086699,-0.012286,-0.0078649,-0.0095702,-0.0082591,-0.0095159,-0.005574
0.015424,0.014616,0.012958,0.016461,0.017621,0.018843,0.019964,0.017565,0.016538,0.015782
0.10942,0.11287,0.10604,0.099758,0.1166,0.11899,0.12047,0.10403,0.11316,0.10057
0.0068846,0.0073115,0.0063399,0.0065322,0.011993,0.011453,0.011151,0.0014364,0.0056619,0.0092138
-0.011256,-0.012153,-0.0013518,-0.0088345,-0.013523,-0.011611,-0.01362,-0.0092782,-0.0095497,-0.0071763
0.0019958,0.0034499,0.011598,0.0017537,0.00092763,0.0041611,0.00071667,0.0047651,0.0042439,0.0039515
0.030574,0.03103,0.032032,0.029486,0.036533,0.040961,0.039376,0.029676,0.031022,0.031566
-0.003235,-0.0026693,0.0061436,-0.0023929,-0.0046321,-0.0019916,-0.0047183,-0.00093073,-0.0013374,-0.00038826
0.036894,0.036005,0.031322,0.032732,0.037944,0.037078,0.036212,0.036604,0.035142,0.031739
0.014219,0.0138,0.010859,0.01321,0.015875,0.013754,0.015723,0.012028,0.013333,0.015131
0.01725,0.018712,0.014133,0.017266,0.019908,0.023355,0.020527,0.014805,0.018098,0.015085
-0.016658,-0.013425,-0.0095137,-0.013782,-0.0164,-0.0083368,-0.011873,-0.013852,-0.018417,-0.014756
0.020299,0.020382,0.016338,0.019084,0.022214,0.022989,0.021974,0.017858,0.020312,0.018247
-0.00029129,-0.0078185,-0.01351,0.00043019,0.0011929,0.0016819,0.0043368,-0.014017,-0.0016738,-0.0024275
-0.029701,-0.025559,-0.02308,-0.025017,-0.026917,-0.02632,-0.028367,-0.025239,-0.029194,-0.022538
0.0019074,0.0025046,0.0065341,0.00084204,-0.0022153,-0.00053416,0.0013454,0.0037974,0.0005956,-0.001489
-0.011796,-0.0099638,-0.0032889,-0.010511,-0.014332,-0.012846,-0.012551,-0.0057601,-0.010642,-0.011428
-0.045336,-0.04159,-0.034553,-0.0372,-0.039274,-0.0363,-0.044547,-0.042288,-0.047021,-0.033173
-0.010189,-0.0085508,-0.0028158,-0.00919,-0.013729,-0.011563,-0.010582,-0.0051087,-0.010043,-0.010434
0.0046386,0.0063228,-0.0030616,0.0062733,0.0074926,0.0091734,0.004715,0.00042462,0.0054393,0.0054794
-0.001962,-0.0011764,-0.0072289,-0.0015525,-0.002052,-0.0013281,-0.00010463,-0.006408,-0.0024301,-0.0014131
0.025336,0.026403,0.018936,0.023639,0.02785,0.028773,0.029455,0.023281,0.027994,0.023933
-0.010551,-0.0081185,-0.011897,-0.0053671,-0.010225,-0.0030858,-0.012611,-0.010019,-0.0090168,-0.0045604
0.019652,0.02044,0.012931,0.018045,0.021376,0.022004,0.02319,0.016267,0.02113,0.01863
-0.046697,-0.048689,-0.048695,-0.042988,-0.04654,-0.049498,-0.048019,-0.04792,-0.049005,-0.041011
-0.016416,-0.017591,-0.022785,-0.014028,-0.018305,-0.025933,-0.019418,-0.020086,-0.020012,-0.016641
-0.015617,-0.015484,-0.014512,-0.014323,-0.014374,-0.018203,-0.017609,-0.014889,-0.018013,-0.016011
-0.01456,-0.013084,-0.013069,-0.015561,-0.016806,-0.015595,-0.015931,-0.010746,-0.015509,-0.013976
-0.013104,-0.010135,-0.015903,-0.0086467,-0.010895,-0.012253,-0.0068197,-0.018767,-0.012769,-0.0086124
-0.0094485,-0.0077611,-0.0069418,-0.0093589,-0.0091119,-0.010971,-0.011351,-0.0071737,-0.010348,-0.0099555
0.008003,0.0060616,0.0060243,0.0052301,0.0073212,0.0065422,0.007145,0.0058528,0.0079852,0.0048401
-0.015662,-0.017786,-0.017805,-0.014869,-0.017331,-0.017831,-0.015992,-0.015618,-0.01591,-0.013503
0.0038355,0.0054184,0.0038264,0.0059806,0.0044512,0.0057422,0.0061512,0.0053713,0.0048261,0.0054032
-0.0089563,-0.010828,-0.011871,-0.011248,-0.01027,-0.011954,-0.011776,-0.010648,-0.012864,-0.010895
0.007091,0.0062359,0.0051656,0.0062953,0.0076164,0.0079966,0.0092827,0.0078482,0.0082689,0.0069815
0.041784,0.043348,0.043429,0.038246,0.041321,0.044005,0.042461,0.0431,0.043849,0.03651
0.018807,0.019786,0.025207,0.016177,0.020314,0.02836,0.022098,0.020778,0.021756,0.018652
0.019254,0.019217,0.018357,0.017654,0.017929,0.022167,0.021518,0.018546,0.021744,0.019383
0.014159,0.010614,0.016462,0.0094951,0.011761,0.012474,0.0076498,0.017874,0.01279,0.0091352
0.017909,0.016514,0.017011,0.018776,0.019552,0.019071,0.01919,0.013415,0.018757,0.016949
-0.012138,-0.010744,-0.010203,-0.011975,-0.011403,-0.014179,-0.014356,-0.0099543,-0.013046,-0.01261
-0.0051686,-0.0038589,-0.003945,-0.0027985,-0.004435,-0.0038952,-0.0042695,-0.0032374,-0.0051456,-0.002415
0.015919,0.017838,0.017552,0.015179,0.017548,0.017843,0.016261,0.015546,0.016206,0.013655
0.0085206,0.009788,0.010255,0.010365,0.0096793,0.01094,0.011035,0.0099588,0.011733,0.010478
3.1738e-05,-0.0019078,-0.00070741,-0.002568,-0.0002543,-0.0016118,-0.0016842,-0.0019211,-0.00057573,-0.0020265
0.0052309,0.0046483,0.003955,0.0045808,0.0056982,0.0061126,0.0071681,0.0063446,0.0062402,0.0053703
0.03812,0.039369,0.039504,0.034713,0.037434,0.039914,0.038324,0.039502,0.040005,0.033157
0.020597,0.021404,0.026971,0.017777,0.021808,0.030105,0.02407,0.021254,0.023039,0.020128
0.021453,0.021514,0.020729,0.019715,0.019976,0.024622,0.023909,0.020837,0.023932,0.021456
0.015249,0.011254,0.017147,0.010405,0.012597,0.012805,0.0085332,0.017446,0.013146,0.009797
0.019249,0.018056,0.018946,0.020251,0.020554,0.020661,0.020532,0.014466,0.020023,0.018205
-0.014397,-0.013154,-0.012805,-0.014136,-0.013314,-0.016786,-0.016779,-0.012069,-0.015256,-0.014733
-0.003098,-0.0022696,-0.0024627,-0.0010337,-0.0023385,-0.0019849,-0.0021832,-0.0013541,-0.0030909,-0.0006594
0.016103,0.017865,0.017363,0.015397,0.017697,0.017843,0.016449,0.015488,0.016418,0.013763
0.0078411,0.0087675,0.0088596,0.0094239,0.0088448,0.0098416,0.010092,0.0091304,0.010569,0.0098712
0.0018343,-0.00045874,0.00066175,-0.00090886,0.0017095,0.00027637,0.00038536,-0.00046882,0.0014074,-0.00058468
0.0040599,0.0036834,0.0032404,0.0034812,0.0044823,0.0049346,0.0058235,0.0054518,0.0049659,0.00437
-0.0071913,-0.0057079,-0.0042363,-0.005382,-0.0061659,-0.0064264,-0.0054714,-0.0068272,-0.0075378,-0.0038343
-0.00057153,-0.0006672,-0.0031512,0.0044902,2.0184e-05,-0.0023791,0.0014293,0.004727,0.0031748,0.0024508
-0.0005459,-0.0010831,-0.0036841,-0.00021217,-0.0015434,-0.0032923,-0.0041257,-0.0010703,-0.0018504,8.6462e-05
0.010596,0.0086445,0.0071153,0.0088886,0.011334,0.010286,0.011313,0.0095716,0.010281,0.010048
0.0060102,0.0044561,0.0036797,0.0032411,0.0051849,0.0075037,0.0041387,0.0043883,0.0041018,0.0055278
-0.016568,-0.015591,-0.015118,-0.015081,-0.017685,-0.017343,-0.016314,-0.014227,-0.017765,-0.015257
-0.013895,-0.01298,-0.013128,-0.012733,-0.014509,-0.014396,-0.013089,-0.011669,-0.015095,-0.012635
-0.0017328,-0.0013605,-0.0014015,-0.0018018,-0.0017869,-0.0018754,-0.0042276,-0.0019554,-0.001926,-0.00063644
0.0093642,0.0088324,0.0094414,0.008539,0.0092817,0.0097166,0.0076683,0.008266,0.010397,0.0090039
0.0063766,0.0078122,0.010158,0.006937,0.0083765,0.0087246,0.01065,0.0077654,0.0076897,0.0076041
-0.0030708,-0.0039968,-0.0062368,-0.0037763,-0.0045086,-0.0048291,-0.0066472,-0.0040158,-0.0040054,-0.0042747
0.000263,0.00074433,0.0028291,0.0010534,0.0012307,0.0015635,0.0032713,0.00079957,0.00085472,0.0014021
0.010205,0.010202,0.010921,0.0094825,0.011669,0.011653,0.012997,0.0091829,0.010715,0.0094927
0.011806,0.013475,0.013574,0.010573,0.013928,0.014785,0.012273,0.012075,0.012935,0.012463
-0.0071913,-0.0057079,-0.0042363,-0.005382,-0.0061659,-0.0064264,-0.0054714,-0.0068272,-0.0075378,-0.0038343
-0.00057153,-0.0006672,-0.0031512,0.0044902,2.0184e-05,-0.0023791,0.0014293,0.004727,0.0031748,0.0024508
-0.0005459,-0.0010831,-0.0036841,-0.00021217,-0.0015434,-0.0032923,-0.0041257,-0.0010703,-0.0018504,8.6462e-05
0.010596,0.0086445,0.0071153,0.0088886,0.011334,0.010286,0.011313,0.0095716,0.010281,0.010048
0.0060102,0.0044561,0.0036797,0.0032411,0.0051849,0.0075037,0.0041387,0.0043883,0.0041018,0.0055278
-0.016568,-0.015591,-0.015118,-0.015081,-0.017685,-0.017343,-0.016314,-0.014227,-0.017765,-0.015257
-0.013895,-0.01298,-0.013128,-0.012733,-0.014509,-0.014396,-0.013089,-0.011669,-0.015095,-0.012635
-0.0017328,-0.0013605,-0.0014015,-0.0018018,-0.0017869,-0.0018754,-0.0042276,-0.0019554,-0.001926,-0.00063644
0.0093642,0.0088324,0.0094414,0.008539,0.0092817,0.0097166,0.0076683,0.008266,0.010397,0.0090039
0.0063766,0.0078122,0.010158,0.006937,0.0083765,0.0087246,0.01065,0.0077654,0.0076897,0.0076041
-0.0030708,-0.0039968,-0.0062368,-0.0037763,-0.0045086,-0.0048291,-0.0066472,-0.0040158,-0.0040054,-0.0042747
0.000263,0.00074433,0.0028291,0.0010534,0.0012307,0.0015635,0.0032713,0.00079957,0.00085472,0.0014021
0.010205,0.010202,0.010921,0.0094825,0.011669,0.011653,0.012997,0.0091829,0.010715,0.0094927
0.011806,0.013475,0.013574,0.010573,0.013928,0.014785,0.012273,0.012075,0.012935,0.012463
-0.0071913,-0.0057079,-0.0042363,-0.005382,-0.0061659,-0.0064264,-0.0054714,-0.0068272,-0.0075378,-0.0038343
-0.00057153,-0.0006672,-0.0031512,0.0044902,2.0184e-05,-0.0023791,0.0014293,0.004727,0.0031748,0.0024508
-0.0005459,-0.0010831,-0.0036841,-0.00021217,-0.0015434,-0.0032923,-0.0041257,-0.0010703,-0.0018504,8.6462e-05
0.010596,0.0086445,0.0071153,0.0088886,0.011334,0.010286,0.011313,0.0095716,0.010281,0.010048
0.0060102,0.0044561,0.0036797,0.0032411,0.0051849,0.0075037,0.0041387,0.0043883,0.0041018,0.0055278
-0.016568,-0.015591,-0.015118,-0.015081,-0.017685,-0.017343,-0.016314,-0.014227,-0.017765,-0.015257
-0.013895,-0.01298,-0.013128,-0.012733,-0.014509,-0.014396,-0.013089,-0.011669,-0.015095,-0.012635
-0.0017328,-0.0013605,-0.0014015,-0.0018018,-0.0017869,-0.0018754,-0.0042276,-0.0019554,-0.001926,-0.00063644
0.0093642,0.0088324,0.0094414,0.008539,0.0092817,0.0097166,0.0076683,0.008266,0.010397,0.0090039
0.0063766,0.0078122,0.010158,0.006937,0.0083765,0.0087246,0.01065,0.0077654,0.0076897,0.0076041
-0.0030708,-0.0039968,-0.0062368,-0.0037763,-0.0045086,-0.0048291,-0.0066472,-0.0040158,-0.0040054,-0.0042747
0.000263,0.00074433,0.0028291,0.0010534,0.0012307,0.0015635,0.0032713,0.00079957,0.00085472,0.0014021
0.010205,0.010202,0.010921,0.0094825,0.011669,0.011653,0.012997,0.0091829,0.010715,0.0094927
0.011806,0.013475,0.013574,0.010573,0.013928,0.014785,0.012273,0.012075,0.012935,0.012463
-0.0071913,-0.0057079,-0.0042363,-0.005382,-0.0061659,-0.0064264,-0.0054714,-0.0068272,-0.0075378,-0.0038343
-0.00057153,-0.0006672,-0.0031512,0.0044902,2.0184e-05,-0.0023791,0.0014293,0.004727,0.0031748,0.0024508
-0.0005459,-0.0010831,-0.0036841,-0.00021217,-0.0015434,-0.0032923,-0.0041257,-0.0010703,-0.0018504,8.6462e-05
0.010596,0.0086445,0.0071153,0.0088886,0.011334,0.010286,0.011313,0.0095716,0.010281,0.010048
0.0060102,0.0044561,0.0036797,0.0032411,0.0051849,0.0075037,0.0041387,0.0043883,0.0041018,0.0055278
-0.016568,-0.015591,-0.015118,-0.015081,-0.017685,-0.017343,-0.016314,-0.014227,-0.017765,-0.015257
-0.013895,-0.01298,-0.013128,-0.012733,-0.014509,-0.014396,-0.013089,-0.011669,-0.015095,-0.012635
-0.0017328,-0.0013605,-0.0014015,-0.0018018,-0.0017869,-0.0018754,-0.0042276,-0.0019554,-0.001926,-0.00063644
0.0093642,0.0088324,0.0094414,0.008539,0.0092817,0.0097166,0.0076683,0.008266,0.010397,0.0090039
0.0063766,0.0078122,0.010158,0.006937,0.0083765,0.0087246,0.01065,0.0077654,0.0076897,0.0076041
-0.0030708,-0.0039968,-0.0062368,-0.0037763,-0.0045086,-0.0048291,-0.0066472,-0.0040158,-0.0040054,-0.0042747
0.000263,0.00074433,0.0028291,0.0010534,0.0012307,0.0015635,0.0032713,0.00079957,0.00085472,0.0014021
0.010205,0.010202,0.010921,0.0094825,0.011669,0.011653,0.012997,0.0091829,0.010715,0.0094927
0.011806,0.013475,0.013574,0.010573,0.013928,0.014785,0.012273,0.012075,0.012935,0.012463
0.0071902,0.0057073,0.0042329,0.0053806,0.0061641,0.0064254,0.0054698,0.0068257,0.0075364,0.0038316
-0.0211,-0.021401,-0.023429,-0.02244,-0.020269,-0.02311,-0.020268,-0.02816,-0.023129,-0.018193
0.003569,-0.00081952,0.0075971,-0.00030574,0.00080943,0.0022093,0.0031632,0.004341,0.0018299,0.0025829
0.010596,0.0086445,0.0071153,0.0088886,0.011334,0.010286,0.011313,0.0095716,0.010281,0.010048
0.0060102,0.0044561,0.0036797,0.0032411,0.0051849,0.0075037,0.0041387,0.0043883,0.0041018,0.0055278
-0.016568,-0.015591,-0.015118,-0.015081,-0.017685,-0.017343,-0.016314,-0.014227,-0.017765,-0.015257
-0.013895,-0.01298,-0.013128,-0.012733,-0.014509,-0.014396,-0.013089,-0.011669,-0.015095,-0.012635
0.0017328,0.0013605,0.0014015,0.0018018,0.0017869,0.0018754,0.0042276,0.0019554,0.001926,0.00063644
-0.0093642,-0.0088324,-0.0094414,-0.008539,-0.0092817,-0.0097166,-0.0076683,-0.008266,-0.010397,-0.0090039
0.0063766,0.0078122,0.010158,0.006937,0.0083765,0.0087246,0.01065,0.0077654,0.0076897,0.0076041
0.0030708,0.0039968,0.0062368,0.0037763,0.0045086,0.0048291,0.0066472,0.0040158,0.0040054,0.0042747
0.000263,0.00074433,0.0028291,0.0010534,0.0012307,0.0015635,0.0032713,0.00079957,0.00085472,0.0014021
-0.0020193,-0.0035288,-0.0018265,0.00031076,-0.0041851,-0.0045632,-0.0037323,-0.0047656,-0.0009212,-0.0011581
-0.011806,-0.013475,-0.013574,-0.010573,-0.013928,-0.014785,-0.012273,-0.012075,-0.012935,-0.012463
0.0026197,0.0018251,0.00062785,0.00051478,0.00497,-0.0030228,0.00089403,0.00066388,0.003555,-0.0010612
0.019235,0.020745,0.01777,0.01592,0.020038,0.021125,0.017935,0.01722,0.019542,0.017092
0.0077586,0.0064231,0.0047959,0.0078508,0.0086658,0.0088323,0.0064315,0.0005546,0.0041813,0.0073027
-0.009634,-0.010308,-0.0079092,-0.0070859,-0.013974,-0.0056067,-0.010865,-0.0092193,-0.01247,-0.0062752
-0.021414,-0.016174,-0.012465,-0.014707,-0.018008,-0.015533,-0.018649,-0.014895,-0.021302,-0.014117
0.0068049,0.009648,0.0083484,0.006473,0.011823,0.01234,0.0090661,0.0079215,0.00075453,0.0065757
-0.0072903,-0.0066147,-0.0048503,-0.0048863,-0.0091397,-0.0019144,-0.007401,-0.0063785,-0.011507,-0.0040873
0.00042827,-0.0015487,-0.0016991,-0.00038968,0.00098207,-0.0035922,-0.00081546,-0.00069772,0.0020865,-0.0013205
0.0049222,0.0040102,0.0026853,0.0030188,0.0064997,-0.00027613,0.0046313,0.0041134,0.0084987,0.0021044
-0.0015948,0.00011148,0.00066863,-0.0012043,-0.0032026,-0.0021701,-0.0037208,-0.00078721,-0.0023366,-0.0024132
0.0032094,0.0012881,0.00096934,0.0025504,0.0046312,0.0038641,0.0048397,0.0018815,0.0036673,0.0033547
-0.0043136,-0.0021735,-0.0020841,-0.0034493,-0.0054858,-0.0047917,-0.0053481,-0.0026166,-0.0045824,-0.0038474
0.0079841,0.0095781,0.0097183,0.0072259,0.0086548,0.013482,0.0094436,0.0054794,0.0055505,0.0071178
0.0053639,0.0037494,0.0032399,0.003563,0.0067686,0.0015821,0.0046402,0.0031747,0.00744,0.0022519
-0.010845,-0.013162,-0.01135,-0.011894,-0.012977,-0.01516,-0.014702,-0.013779,-0.013251,-0.0095817
0.02757,0.027373,0.026942,0.02362,0.029324,0.029417,0.025166,0.022242,0.030313,0.023558
-0.0094146,-0.0097077,-0.011352,-0.0092537,-0.0073439,-0.0089378,-0.0075725,-0.016639,-0.013043,-0.0091686
0.0057534,0.0059232,0.0057379,0.0066504,0.0057662,0.0083002,0.0070708,0.0065246,0.006525,0.0038764
-0.024949,-0.023424,-0.022035,-0.019583,-0.023777,-0.022996,-0.022299,-0.022837,-0.025999,-0.019095
0.0173,0.017058,0.01103,0.015059,0.018889,0.018945,0.017382,0.019404,0.016313,0.013615
0.0095693,0.0096965,0.0078379,0.0098301,0.010082,0.012344,0.01082,0.010854,0.0099729,0.006971
-0.013157,-0.014335,-0.010565,-0.012119,-0.014126,-0.014648,-0.015337,-0.014381,-0.015396,-0.0098976
-0.01107,-0.011567,-0.0092202,-0.010975,-0.011874,-0.013722,-0.01267,-0.012343,-0.011938,-0.008254
0.0065696,0.0058487,0.0035958,0.0049892,0.0049102,0.0037963,0.0050023,0.0056843,0.0084217,0.0029152
-0.0047311,-0.0042095,-0.0017475,-0.0035032,-0.0031995,-0.0018378,-0.0036292,-0.0042598,-0.0067658,-0.0017328
0.0037853,0.0035255,0.0007767,0.0028118,0.0025091,0.0010394,0.0032703,0.0036804,0.0060033,0.0012729
0.02289,0.024285,0.019442,0.019936,0.025087,0.026821,0.025382,0.021363,0.024804,0.017201
-0.0083817,-0.0091383,-0.0063397,-0.0084356,-0.0088378,-0.009374,-0.010119,-0.010481,-0.010138,-0.0062795
0.0079182,0.0090402,0.0095197,0.0079856,0.011576,0.013248,0.0093926,0.0085359,0.0077214,0.0091126
-0.0059083,-0.0038435,-0.004135,-0.0037655,-0.0043678,-0.0013904,-0.0049075,-0.0062009,-0.0081849,-0.0019015
-0.0040635,-0.0041015,-0.003112,-0.00074809,-0.0022064,-0.0055742,-0.0039735,-0.0076154,-0.001889,-0.0020818
-0.030164,-0.025736,-0.026318,-0.028003,-0.028768,-0.032821,-0.027601,-0.027815,-0.030019,-0.02768
-0.023282,-0.020462,-0.018251,-0.017265,-0.021944,-0.020241,-0.021258,-0.019482,-0.022561,-0.018112
0.0046273,-0.0021836,-0.00029947,4.4222e-05,-0.00027557,0.0016402,-0.0049838,-0.00017719,-5.747e-05,-0.0016011
-0.015227,-0.017303,-0.016843,-0.017251,-0.01776,-0.019519,-0.020716,-0.017294,-0.018808,-0.018396
0.005597,0.0046576,0.0051155,0.0050179,0.0049932,0.0086624,0.002822,0.0043899,0.0034495,0.0057467
0.0098833,0.01057,0.0094094,0.0089665,0.011319,0.013494,0.0092931,0.0093473,0.0093766,0.0096356
-0.007017,-0.0057758,-0.004041,-0.0069378,-0.0045933,-0.0095904,-0.0085873,-0.0044167,-0.0053203,-0.006995
0.0024791,-0.0011658,0.00028988,0.00060042,-0.00028629,0.0019221,-0.0014451,-0.0010168,-0.0023325,0.0024342
-0.013204,-0.012497,-0.011378,-0.012186,-0.010846,-0.016182,-0.013889,-0.01014,-0.011554,-0.011918
0.000757,0.00047921,0.0041888,-0.0028219,0.0018506,0.00070868,-0.0011433,-0.0020707,0.0011685,-0.001875
0.0077492,0.0067632,0.0072435,0.0067772,0.0079198,0.010501,0.0054001,0.0060672,0.0056938,0.0068976
0.024907,0.022003,0.023594,0.024886,0.023996,0.028508,0.02124,0.023818,0.024814,0.024549
0.010663,0.0088417,0.0031603,0.003319,0.010051,0.007615,0.0059177,0.0018908,0.0069627,0.0050382
0.018233,0.017202,0.011833,0.015645,0.020882,0.017804,0.017892,0.016914,0.018194,0.015617
-0.014945,-0.017015,-0.017189,-0.014139,-0.018655,-0.02087,-0.016382,-0.015452,-0.014708,-0.015313
-0.011893,-0.0069821,-0.0059389,-0.0058719,-0.0074474,-0.0062739,-0.012283,-0.0058125,-0.0099453,-0.0055266
0.031921,0.035049,0.040735,0.02962,0.040277,0.040884,0.038873,0.034881,0.029407,0.032088
-0.011,-0.011828,-0.010347,-0.0098707,-0.012621,-0.014499,-0.010701,-0.010335,-0.010721,-0.010368
0.011462,0.011238,0.0094076,0.012378,0.0089331,0.012387,0.011788,0.011071,0.010274,0.01123
0.014864,0.016369,0.016152,0.017189,0.01659,0.019273,0.019537,0.016938,0.017504,0.017684
-0.0025298,0.0002678,-0.00077514,-0.00076593,-0.00057656,-0.0020025,0.00065914,0.00054993,0.0016179,-0.0031845
0.010676,0.0098021,0.0085477,0.010052,0.0083569,0.013609,0.011861,0.0077945,0.0090526,0.0099862
-0.0027373,0.0012296,-0.00049721,-0.00086642,0.00040505,-0.0024183,0.0015623,0.0008738,0.0023293,-0.0022991
0.0042689,0.0046175,0.0026568,0.0029367,0.0060797,0.0040738,0.0066579,0.00080272,0.0055127,0.0012994
0.019931,0.020773,0.018758,0.019747,0.019281,0.024068,0.021991,0.017966,0.020358,0.019627
0.0040879,0.0060637,0.0047719,0.0045406,0.0050719,0.0076951,0.0079651,0.0082,0.0055816,0.0040571
0.0092044,0.010133,0.010269,0.0099904,0.0082397,0.011094,0.013359,0.0088368,0.01275,0.011488
0.0014789,-0.0011799,0.0014864,-0.0013378,-0.0024639,-0.0026394,8.4506e-05,-0.0030093,-0.00040508,-0.0021422
-0.0022651,-0.0019834,-0.0018344,-0.0013237,-0.0035381,-0.00033242,-0.0013382,8.4952e-05,-0.0025338,-0.002481
-0.025782,-0.023333,-0.02164,-0.01961,-0.024524,-0.023251,-0.023162,-0.022295,-0.025854,-0.019812
0.0078556,0.0042136,0.0031472,0.0048319,0.0063093,0.007461,0.002699,0.0060733,0.0051697,0.0035472
0.00045175,-0.00029563,-0.00018741,0.00089631,-0.00056863,0.0031756,-0.00014835,0.0024404,-0.0018944,-0.00075521
0.0059612,0.0069734,0.0049428,0.0051525,0.0066073,0.007614,0.0074215,0.0085374,0.0066158,0.0045437
0.0027607,0.002533,0.0019593,0.0026397,0.0022409,0.00529,0.0027754,0.0047521,0.0011579,0.0013067
0.00075595,0.0011721,0.00039856,0.0004027,0.00036599,-0.0014763,-0.00083115,0.0022143,0.002177,-0.00063836
-0.0019462,-0.0014738,-0.0024792,-0.0017709,-0.0022351,-0.0043295,-0.0029972,6.9588e-05,-0.00041772,-0.0025614
-0.0037345,-0.0031319,-0.0043983,-0.0031823,-0.0038747,-0.0060179,-0.0041742,-0.0012723,-0.0021225,-0.0037277
0.0066396,0.0070162,0.006517,0.0054992,0.0067034,0.0067969,0.0073273,0.0090066,0.0064794,0.0044419
-0.0012421,-0.00096413,-0.0018455,-0.00056047,-0.0014835,-0.00047702,-0.00050212,0.0028415,-0.0014003,-0.0012787
-0.0040075,-0.0053506,-0.00049336,-0.002647,-0.002318,-0.0018741,-0.0057596,-0.004498,-0.0035434,-0.0018317
0.0042119,0.0052028,0.0036037,0.003213,0.0045936,0.0047655,0.0047639,0.0038913,0.0039136,0.0044558
0.0039889,0.005159,0.004363,0.003497,0.0047564,0.0049311,0.0066872,0.0060625,0.0065689,0.0032176
0.00089665,0.00023579,-0.0032473,0.001091,0.0020098,0.0013425,0.003397,-0.001202,-0.0011086,0.0020376
0.0052306,0.0046959,0.0081255,0.0033324,0.0038854,0.0072063,0.0047316,0.004652,0.0039543,0.0042889
-0.0049273,-0.0039141,-0.0022113,-0.0033479,-0.0064953,-0.0027815,-0.0058505,-0.0029503,-0.0050309,-0.0040674
0.0013245,0.0057094,-0.0021723,0.00032175,0.0037908,0.0062256,0.0061675,-0.0019862,0.0010871,-0.0003444
0.018578,0.020715,0.017299,0.017015,0.020496,0.021513,0.021232,0.017658,0.019804,0.016762
0.0010705,0.00077952,-9.8019e-05,0.00025766,0.0020332,-0.00026547,0.00046961,0.001096,0.0023148,0.0005283
0.003971,0.0023662,0.00055155,0.003045,0.0043708,0.0041875,0.0032701,0.0025738,0.0032051,0.002515
-0.0052986,-0.0036088,-0.0027288,-0.0042355,-0.0054499,-0.0054153,-0.0043965,-0.0045978,-0.0047961,-0.003554
0.0065011,0.0047214,0.0047996,0.0053098,0.0063902,0.0064963,0.0053765,0.0065158,0.006261,0.0044832
-0.0059426,-0.0097652,-0.0087826,-0.0069423,-0.0060538,-0.0081991,-0.0081345,-0.0063915,-0.0066968,-0.0063202
-0.00038754,-0.002424,-0.0036545,-0.0015317,0.00026107,-0.0014224,-0.0014338,-0.00099991,-0.00038771,-0.00092276
-0.0040075,-0.0053506,-0.00049336,-0.002647,-0.002318,-0.0018741,-0.0057596,-0.004498,-0.0035434,-0.0018317
0.0042119,0.0052028,0.0036037,0.003213,0.0045936,0.0047655,0.0047639,0.0038913,0.0039136,0.0044558
0.0039889,0.005159,0.004363,0.003497,0.0047564,0.0049311,0.0066872,0.0060625,0.0065689,0.0032176
0.00089665,0.00023579,-0.0032473,0.001091,0.0020098,0.0013425,0.003397,-0.001202,-0.0011086,0.0020376
0.0052306,0.0046959,0.0081255,0.0033324,0.0038854,0.0072063,0.0047316,0.004652,0.0039543,0.0042889
-0.0049273,-0.0039141,-0.0022113,-0.0033479,-0.0064953,-0.0027815,-0.0058505,-0.0029503,-0.0050309,-0.0040674
0.0013245,0.0057094,-0.0021723,0.00032175,0.0037908,0.0062256,0.0061675,-0.0019862,0.0010871,-0.0003444
0.018578,0.020715,0.017299,0.017015,0.020496,0.021513,0.021232,0.017658,0.019804,0.016762
0.0010705,0.00077952,-9.8019e-05,0.00025766,0.0020332,-0.00026547,0.00046961,0.001096,0.0023148,0.0005283
0.003971,0.0023662,0.00055155,0.003045,0.0043708,0.0041875,0.0032701,0.0025738,0.0032051,0.002515
-0.0052986,-0.0036088,-0.0027288,-0.0042355,-0.0054499,-0.0054153,-0.0043965,-0.0045978,-0.0047961,-0.003554
0.0065011,0.0047214,0.0047996,0.0053098,0.0063902,0.0064963,0.0053765,0.0065158,0.006261,0.0044832
-0.0059426,-0.0097652,-0.0087826,-0.0069423,-0.0060538,-0.0081991,-0.0081345,-0.0063915,-0.0066968,-0.0063202
-0.00038754,-0.002424,-0.0036545,-0.0015317,0.00026107,-0.0014224,-0.0014338,-0.00099991,-0.00038771,-0.00092276
-0.0040075,-0.0053506,-0.00049336,-0.002647,-0.002318,-0.0018741,-0.0057596,-0.004498,-0.0035434,-0.0018317
0.0042119,0.0052028,0.0036037,0.003213,0.0045936,0.0047655,0.0047639,0.0038913,0.0039136,0.0044558
0.0039889,0.005159,0.004363,0.003497,0.0047564,0.0049311,0.0066872,0.0060625,0.0065689,0.0032176
0.00089665,0.00023579,-0.0032473,0.001091,0.0020098,0.0013425,0.003397,-0.001202,-0.0011086,0.0020376
0.0052306,0.0046959,0.0081255,0.0033324,0.0038854,0.0072063,0.0047316,0.004652,0.0039543,0.0042889
-0.0049273,-0.0039141,-0.0022113,-0.0033479,-0.0064953,-0.0027815,-0.0058505,-0.0029503,-0.0050309,-0.0040674
0.0013245,0.0057094,-0.0021723,0.00032175,0.0037908,0.0062256,0.0061675,-0.0019862,0.0010871,-0.0003444
0.018578,0.020715,0.017299,0.017015,0.020496,0.021513,0.021232,0.017658,0.019804,0.016762
0.0010705,0.00077952,-9.8019e-05,0.00025766,0.0020332,-0.00026547,0.00046961,0.001096,0.0023148,0.0005283
0.003971,0.0023662,0.00055155,0.003045,0.0043708,0.0041875,0.0032701,0.0025738,0.0032051,0.002515
-0.0052986,-0.0036088,-0.0027288,-0.0042355,-0.0054499,-0.0054153,-0.0043965,-0.0045978,-0.0047961,-0.003554
0.0065011,0.0047214,0.0047996,0.0053098,0.0063902,0.0064963,0.0053765,0.0065158,0.006261,0.0044832
-0.0059426,-0.0097652,-0.0087826,-0.0069423,-0.0060538,-0.0081991,-0.0081345,-0.0063915,-0.0066968,-0.0063202
-0.00038754,-0.002424,-0.0036545,-0.0015317,0.00026107,-0.0014224,-0.0014338,-0.00099991,-0.00038771,-0.00092276
-0.0040075,-0.0053506,-0.00049336,-0.002647,-0.002318,-0.0018741,-0.0057596,-0.004498,-0.0035434,-0.0018317
0.0042119,0.0052028,0.0036037,0.003213,0.0045936,0.0047655,0.0047639,0.0038913,0.0039136,0.0044558
0.0039889,0.005159,0.004363,0.003497,0.0047564,0.0049311,0.0066872,0.0060625,0.0065689,0.0032176
0.00089665,0.00023579,-0.0032473,0.001091,0.0020098,0.0013425,0.003397,-0.001202,-0.0011086,0.0020376
0.0052306,0.0046959,0.0081255,0.0033324,0.0038854,0.0072063,0.0047316,0.004652,0.0039543,0.0042889
-0.0049273,-0.0039141,-0.0022113,-0.0033479,-0.0064953,-0.0027815,-0.0058505,-0.0029503,-0.0050309,-0.0040674
0.0013245,0.0057094,-0.0021723,0.00032175,0.0037908,0.0062256,0.0061675,-0.0019862,0.0010871,-0.0003444
0.018578,0.020715,0.017299,0.017015,0.020496,0.021513,0.021232,0.017658,0.019804,0.016762
0.0010705,0.00077952,-9.8019e-05,0.00025766,0.0020332,-0.00026547,0.00046961,0.001096,0.0023148,0.0005283
0.003971,0.0023662,0.00055155,0.003045,0.0043708,0.0041875,0.0032701,0.0025738,0.0032051,0.002515
-0.0052986,-0.0036088,-0.0027288,-0.0042355,-0.0054499,-0.0054153,-0.0043965,-0.0045978,-0.0047961,-0.003554
0.0065011,0.0047214,0.0047996,0.0053098,0.0063902,0.0064963,0.0053765,0.0065158,0.006261,0.0044832
-0.0059426,-0.0097652,-0.0087826,-0.0069423,-0.0060538,-0.0081991,-0.0081345,-0.0063915,-0.0066968,-0.0063202
-0.00038754,-0.002424,-0.0036545,-0.0015317,0.00026107,-0.0014224,-0.0014338,-0.00099991,-0.00038771,-0.00092276
0.0042764,0.0056044,0.000794,0.002896,0.0026907,0.0021878,0.0061051,0.0047837,0.0038615,0.0020949
-0.0019812,-0.003842,-0.0011509,-0.0023658,-0.0038719,-0.0018031,6.2527e-05,-0.0034558,-0.0038285,0.00084246
0.0034469,0.0051628,0.0022958,0.004603,0.0035072,0.0053314,0.0036619,0.0070973,0.0070549,0.003725
0.00089665,0.00023579,-0.0032473,0.001091,0.0020098,0.0013425,0.003397,-0.001202,-0.0011086,0.0020376
0.0052306,0.0046959,0.0081255,0.0033324,0.0038854,0.0072063,0.0047316,0.004652,0.0039543,0.0042889
-0.0049273,-0.0039141,-0.0022113,-0.0033479,-0.0064953,-0.0027815,-0.0058505,-0.0029503,-0.0050309,-0.0040674
0.0013245,0.0057094,-0.0021723,0.00032175,0.0037908,0.0062256,0.0061675,-0.0019862,0.0010871,-0.0003444
0.021494,0.024162,0.020853,0.019917,0.023932,0.024096,0.024764,0.020635,0.023237,0.019646
-0.0010705,-0.00077952,9.8019e-05,-0.00025766,-0.0020332,0.00026547,-0.00046961,-0.001096,-0.0023148,-0.0005283
0.003971,0.0023662,0.00055155,0.003045,0.0043708,0.0041875,0.0032701,0.0025738,0.0032051,0.002515
0.0052986,0.0036088,0.0027288,0.0042355,0.0054499,0.0054153,0.0043965,0.0045978,0.0047961,0.003554
0.0065011,0.0047214,0.0047996,0.0053098,0.0063902,0.0064963,0.0053765,0.0065158,0.006261,0.0044832
-0.0060093,-0.011442,-0.0082085,-0.0058328,-0.0063268,-0.0094365,-0.0094075,-0.0087687,-0.0089094,-0.0064146
0.0011638,-0.0023566,-0.00097238,0.00060802,0.0011251,-0.0010409,-0.00123,-0.0010317,-0.00040266,0.00027526
0.007263,0.0067035,0.0086877,0.0084714,0.011191,0.0070912,0.010155,0.01099,0.011979,0.011138
0.0072364,0.0008987,0.0036104,0.0018467,0.0035538,0.0058695,0.0035386,0.0012949,0.0054466,0.0043621
0.0084749,0.011003,0.0060007,0.0067348,0.008948,0.010528,0.0090435,0.003752,0.0056299,0.0051505
0.0027095,0.0060153,0.0028697,0.0042414,0.0048303,0.0061102,0.0037706,0.0051898,0.0051771,0.0025885
0.024532,0.022278,0.023762,0.018474,0.023591,0.024302,0.02142,0.024608,0.025139,0.018082
0.017618,0.016909,0.018961,0.016715,0.022268,0.01995,0.021771,0.018023,0.018614,0.016691
0.0032523,0.0011592,-0.0024726,0.005395,-0.001482,0.0024765,-0.0040127,0.0042075,-0.0011685,0.0027776
0.0089131,0.014719,0.010162,0.010834,0.012733,0.016271,0.012684,0.0093514,0.010611,0.0083867
-0.013668,-0.015398,-0.013209,-0.012607,-0.017069,-0.015734,-0.015733,-0.014511,-0.014492,-0.01133
0.0013489,0.0018829,0.0021977,0.001582,0.0015181,0.0032932,5.0618e-05,0.00069728,0.00094021,0.0010935
-0.0014798,-0.0024517,-0.002824,-0.001536,-0.0014633,-0.0033805,-0.0002221,-0.001434,-0.0010932,-0.0012401
0.0014726,0.0028575,0.0032989,0.0013469,0.0012264,0.0032915,0.00022513,0.0020555,0.0010816,0.0012494
-0.010231,-0.0095347,-0.009194,-0.0073828,-0.010717,-0.010281,-0.010873,-0.0090603,-0.009123,-0.0073479
-0.0095951,-0.0071832,-0.0086606,-0.0063993,-0.0095671,-0.0076834,-0.0094208,-0.0083673,-0.0086307,-0.0069282
0.013924,0.016978,0.022649,0.015825,0.017097,0.018902,0.016741,0.01529,0.019536,0.017256
-0.0040754,-0.0067251,-0.00362,-0.0057142,-0.0045495,-0.0028652,-0.0052296,-0.0094378,-0.004786,-0.0038645
-0.012509,-0.011292,-0.018812,-0.013664,-0.012147,-0.013035,-0.011524,-0.016766,-0.012412,-0.013544
-0.0054276,-0.006536,-0.012308,-0.0085044,-0.0085743,-0.0098218,-0.0087167,-0.0050388,-0.0063396,-0.0088009
0.017339,0.011112,0.0079587,0.0085224,0.014159,0.011239,0.01351,0.015259,0.015474,0.0093746
0.013331,0.011795,0.015516,0.01161,0.013818,0.015261,0.015456,0.014481,0.013351,0.011068
0.02314,0.025895,0.023325,0.025098,0.022599,0.027049,0.02191,0.022056,0.02374,0.020946
-0.0063611,-0.005665,-0.013212,-0.0076166,-0.0068622,-0.0070388,-0.0061786,-0.0062765,-0.0086977,-0.0085993
-0.0072016,-0.0050131,-0.0032931,-0.0036096,-0.0053012,-0.0050522,-0.0058995,-0.0082489,-0.0051384,-0.0031449
-0.0066059,-0.010582,-0.013185,-0.0090454,-0.0093967,-0.010502,-0.0094435,-0.0085436,-0.0094511,-0.0095958
0.0062659,0.009997,0.012502,0.0089356,0.0093014,0.010381,0.0091916,0.0078363,0.0091927,0.0093913
-0.006031,-0.0095049,-0.011907,-0.0089231,-0.009322,-0.010385,-0.0090636,-0.0072178,-0.0090356,-0.0092724
-0.019825,-0.021086,-0.024776,-0.018947,-0.021936,-0.022598,-0.021664,-0.019126,-0.019757,-0.017805
-0.021921,-0.02248,-0.028296,-0.021171,-0.024259,-0.024615,-0.023577,-0.021313,-0.022987,-0.020325
0.0080419,0.016549,0.016839,0.012317,0.01714,0.016325,0.017187,0.014455,0.01624,0.017145
0.0076457,0.0019022,0.007277,0.0035426,0.0065339,0.008124,0.0085561,0.0055628,0.0074133,0.0078655
0.012745,0.013865,0.0075525,0.011875,0.012749,0.01289,0.012373,0.0081214,0.012469,0.0095899
-0.015951,-0.013037,-0.016005,-0.012942,-0.015763,-0.017004,-0.016291,-0.012371,-0.016669,-0.012433
0.014006,0.011847,0.012559,0.012674,0.013313,0.013429,0.012278,0.014164,0.015247,0.013277
0.0091671,0.00715,0.01,0.0088911,0.0099659,0.011127,0.011749,0.0096391,0.0089128,0.0087621
-0.0037989,-0.003078,-0.0063534,-0.0033523,-0.0089953,-0.0076161,-0.0094013,-0.0075798,-0.0068859,-0.0030004
-0.011675,-0.008256,-0.010795,-0.0073582,-0.0093908,-0.0096106,-0.0098699,-0.012132,-0.014617,-0.007476
-0.0069628,-0.0083787,-0.01072,-0.0093536,-0.0086078,-0.0089773,-0.0094358,-0.0084058,-0.0091557,-0.0062402
0.0048993,0.0038917,0.0032043,0.0058629,0.0046178,0.0039785,0.0026562,0.0029182,0.0037204,0.0056662
0.012756,0.014974,0.012833,0.011373,0.014073,0.015448,0.014357,0.012996,0.014837,0.011751
0.0046007,0.0043173,0.0046982,0.0058245,0.0040523,0.0040171,0.0022298,0.0039269,0.0035607,0.0060634
-0.014022,-0.014972,-0.014417,-0.012792,-0.016944,-0.017039,-0.016781,-0.013755,-0.015605,-0.01269
-0.016926,-0.017238,-0.01742,-0.014607,-0.019001,-0.019039,-0.019194,-0.016725,-0.019874,-0.014406
0.010239,0.0063851,0.0091564,0.0060399,0.010783,0.0073959,0.010666,0.010388,0.012886,0.006376
-0.0072635,-0.0054361,-0.013417,-0.0080205,-0.0089779,-0.0098531,-0.011092,-0.0091468,-0.0083214,-0.0087147
-0.007353,-0.0097932,-0.0045059,-0.0066175,-0.0084804,-0.0079849,-0.015283,-0.0074296,-0.013655,-0.0053069
0.009565,0.011541,0.014468,0.012962,0.011144,0.013075,0.012389,0.0099245,0.013,0.010732
-0.0063811,-0.012131,-0.0080265,-0.0086677,-0.01029,-0.0099195,-0.010444,-0.0045942,-0.012006,-0.010084
0.014712,0.020781,0.022057,0.019242,0.023339,0.021824,0.020947,0.01781,0.019589,0.019415
0.0020984,-0.0011221,-0.011887,-0.00030534,-0.0076475,-0.0081684,-0.015801,0.0002948,-0.0012088,-0.0083388
0.0045625,0.0084921,0.0058836,0.0080311,0.005176,0.0084657,0.0065843,0.005918,0.0072438,0.0043696
0.0016752,0.0016268,0.00098439,0.00078021,0.0019904,0.0013146,0.00095894,-0.0006262,0.0037123,-9.7779e-05
-0.012735,-0.015031,-0.012518,-0.011186,-0.013661,-0.015194,-0.014463,-0.013196,-0.014831,-0.011513
-0.0050524,-0.0044475,-0.004275,-0.0061765,-0.0047538,-0.0044056,-0.0028121,-0.0037369,-0.0040124,-0.0062055
-0.012123,-0.014227,-0.012386,-0.010895,-0.013562,-0.014904,-0.013552,-0.012156,-0.014094,-0.011334
0.011597,0.012938,0.013729,0.013089,0.012364,0.01346,0.013603,0.011377,0.014551,0.013332
0.0042475,0.0071915,0.0053191,0.0070492,0.0057156,0.0070106,0.0078677,0.0054901,0.0077931,0.0062578
-0.012405,-0.011895,-0.016027,-0.010531,-0.013934,-0.012765,-0.013684,-0.013124,-0.016142,-0.011084
-0.0032541,-0.0047068,-0.00057597,-0.0025537,-0.00087404,-0.00014498,0.00070977,-0.00404,-0.0015709,-0.0010692
-0.0050651,-0.0047011,-0.008114,-0.0061133,-0.0065373,-0.0053912,-0.0032431,-0.009981,-0.0052289,-0.007275
-0.010747,-0.0098649,-0.013956,-0.010558,-0.012348,-0.013308,-0.012803,-0.0085212,-0.011757,-0.010532
0.019568,0.015169,0.01447,0.01393,0.017911,0.016444,0.016532,0.018735,0.019359,0.014881
0.011941,0.010133,0.013647,0.011037,0.012737,0.013998,0.014378,0.01273,0.011872,0.010698
0.013683,0.01547,0.011689,0.014871,0.010708,0.013982,0.010297,0.011503,0.012917,0.01267
-0.0063809,-0.0043285,-0.0095446,-0.0050283,-0.0057904,-0.0055223,-0.0057923,-0.006992,-0.0089733,-0.0056959
0.0051783,0.0041743,0.0039582,0.0039356,0.0043986,0.004547,0.0049551,0.006769,0.0032489,0.0041635
0.0011888,-0.0016029,-0.0033066,-8.3136e-05,-0.00057142,-0.0011192,-0.0016916,-0.00090567,-0.00087462,-0.00027366
0.0013143,-0.0011556,-0.0025551,-1.9369e-05,-0.00065791,-0.0010566,-0.0016481,-0.0002592,-0.00075844,-7.8881e-05
0.0012064,-0.00093751,-0.0020104,-0.0001773,-0.0010295,-0.0012643,-0.0018626,0.0001881,-0.00089167,-9.7644e-05
-0.0105,-0.012178,-0.010156,-0.0096076,-0.01273,-0.013012,-0.012905,-0.010187,-0.011023,-0.0094069
-0.01163,-0.013045,-0.012649,-0.010715,-0.013924,-0.013591,-0.013926,-0.011595,-0.013937,-0.010589
