-0.091255,-0.094223,-0.10045,-0.089191,-0.081026,-0.084442,-0.079266,-0.0821,-0.093906,-0.092263
0.043745,0.044005,0.046645,0.047125,0.036353,0.040089,0.039332,0.035136,0.042381,0.043431
-0.069192,-0.065065,-0.074258,-0.073482,-0.059203,-0.06257,-0.057264,-0.061017,-0.069949,-0.066688
0.028352,0.025603,0.030252,0.028875,0.022865,0.024091,0.02087,0.024832,0.02819,0.025435
0.16748,0.15932,0.1803,0.16509,0.14857,0.15667,0.14274,0.1469,0.16825,0.16397
0.024803,0.030527,0.031011,0.030069,0.025468,0.02648,0.024488,0.027676,0.032528,0.028926
-0.032158,-0.029746,-0.035643,-0.031872,-0.029338,-0.0327,-0.026866,-0.027472,-0.034693,-0.030486
-0.0077786,-0.0049005,-0.0052177,-0.0022906,-0.001406,-0.0011222,0.00080559,-0.001001,-0.0071804,-0.0030957
-0.00034343,-0.01276,-0.0057795,-0.014921,-0.0025792,-0.0045409,-0.011247,-0.0054049,-0.0065507,-0.012727
-0.038393,-0.034458,-0.045772,-0.039087,-0.038723,-0.034752,-0.032798,-0.038716,-0.041332,-0.036199
0.018797,0.021508,0.025507,0.0093185,0.024576,0.026972,0.020116,0.021245,0.021223,0.021147
0.0090482,0.015154,0.011408,0.015757,0.010461,0.0086659,0.0091162,0.012993,0.015208,0.014462
0.0010706,-0.002244,-0.00090343,-0.0039971,-0.001981,-0.00081377,-0.00081932,-0.0014205,-0.0010438,-0.0016422
-0.010576,-0.012899,-0.01145,-0.01492,-0.014873,-0.010584,-0.013092,-0.014499,-0.012632,-0.013074
-0.016338,-0.020811,-0.024517,-0.025414,-0.016979,-0.01809,-0.01777,-0.023989,-0.027711,-0.019173
-0.002424,0.00023185,0.0044132,0.0061097,-0.0080414,-0.0030656,0.0040435,0.00083893,0.00062043,0.00050679
-0.0043596,-0.0024432,-0.0072428,-0.0086529,-0.0048641,-0.0010301,-0.0062102,-0.0039312,-0.0037368,-0.0046524
0.014674,0.012077,0.011144,0.0049556,0.0098025,0.012804,0.009645,0.007414,0.0080135,0.012653
-0.0048802,-0.0038007,-0.0052563,-0.0023591,0.0013488,-0.0010069,-0.0013152,-0.0010028,-0.0024442,-0.0053005
0.0082715,0.0056186,0.006807,0.0042693,0.0065431,0.0069011,0.0026269,0.0032798,0.0088448,0.0034549
-0.032158,-0.029746,-0.035643,-0.031872,-0.029338,-0.0327,-0.026866,-0.027472,-0.034693,-0.030486
-0.014815,-0.015004,-0.017191,-0.018818,-0.015535,-0.0080752,-0.016864,-0.015871,-0.015624,-0.016889
-0.017772,-0.012298,-0.021437,-0.019128,-0.015159,-0.013472,-0.018676,-0.014204,-0.01739,-0.011229
0.0069622,0.0031411,0.0079719,0.0061987,0.0052499,0.0037212,0.0034667,0.0029371,0.007302,0.0056214
0.044496,0.042212,0.047267,0.039817,0.037641,0.039013,0.036976,0.037088,0.045411,0.038465
-0.028521,-0.026071,-0.026817,-0.03232,-0.031659,-0.025095,-0.025642,-0.025028,-0.027144,-0.024637
0.0081349,0.0085085,0.011524,0.013113,0.009502,0.007309,0.0095691,0.0094246,0.0091694,0.011851
-0.032158,-0.029746,-0.035643,-0.031872,-0.029338,-0.0327,-0.026866,-0.027472,-0.034693,-0.030486
0.011431,0.014357,0.015508,0.017721,0.022333,0.010175,0.013411,0.016372,0.020194,0.012546
-0.029008,-0.030841,-0.035075,-0.03384,-0.030487,-0.028719,-0.025722,-0.027537,-0.030341,-0.031433
-0.039752,-0.034319,-0.038461,-0.034829,-0.035067,-0.035322,-0.033761,-0.033733,-0.037314,-0.035147
0.0061762,0.0035624,0.0050502,0.0034084,0.0015138,0.0056882,0.001306,0.00445,0.004268,0.0046748
-0.034674,-0.039743,-0.046349,-0.044365,-0.037892,-0.035108,-0.034268,-0.037933,-0.041766,-0.041126
-0.014003,-0.014511,-0.015722,-0.013485,-0.012988,-0.013354,-0.011605,-0.013908,-0.017672,-0.014447
-0.032158,-0.029746,-0.035643,-0.031872,-0.029338,-0.0327,-0.026866,-0.027472,-0.034693,-0.030486
-0.012206,-0.0055717,-0.0074782,-0.0077938,-0.0097143,-0.0084412,-0.0034623,-0.0064969,-0.0066398,-0.0033222
-0.025383,-0.032311,-0.034133,-0.027197,-0.025878,-0.025517,-0.025659,-0.025019,-0.031578,-0.03091
0.016477,0.013251,0.014692,0.01728,0.011029,0.0087824,0.008181,0.009914,0.013044,0.0098582
0.0047693,0.0091713,0.010971,0.0038792,0.012504,0.012966,0.011605,0.010492,0.0089098,0.010785
0.006117,0.011057,0.0078444,0.011954,0.0075712,0.0062241,0.0063879,0.0095741,0.011062,0.010825
0.0011876,-0.0021247,-0.0007807,-0.0038687,-0.0018673,-0.00070815,-0.00072102,-0.0013196,-0.00090177,-0.0015113
-0.01075,-0.013075,-0.011631,-0.015109,-0.015044,-0.01074,-0.01324,-0.014652,-0.012841,-0.013267
-0.00041377,-0.0017142,-0.0089116,-0.0075271,-0.0063266,-0.0088288,-0.0063582,-0.0083899,-0.0074194,-0.0041486
0.028388,0.026849,0.035437,0.037123,0.022218,0.022599,0.026782,0.02806,0.034404,0.026779
-0.017259,-0.014356,-0.016751,-0.018263,-0.013953,-0.010954,-0.011076,-0.013767,-0.017676,-0.014066
0.0083923,0.0060324,0.0063459,0.0050914,0.00682,0.0070731,0.0037316,0.0066615,0.005965,0.0063252
-0.013423,-0.011948,-0.014221,-0.010991,-0.0062796,-0.0095432,-0.0089291,-0.0070836,-0.012858,-0.013624
0.0084896,0.0058403,0.0070356,0.0045082,0.0067531,0.0070964,0.0028137,0.0034699,0.0091079,0.0037029
-0.032158,-0.029746,-0.035643,-0.031872,-0.029338,-0.0327,-0.026866,-0.027472,-0.034693,-0.030486
-0.042307,-0.041718,-0.043281,-0.042183,-0.037486,-0.037501,-0.033611,-0.039867,-0.048084,-0.041285
-0.024918,-0.018664,-0.026019,-0.023354,-0.019701,-0.018939,-0.020256,-0.018504,-0.021913,-0.017183
0.027063,0.022042,0.030244,0.025639,0.021979,0.022121,0.021676,0.020458,0.026329,0.023363
0.0090252,0.011795,0.0062648,0.011226,0.0085641,0.0085976,0.0085693,0.010647,0.0093649,0.005144
-0.022423,-0.019657,-0.019523,-0.025345,-0.025052,-0.01876,-0.019357,-0.019941,-0.019792,-0.017735
0.0085857,0.0089728,0.011966,0.013549,0.0099042,0.007723,0.0099104,0.0097903,0.0096997,0.012307
-0.032158,-0.029746,-0.035643,-0.031872,-0.029338,-0.0327,-0.026866,-0.027472,-0.034693,-0.030486
-0.010695,-0.010605,-0.0092864,-0.010996,-0.0019255,-0.0047027,-0.0088899,-0.0053844,-0.0022921,-0.013135
-0.0068372,-0.0052088,-0.0098995,-0.0072095,-0.0055406,-0.0044872,-0.0063529,-0.0020789,-0.0065861,-0.0045857
-0.0017528,0.0015136,0.00089527,0.0035893,-0.0032106,-0.0041712,-0.0023035,-0.0010487,0.001235,0.0028139
0.026091,0.026477,0.028254,0.023488,0.022567,0.023177,0.024684,0.019559,0.021474,0.024466
-0.028759,-0.03214,-0.039023,-0.038064,-0.031846,-0.027336,-0.029278,-0.031827,-0.035187,-0.033964
-0.013862,-0.01444,-0.015584,-0.013345,-0.012917,-0.013326,-0.011523,-0.013741,-0.017412,-0.014344
-0.032158,-0.029746,-0.035643,-0.031872,-0.029338,-0.0327,-0.026866,-0.027472,-0.034693,-0.030486
-1.511e-16,-1.534e-16,-1.7597e-16,-1.5593e-16,-1.4765e-16,-1.6119e-16,-1.2424e-16,-1.4575e-16,-1.651e-16,-1.4292e-16
9.855e-18,4.6333e-17,3.6334e-17,3.918e-17,2.984e-17,3.7722e-17,2.7869e-17,3.6225e-17,4.0795e-17,3.9533e-17
0.0039243,0.0031667,0.0062663,0.0065452,0.0054176,0.0048504,0.0063785,0.0067166,0.0065243,0.007639
-0.01614,-0.018052,-0.024208,-0.01197,-0.014916,-0.021051,-0.010505,-0.015629,-0.017361,-0.017916
0.060131,0.061577,0.066072,0.057252,0.052185,0.058096,0.044808,0.050786,0.063035,0.05527
-0.020626,-0.015183,-0.016188,-0.0039628,-0.015359,-0.012339,-0.0087416,-0.012182,-0.013749,-0.010995
-0.0082156,-0.0071786,-0.0094168,-0.015839,-0.0083186,-0.0087616,-0.010566,-0.0089733,-0.011545,-0.011315
5.9674e-17,7.0814e-17,8.5091e-17,7.8359e-17,7.0661e-17,5.2744e-17,6.4314e-17,7.1061e-17,7.9157e-17,7.2219e-17
4.9745e-17,5.0752e-17,6.8133e-17,5.3214e-17,5.8447e-17,4.3324e-17,4.46e-17,5.3736e-17,6.771e-17,3.7195e-17
0.0052526,0.0075505,0.0077635,-0.006133,0.010814,0.013573,0.004516,0.0052388,0.0024684,0.005738
-0.031682,-0.044412,-0.047932,-0.042033,-0.039605,-0.03789,-0.034795,-0.033066,-0.044185,-0.033419
0.056456,0.051586,0.066908,0.049893,0.052358,0.057897,0.047852,0.049725,0.058049,0.048092
-0.01705,-0.013634,-0.023236,-0.024974,-0.0078501,-0.013424,-0.01555,-0.012962,-0.019805,-0.016697
-0.031497,-0.027923,-0.034395,-0.027309,-0.031567,-0.029449,-0.023372,-0.028307,-0.026716,-0.027791
-2.6501e-17,-4.0161e-17,-3.7185e-17,-4.1537e-17,-1.2238e-17,-2.8146e-17,-2.7696e-17,-2.5196e-17,-3.5674e-17,-4.0554e-17
2.7728e-17,3.0757e-17,2.9334e-17,1.9247e-17,3.1491e-17,2.9319e-17,1.787e-17,1.3641e-17,1.2e-17,2.4079e-17
0.019533,0.016296,0.016434,0.007489,0.012662,0.017748,0.012287,0.011127,0.0142,0.014356
-0.019441,-0.017494,-0.016239,-0.019748,-0.017271,-0.018785,-0.014549,-0.017315,-0.018611,-0.017201
-0.0023719,-0.002881,-0.0036916,0.00078177,-0.0051598,-0.0038808,-0.00045973,-0.0020854,-0.0047924,-0.00047863
0.011855,0.011072,0.015321,0.018274,0.010057,0.0057326,0.011671,0.0132,0.017002,0.013135
-0.014733,-0.011633,-0.016833,-0.016177,-0.011111,-0.01022,-0.013322,-0.014207,-0.014348,-0.01306
2.6037e-17,2.2866e-17,2.9351e-17,8.8651e-18,2.6404e-17,3.1713e-17,1.9714e-17,2.5003e-17,3.506e-17,1.3211e-17
-1.332e-17,-2.631e-17,-2.5945e-17,-3.0529e-17,-3.2133e-17,-2.7212e-17,-2.156e-17,-3.5858e-17,-2.9175e-17,-2.1667e-17
0.046652,0.042646,0.048854,0.04216,0.038122,0.040259,0.038812,0.038503,0.047612,0.041238
-0.01194,-0.0096446,-0.018461,-0.013566,-0.013039,-0.0039186,-0.013613,-0.014972,-0.011208,-0.013232
-0.0034732,-0.0046871,-0.0077651,-0.01104,-0.00098185,-0.0027307,-0.010183,-0.0029902,-0.0043454,-0.0073253
-0.010287,-0.012942,-0.010155,-0.012752,-0.012274,-0.0077999,-0.01215,-0.01675,-0.013766,-0.0071472
-0.013769,-0.011898,-0.011592,-0.014163,-0.013672,-0.011182,-0.01294,-0.011585,-0.011607,-0.011281
6.5621e-17,7.6882e-17,7.8785e-17,7.0458e-17,8.9425e-17,8.0136e-17,6.2766e-17,7.4267e-17,7.372e-17,7.339e-17
1.37e-17,2.3285e-17,1.8794e-17,3.6025e-17,2.1157e-17,2.1563e-17,2.5416e-17,3.1999e-17,3.8159e-17,2.0881e-17
-0.0044581,-0.0053155,-0.0062607,-0.0027163,-0.0056754,-0.0037067,-0.005877,-0.001945,-0.0031409,-0.0021646
0.0021838,0.0010273,0.0025088,-0.0029478,0.00757,-0.0013991,0.00089276,0.00092601,-0.0011183,-0.00028611
-0.0020516,-0.004316,-0.0023314,-0.00077166,-0.0033881,-0.004349,-0.00033175,-0.0057353,-0.0005993,-0.0013056
-0.021705,-0.015398,-0.021855,-0.024824,-0.017406,-0.017334,-0.016212,-0.016194,-0.022234,-0.024233
-0.027288,-0.025249,-0.025162,-0.028007,-0.023484,-0.023065,-0.025534,-0.025528,-0.027283,-0.028962
3.1875e-17,1.5014e-17,1.7037e-17,2.944e-17,1.7614e-17,1.857e-17,1.4786e-17,2.2864e-17,2.1623e-17,2.6021e-17
1.0069e-16,1.0221e-16,1.091e-16,1.0349e-16,9.2095e-17,1.0014e-16,8.3019e-17,9.5437e-17,1.2307e-16,1.0069e-16
0.013965,0.012264,0.011197,0.0036915,0.0090153,0.0074374,0.0049297,0.0046417,0.011531,0.0075206
-0.021739,-0.027486,-0.031617,-0.024856,-0.026829,-0.023978,-0.021806,-0.022359,-0.031487,-0.022319
0.04505,0.039973,0.052028,0.044125,0.0404,0.044709,0.038656,0.038141,0.047782,0.04028
-0.027297,-0.022258,-0.02894,-0.032837,-0.023105,-0.024224,-0.02037,-0.021419,-0.025776,-0.025144
-0.0021477,-0.0013125,0.0022346,0.0077127,0.0028185,0.0016954,0.0030272,0.0043157,0.00077248,0.0015407
1.6745e-16,1.6884e-16,1.8794e-16,1.7887e-16,1.5179e-16,1.5037e-16,1.4491e-16,1.5094e-16,1.7909e-16,1.7007e-16
-3.5599e-17,-3.023e-17,-3.8426e-17,-4.0583e-17,-2.0001e-17,-3.3482e-17,-3.138e-17,-2.4921e-17,-2.4015e-17,-2.3717e-17
0.0059697,0.0030882,0.0055619,0.0037681,0.0061377,0.0047739,0.0032144,0.0061338,0.0072572,0.00098192
-0.0034312,-0.0023261,0.0024084,-0.00060938,-0.0040011,-0.0043011,-0.00016929,-0.001866,0.0021782,0.00069061
0.045833,0.044134,0.045243,0.051064,0.034312,0.033392,0.037868,0.041407,0.046333,0.039289
0.017068,0.017848,0.022416,0.023829,0.014437,0.013045,0.015927,0.019837,0.024019,0.019036
-0.021402,-0.01815,-0.022472,-0.023828,-0.016387,-0.014337,-0.016479,-0.021211,-0.024529,-0.016869
8.3788e-17,7.9255e-17,7.8696e-17,7.3042e-17,7.2359e-17,8.7638e-17,5.9603e-17,7.1113e-17,8.3566e-17,7.3712e-17
-6.6178e-17,-7.0232e-17,-6.9439e-17,-6.1017e-17,-6.5772e-17,-8.348e-17,-5.4877e-17,-5.9567e-17,-5.9416e-17,-5.7919e-17
-0.0011972,-0.0035275,-0.007964,-0.0032673,-0.0034152,-0.0022722,-0.00092239,-0.00019577,-0.0054458,-0.0031926
-0.02819,-0.025862,-0.034188,-0.028902,-0.023807,-0.024262,-0.023601,-0.029427,-0.032949,-0.02797
-0.018825,-0.020134,-0.022014,-0.022028,-0.014357,-0.020868,-0.018713,-0.016659,-0.020331,-0.019778
-0.016851,-0.018361,-0.016785,-0.02281,-0.01919,-0.010823,-0.017573,-0.023058,-0.021698,-0.014024
0.027715,0.029771,0.036657,0.031288,0.02161,0.025209,0.024951,0.025231,0.033871,0.028165
3.6135e-17,2.6934e-17,3.0744e-17,-1.8281e-18,7.6067e-19,2.1136e-17,4.452e-18,1.0153e-17,2.6401e-17,1.1487e-17
-4.3161e-18,-7.7089e-18,-3.3962e-18,-1.4426e-17,-3.3608e-18,-1.4797e-18,-7.3524e-18,-8.4212e-20,1.4551e-18,-8.5367e-18
0.0077005,0.0085424,0.010979,0.0149,0.01076,0.0069374,0.011724,0.011081,0.012089,0.013294
-0.0010209,0.0032186,-0.002029,-0.0052492,0.0044869,0.001503,-0.00023011,0.0012703,-0.00054323,-0.0015111
-0.012068,-0.011518,-0.010643,-0.01299,-0.013325,-0.0055199,-0.010497,-0.01389,-0.0093372,-0.010039
-0.024831,-0.022092,-0.025306,-0.027138,-0.023407,-0.021215,-0.020303,-0.020847,-0.027067,-0.026828
-0.009746,-0.012853,-0.014827,-0.015127,-0.013149,-0.0142,-0.013623,-0.013535,-0.016626,-0.01647
0.13086,0.13026,0.14252,0.1329,0.11587,0.12328,0.11534,0.11736,0.13794,0.13412
0.01326,0.011688,0.015307,0.016633,0.010055,0.0066522,0.0045624,0.009675,0.014965,0.018462
0.02469,0.024782,0.025697,0.017796,0.029885,0.031988,0.020502,0.027594,0.023171,0.019701
-0.1013,-0.099467,-0.10976,-0.098907,-0.096451,-0.099055,-0.082719,-0.091455,-0.10111,-0.09561
0.028051,0.028808,0.034924,0.028172,0.025724,0.028921,0.020379,0.024485,0.032431,0.031515
-0.018436,-0.018036,-0.02109,-0.019259,-0.016302,-0.017881,-0.016433,-0.016366,-0.020538,-0.019639
-0.0041693,-0.0039282,-0.0047555,-0.0045254,-0.0034497,-0.0037034,-0.0034882,-0.0035178,-0.0042866,-0.0041256
0.012852,0.016319,0.014079,0.01034,0.01746,0.017464,0.012902,0.012971,0.015155,0.017388
0.0023372,0.0033312,0.0078945,0.0050913,-0.0006734,0.0014817,-0.0015829,0.0015094,0.0081797,0.0060379
0.051297,0.04694,0.054618,0.048348,0.046619,0.050174,0.042539,0.044493,0.046257,0.046283
-0.0027235,-0.0027715,-0.0032467,-0.0026462,-0.0024183,-0.002689,-0.002524,-0.0025613,-0.0031416,-0.002891
-0.072904,-0.074953,-0.080875,-0.078569,-0.065901,-0.072045,-0.065428,-0.067172,-0.079963,-0.073258
0.041594,0.039587,0.04202,0.043193,0.03614,0.036538,0.03631,0.037219,0.042318,0.040653
-0.015371,-0.014651,-0.014099,-0.015256,-0.014057,-0.01399,-0.015284,-0.013281,-0.014725,-0.014619
-0.032549,-0.031818,-0.037606,-0.03525,-0.026963,-0.0286,-0.024539,-0.029735,-0.035728,-0.031845
0.044716,0.044137,0.050944,0.04737,0.037399,0.039987,0.037171,0.039527,0.047766,0.042024
0.040687,0.038889,0.038365,0.041887,0.038529,0.038061,0.033779,0.037918,0.042019,0.042246
-0.062063,-0.05911,-0.070387,-0.077576,-0.047816,-0.049641,-0.050019,-0.063382,-0.072915,-0.060594
0.018451,0.014688,0.015859,0.017741,0.010343,0.0099427,0.012167,0.0088671,0.017611,0.015854
0.055377,0.054082,0.057133,0.057519,0.046022,0.04639,0.04538,0.047634,0.059404,0.055158
-0.028819,-0.02991,-0.029288,-0.03264,-0.024444,-0.023299,-0.023844,-0.023917,-0.03015,-0.029481
-0.022946,-0.021703,-0.02502,-0.020631,-0.019066,-0.020984,-0.018581,-0.019969,-0.025529,-0.022309
-0.025108,-0.024356,-0.025134,-0.025222,-0.02508,-0.024163,-0.023224,-0.025784,-0.027012,-0.02485
0.072646,0.074097,0.079624,0.067955,0.06637,0.072932,0.063319,0.063994,0.076539,0.072507
0.11668,0.11767,0.12487,0.12878,0.10096,0.1081,0.10044,0.10372,0.12797,0.1164
-0.016596,-0.016634,-0.016872,-0.016758,-0.015313,-0.012454,-0.0088709,-0.017381,-0.017594,-0.011885
-0.0058383,-0.0018029,-0.001423,-0.0015722,0.0057952,-0.00070759,0.0021352,0.0011856,-0.0070708,-0.00030717
-0.014752,-0.0085099,-0.013294,-0.0053479,-0.012222,-0.012069,-0.0046485,-0.011571,-0.010066,-0.0073343
0.037399,0.036743,0.039889,0.028465,0.034747,0.042062,0.030679,0.028272,0.038007,0.036739
-0.0093204,-0.004337,-0.0061257,-0.0036909,-0.0033041,-0.0057776,-0.00045493,-0.0047931,-0.0083667,-0.002868
-0.00081192,0.0014902,-0.0029647,-0.00076331,-0.0019199,0.0018937,0.00048368,0.0025701,-0.00069424,-0.0027061
0.0081867,0.0087386,0.0060206,0.0029724,0.010417,0.013689,0.0058716,0.0086043,0.0054814,0.007207
-0.01779,-0.008673,-0.018489,-0.013885,-0.010796,-0.012284,-0.012342,-0.010932,-0.019788,-0.014496
0.076412,0.054819,0.069486,0.065196,0.050148,0.060228,0.057779,0.054554,0.071307,0.063426
-0.0041618,1.0392e-05,-0.0057055,-0.0067487,-0.00052276,0.0013224,-0.0038924,-0.0014332,-0.0066186,-0.0043283
0.067709,0.066085,0.074284,0.074264,0.060318,0.063078,0.057881,0.062933,0.070935,0.068784
-0.01067,-0.013052,-0.0086014,-0.014064,-0.0091959,-0.01392,-0.013085,-0.010583,-0.0075296,-0.013583
-0.069669,-0.068226,-0.073692,-0.073227,-0.061564,-0.0647,-0.056658,-0.061794,-0.075242,-0.067299
-0.011695,-0.012595,-0.0099995,-0.014903,-0.0070585,-0.0085115,-0.013759,-0.0091336,-0.0074437,-0.013734
-0.027954,-0.031806,-0.029177,-0.025318,-0.028148,-0.036084,-0.027374,-0.025698,-0.025045,-0.028729
-0.012546,-0.015043,-0.024061,-0.019461,-0.014174,-0.0098272,-0.014293,-0.017171,-0.023133,-0.01447
-0.014763,-0.015283,-0.018051,-0.019865,-0.014035,-0.0097451,-0.013809,-0.017383,-0.017601,-0.017941
0.017614,0.015966,0.014471,0.01435,0.013961,0.018094,0.0096647,0.011321,0.018988,0.011333
0.022703,0.021915,0.022683,0.022633,0.020899,0.021814,0.015003,0.017572,0.024793,0.016865
-0.028756,-0.0294,-0.033515,-0.035622,-0.024287,-0.02372,-0.023632,-0.029315,-0.033187,-0.029082
0.023869,0.020467,0.024342,0.024779,0.017149,0.017295,0.017557,0.01839,0.029062,0.01604
-0.028113,-0.02697,-0.030975,-0.030445,-0.023104,-0.024258,-0.021736,-0.026585,-0.029774,-0.027306
-0.012273,-0.011548,-0.016479,-0.0072076,-0.016268,-0.015083,-0.012243,-0.013617,-0.015158,-0.011808
-0.014192,-0.012409,-0.016833,-0.016585,-0.011309,-0.0092334,-0.011585,-0.012252,-0.014374,-0.012953
0.006135,0.0056648,0.0060435,-0.00080607,0.0082641,0.0116,0.0030639,0.0050791,0.0030446,0.0032119
-0.004636,-0.0096649,-0.007181,-0.009143,-0.016054,-0.014849,-0.0063499,-0.01342,-0.01215,-0.0093662
-0.0087732,-0.0056651,-0.0090998,-0.010241,-0.0047886,-0.0020938,-0.0063184,-0.0066744,-0.0085932,-0.0076109
0.0014421,0.0022409,0.0031689,0.0046053,0.00069539,-0.0015948,0.0019068,0.0014123,0.0037844,0.0015863
-0.0098674,-0.010378,-0.010803,-0.014429,-0.011788,-0.0089243,-0.0098741,-0.012058,-0.012266,-0.010459
0.0079855,0.010743,0.012382,0.013947,0.0072964,0.0050924,0.010551,0.009428,0.012785,0.01034
-0.0087946,-0.0082169,-0.0080029,-0.010396,-0.0052299,-0.0040839,-0.0057088,-0.0078485,-0.0074899,-0.0081167
0.0072222,0.0067756,0.0088289,0.0073775,0.0028802,0.0052139,0.00575,0.0047142,0.0077423,0.0071561
-0.020405,-0.019226,-0.022459,-0.021374,-0.016256,-0.017172,-0.014732,-0.018896,-0.021461,-0.018812
-0.014918,-0.01514,-0.01952,-0.011102,-0.019605,-0.018953,-0.015959,-0.016792,-0.01709,-0.015354
-0.019418,-0.017162,-0.02221,-0.022291,-0.015739,-0.013706,-0.015673,-0.016888,-0.019757,-0.017936
-0.00077162,-0.0024893,-0.0021539,-0.0090666,0.00089672,0.0026438,-0.0044709,-0.0021644,-0.0033009,-0.0048019
-0.0050255,-0.011201,-0.0073003,-0.011182,-0.016904,-0.015868,-0.0077632,-0.014343,-0.012172,-0.010816
-0.014926,-0.011335,-0.015529,-0.016823,-0.010321,-0.0079753,-0.011406,-0.012199,-0.014422,-0.013463
-0.0019968,-0.00094158,-0.00042802,0.0012854,-0.0021762,-0.0043225,-0.00065417,-0.001909,0.00036485,-0.0018236
-0.0085519,-0.0092082,-0.0097943,-0.013487,-0.010794,-0.0075716,-0.0092592,-0.011364,-0.01081,-0.0097253
-0.0021511,0.0010707,0.0018677,0.0041375,8.0388e-05,-0.0036921,0.0027892,0.0012962,0.0027193,0.00069437
-0.0080157,-0.0071001,-0.0072258,-0.010272,-0.0043879,-0.0023855,-0.0054764,-0.0072656,-0.0066284,-0.0074695
0.0045726,0.0042049,0.0058541,0.0046471,0.00079119,0.0032329,0.0034018,0.0022073,0.0051073,0.0043512
-0.0010831,-0.0024935,0.0014739,-0.0028855,-0.0018003,0.002002,0.0011872,-0.004942,-0.0059478,0.0013519
-0.0057926,-0.0014295,-0.0040766,-0.0068666,-0.006741,-0.0054537,-0.0049519,-0.0025081,-0.0042862,-0.0076689
0.0073432,0.012355,0.010209,0.011396,0.01135,0.011789,0.0043231,0.010373,0.0095805,0.007986
-0.0076178,0.0017199,-0.008381,-0.0015962,-0.0024362,-0.005535,-0.002437,0.0026894,-0.0027373,-0.0040771
-0.0082678,-0.013349,-0.0073156,-0.013492,-0.014129,-0.0092771,-0.0094997,-0.010676,-0.006525,-0.012195
1.1029e-05,0.0077232,0.0010989,0.0035098,0.0065375,0.0040592,0.0040844,7.7581e-05,0.0019021,0.0042458
0.01244,0.0093801,0.011413,0.011773,0.009485,0.0049339,0.0074075,0.0049411,0.014916,0.010225
-0.0092826,-0.0082223,-0.0097967,-0.0047741,-0.0076078,-0.010732,-0.0048226,-0.0078925,-0.00051207,-0.0060131
0.017371,0.01559,0.017828,0.018649,0.01032,0.0077325,0.014266,0.013881,0.022429,0.016985
-0.01969,-0.025891,-0.024899,-0.021783,-0.016534,-0.02288,-0.018369,-0.023252,-0.018232,-0.022459
0.019502,0.017898,0.023164,0.019548,0.012423,0.015529,0.016112,0.019749,0.019283,0.019443
0.095557,0.10137,0.096656,0.10456,0.092277,0.089476,0.08817,0.091295,0.095529,0.092797
0.013445,0.0060519,0.014275,0.012435,0.0050412,0.0077887,0.013149,0.007114,0.0096756,0.015711
-0.007763,-0.013264,-0.0076121,-0.012167,-0.0045924,-0.0028564,-0.0096023,-0.0047516,-0.010184,-0.010673
0.013591,0.007981,0.016216,0.008358,0.01365,0.014362,0.0082532,0.011362,0.011949,0.011757
0.049475,0.038047,0.047316,0.042278,0.032307,0.040924,0.041671,0.032418,0.041547,0.047705
0.0056987,-4.7869e-05,0.0072873,0.00097034,0.0066683,0.0078332,0.0017391,0.0052327,0.0037444,0.0035241
0.023998,0.028563,0.030357,0.03204,0.022755,0.018528,0.022228,0.024984,0.030151,0.023319
0.0010493,0.0059359,0.003263,0.007915,0.0011752,2.963e-05,0.0049797,0.0017116,0.0049879,0.00087162
0.0031555,0.0084733,0.0076796,0.0092525,0.00053456,0.0035017,0.0070604,0.0050805,0.010129,0.0022516
-0.02495,-0.029411,-0.02788,-0.032752,-0.023521,-0.023933,-0.02464,-0.024291,-0.031317,-0.027094
0.0071977,0.012278,0.011181,0.014195,0.0055105,0.006695,0.010278,0.00849,0.013419,0.0064495
-0.026908,-0.028794,-0.02739,-0.01291,-0.025082,-0.035387,-0.013623,-0.018929,-0.021612,-0.014444
-0.016984,-0.016553,-0.020523,-0.025971,-0.014077,-0.011507,-0.014905,-0.019307,-0.019361,-0.020016
0.0077839,0.0051983,0.0025406,0.0042797,0.0078452,0.012935,0.0047808,0.0079043,0.0086322,0.0056696
-0.0067439,-0.0038934,-0.010193,-0.011321,0.00056222,0.0043227,-0.0040406,-0.0046635,-0.0075931,-0.0063946
-0.034135,-0.030686,-0.036708,-0.045242,-0.029277,-0.026954,-0.028887,-0.035716,-0.038692,-0.037195
-0.0031675,-0.0033785,-0.0083959,-0.0081583,0.00097197,0.005623,-0.0029995,-0.002488,-0.0037629,-0.004626
0.0053266,0.0064395,0.014619,0.014733,0.0033241,0.0021467,0.0073906,0.010302,0.0089083,0.01138
-0.0050312,-0.006822,-0.0022397,0.0013234,-0.0093727,-0.01276,-0.0029668,-0.0028221,-0.0029014,-0.0030232
0.01493,0.014771,0.022275,0.020659,0.0092422,0.0066908,0.012937,0.014986,0.016525,0.015477
-0.0076643,-0.012356,-0.0050678,-0.0017826,-0.0080717,-0.004895,-0.0044329,-0.0037632,-0.0016156,-0.002647
0.012981,0.011379,0.018882,0.019021,0.0066622,0.0040531,0.011502,0.012963,0.01525,0.013787
-0.05222,-0.052209,-0.058367,-0.053106,-0.046291,-0.048689,-0.043198,-0.04779,-0.056387,-0.051092
-0.026459,-0.023264,-0.028471,-0.021173,-0.028065,-0.026984,-0.021351,-0.024601,-0.025561,-0.021967
-0.018569,-0.017257,-0.020492,-0.018544,-0.013967,-0.013391,-0.014553,-0.016278,-0.01849,-0.017171
-0.0046737,-0.0070743,-0.0059346,-0.011658,-0.0035891,-0.0022379,-0.0072072,-0.0065594,-0.0062683,-0.0090844
-0.016096,-0.017705,-0.018104,-0.019104,-0.025849,-0.02432,-0.014363,-0.021689,-0.020159,-0.017075
-0.0086196,-0.006386,-0.0071688,-0.010222,-0.0035217,-0.0020679,-0.005865,-0.006673,-0.007539,-0.0078792
0.0044893,0.0040925,0.0055969,0.0063563,0.0018316,-0.00015993,0.0022418,0.0026678,0.0059021,0.0028693
-0.01088,-0.012441,-0.010342,-0.013998,-0.011935,-0.0096688,-0.010592,-0.012749,-0.013011,-0.011525
-0.0013975,0.0028151,0.0035898,0.0046468,0.0037214,-0.0007537,0.0036034,0.0029642,0.0030275,0.002638
-0.010576,-0.011893,-0.012656,-0.014061,-0.0079779,-0.0063248,-0.0091761,-0.011438,-0.01174,-0.011209
0.0065514,0.005903,0.0097789,0.0075758,0.0048514,0.0058518,0.0060798,0.005076,0.007826,0.0072275
0.047707,0.047791,0.053404,0.047879,0.042143,0.044542,0.03926,0.043468,0.051666,0.046458
0.028417,0.025228,0.029996,0.023626,0.029517,0.0291,0.023614,0.026517,0.026516,0.024055
0.022671,0.02103,0.02457,0.022676,0.017388,0.016979,0.017725,0.019644,0.022641,0.02082
0.015497,0.017643,0.016782,0.019551,0.025235,0.024047,0.014764,0.021341,0.018727,0.017142
0.0082368,0.010818,0.0097987,0.015497,0.0070645,0.0063215,0.010662,0.010121,0.0096803,0.012985
-0.012139,-0.0093596,-0.01046,-0.013568,-0.0063872,-0.0052767,-0.0085996,-0.0095857,-0.010571,-0.010969
-0.0024083,-0.0022441,-0.0033108,-0.004368,-0.00024293,0.0018558,-0.00060359,-0.00065145,-0.003852,-0.00085086
0.010289,0.011741,0.0098119,0.013447,0.011238,0.0088944,0.010335,0.012387,0.012165,0.011097
0.0094349,0.01018,0.011099,0.012983,0.0065727,0.004214,0.0081609,0.010112,0.010332,0.0097156
0.0042453,-0.00016307,-0.00048103,-0.0018426,-0.0019509,0.003263,-0.0012249,-0.00054417,-0.00022741,0.00018155
0.0054427,0.0049812,0.0085214,0.0065777,0.0043637,0.0050748,0.0050632,0.0040333,0.0069684,0.0061229
0.044328,0.044481,0.049685,0.043977,0.03904,0.041434,0.036314,0.040236,0.048127,0.042991
0.029761,0.026606,0.031014,0.025376,0.030466,0.030563,0.02521,0.027837,0.027135,0.025535
0.025247,0.023231,0.026981,0.025262,0.019377,0.019084,0.019633,0.021686,0.02508,0.023062
0.015625,0.018149,0.016414,0.02041,0.025231,0.02444,0.015542,0.021521,0.018165,0.0177
0.009816,0.012469,0.011447,0.017175,0.0087417,0.008239,0.012233,0.011838,0.01113,0.014773
-0.014755,-0.011588,-0.012974,-0.016271,-0.0085343,-0.0076546,-0.010726,-0.011961,-0.012932,-0.013435
-0.00092243,-0.00092049,-0.0016804,-0.0029337,0.000876,0.0030361,0.00056814,0.00079109,-0.0023908,0.00058659
0.0098648,0.011234,0.0094307,0.013041,0.01073,0.0083356,0.010145,0.012117,0.011551,0.010786
0.0085465,0.0089181,0.0098677,0.011951,0.0054417,0.0026705,0.0073291,0.0090764,0.0091566,0.008572
0.0052381,0.00064977,0.0006805,-0.0009547,-0.0015637,0.0041426,-0.00042276,0.0003464,0.0005955,0.0012189
0.0048401,0.0045148,0.0078087,0.006055,0.0041799,0.0046896,0.0044722,0.003435,0.0065746,0.005479
-0.0041775,-0.0028732,-0.0049491,-0.0049791,-0.0030002,-0.0048152,-0.0029519,-0.0026895,-0.0045795,-0.0038442
-0.0078975,0.0012575,-0.0059459,-0.0042614,-0.0015704,-0.0020974,-0.0058853,-0.0037428,-0.0068559,-0.0081374
-0.0058525,-0.0028216,-0.0027879,0.00036275,-0.0030019,-0.004842,-0.0028432,-0.00096747,-0.0036722,-0.0046324
0.0088484,0.010578,0.010948,0.0092816,0.0097451,0.0092539,0.010515,0.012047,0.01128,0.011245
0.0045464,0.0014083,0.0070035,0.0030961,0.0036399,0.0010955,0.0054342,0.0030032,0.0070693,0.0046067
-0.015991,-0.012173,-0.017625,-0.016995,-0.010342,-0.011061,-0.011852,-0.012859,-0.015984,-0.015062
-0.013836,-0.0099466,-0.014873,-0.014672,-0.0082233,-0.0092247,-0.0097166,-0.010034,-0.01336,-0.012662
-0.0071225,-0.004546,-0.0055551,-0.0029866,-0.003313,-0.0051404,-0.0023844,-0.0036804,-0.0038952,-0.0030368
0.0098089,0.0072944,0.010981,0.010756,0.006203,0.0069115,0.0075785,0.0072465,0.0097465,0.0095551
0.010331,0.0092812,0.009649,0.0084967,0.0083342,0.0083528,0.0068559,0.0088233,0.0081886,0.0078963
-0.0066484,-0.0057212,-0.0055771,-0.0045391,-0.0049,-0.004856,-0.0038577,-0.0051683,-0.0045922,-0.0043882
0.0036479,0.0027505,0.0023368,0.0012779,0.0019948,0.0019585,0.0013749,0.0021128,0.0016808,0.0014654
0.016551,0.015049,0.0197,0.015918,0.013224,0.014696,0.012884,0.014771,0.015347,0.014371
0.010894,0.010691,0.015217,0.014989,0.010064,0.0096925,0.010978,0.011507,0.013561,0.012459
-0.0041775,-0.0028732,-0.0049491,-0.0049791,-0.0030002,-0.0048152,-0.0029519,-0.0026895,-0.0045795,-0.0038442
-0.0078975,0.0012575,-0.0059459,-0.0042614,-0.0015704,-0.0020974,-0.0058853,-0.0037428,-0.0068559,-0.0081374
-0.0058525,-0.0028216,-0.0027879,0.00036275,-0.0030019,-0.004842,-0.0028432,-0.00096747,-0.0036722,-0.0046324
0.0088484,0.010578,0.010948,0.0092816,0.0097451,0.0092539,0.010515,0.012047,0.01128,0.011245
0.0045464,0.0014083,0.0070035,0.0030961,0.0036399,0.0010955,0.0054342,0.0030032,0.0070693,0.0046067
-0.015991,-0.012173,-0.017625,-0.016995,-0.010342,-0.011061,-0.011852,-0.012859,-0.015984,-0.015062
-0.013836,-0.0099466,-0.014873,-0.014672,-0.0082233,-0.0092247,-0.0097166,-0.010034,-0.01336,-0.012662
-0.0071225,-0.004546,-0.0055551,-0.0029866,-0.003313,-0.0051404,-0.0023844,-0.0036804,-0.0038952,-0.0030368
0.0098089,0.0072944,0.010981,0.010756,0.006203,0.0069115,0.0075785,0.0072465,0.0097465,0.0095551
0.010331,0.0092812,0.009649,0.0084967,0.0083342,0.0083528,0.0068559,0.0088233,0.0081886,0.0078963
-0.0066484,-0.0057212,-0.0055771,-0.0045391,-0.0049,-0.004856,-0.0038577,-0.0051683,-0.0045922,-0.0043882
0.0036479,0.0027505,0.0023368,0.0012779,0.0019948,0.0019585,0.0013749,0.0021128,0.0016808,0.0014654
0.016551,0.015049,0.0197,0.015918,0.013224,0.014696,0.012884,0.014771,0.015347,0.014371
0.010894,0.010691,0.015217,0.014989,0.010064,0.0096925,0.010978,0.011507,0.013561,0.012459
-0.0041775,-0.0028732,-0.0049491,-0.0049791,-0.0030002,-0.0048152,-0.0029519,-0.0026895,-0.0045795,-0.0038442
-0.0078975,0.0012575,-0.0059459,-0.0042614,-0.0015704,-0.0020974,-0.0058853,-0.0037428,-0.0068559,-0.0081374
-0.0058525,-0.0028216,-0.0027879,0.00036275,-0.0030019,-0.004842,-0.0028432,-0.00096747,-0.0036722,-0.0046324
0.0088484,0.010578,0.010948,0.0092816,0.0097451,0.0092539,0.010515,0.012047,0.01128,0.011245
0.0045464,0.0014083,0.0070035,0.0030961,0.0036399,0.0010955,0.0054342,0.0030032,0.0070693,0.0046067
-0.015991,-0.012173,-0.017625,-0.016995,-0.010342,-0.011061,-0.011852,-0.012859,-0.015984,-0.015062
-0.013836,-0.0099466,-0.014873,-0.014672,-0.0082233,-0.0092247,-0.0097166,-0.010034,-0.01336,-0.012662
-0.0071225,-0.004546,-0.0055551,-0.0029866,-0.003313,-0.0051404,-0.0023844,-0.0036804,-0.0038952,-0.0030368
0.0098089,0.0072944,0.010981,0.010756,0.006203,0.0069115,0.0075785,0.0072465,0.0097465,0.0095551
0.010331,0.0092812,0.009649,0.0084967,0.0083342,0.0083528,0.0068559,0.0088233,0.0081886,0.0078963
-0.0066484,-0.0057212,-0.0055771,-0.0045391,-0.0049,-0.004856,-0.0038577,-0.0051683,-0.0045922,-0.0043882
0.0036479,0.0027505,0.0023368,0.0012779,0.0019948,0.0019585,0.0013749,0.0021128,0.0016808,0.0014654
0.016551,0.015049,0.0197,0.015918,0.013224,0.014696,0.012884,0.014771,0.015347,0.014371
0.010894,0.010691,0.015217,0.014989,0.010064,0.0096925,0.010978,0.011507,0.013561,0.012459
-0.0041775,-0.0028732,-0.0049491,-0.0049791,-0.0030002,-0.0048152,-0.0029519,-0.0026895,-0.0045795,-0.0038442
-0.0078975,0.0012575,-0.0059459,-0.0042614,-0.0015704,-0.0020974,-0.0058853,-0.0037428,-0.0068559,-0.0081374
-0.0058525,-0.0028216,-0.0027879,0.00036275,-0.0030019,-0.004842,-0.0028432,-0.00096747,-0.0036722,-0.0046324
0.0088484,0.010578,0.010948,0.0092816,0.0097451,0.0092539,0.010515,0.012047,0.01128,0.011245
0.0045464,0.0014083,0.0070035,0.0030961,0.0036399,0.0010955,0.0054342,0.0030032,0.0070693,0.0046067
-0.015991,-0.012173,-0.017625,-0.016995,-0.010342,-0.011061,-0.011852,-0.012859,-0.015984,-0.015062
-0.013836,-0.0099466,-0.014873,-0.014672,-0.0082233,-0.0092247,-0.0097166,-0.010034,-0.01336,-0.012662
-0.0071225,-0.004546,-0.0055551,-0.0029866,-0.003313,-0.0051404,-0.0023844,-0.0036804,-0.0038952,-0.0030368
0.0098089,0.0072944,0.010981,0.010756,0.006203,0.0069115,0.0075785,0.0072465,0.0097465,0.0095551
0.010331,0.0092812,0.009649,0.0084967,0.0083342,0.0083528,0.0068559,0.0088233,0.0081886,0.0078963
-0.0066484,-0.0057212,-0.0055771,-0.0045391,-0.0049,-0.004856,-0.0038577,-0.0051683,-0.0045922,-0.0043882
0.0036479,0.0027505,0.0023368,0.0012779,0.0019948,0.0019585,0.0013749,0.0021128,0.0016808,0.0014654
0.016551,0.015049,0.0197,0.015918,0.013224,0.014696,0.012884,0.014771,0.015347,0.014371
0.010894,0.010691,0.015217,0.014989,0.010064,0.0096925,0.010978,0.011507,0.013561,0.012459
0.004176,0.0028701,0.0049479,0.0049771,0.0029971,0.0048139,0.0029498,0.0026874,0.0045772,0.0038414
-0.015692,-0.01854,-0.011643,-0.015798,-0.018377,-0.017343,-0.010035,-0.016789,-0.011636,-0.013222
-0.0051179,-0.0059685,-0.004738,-0.0039715,-0.0036751,-0.0041972,-0.0036746,-0.0031696,0.0010433,-0.0061498
0.0088484,0.010578,0.010948,0.0092816,0.0097451,0.0092539,0.010515,0.012047,0.01128,0.011245
0.0045464,0.0014083,0.0070035,0.0030961,0.0036399,0.0010955,0.0054342,0.0030032,0.0070693,0.0046067
-0.015991,-0.012173,-0.017625,-0.016995,-0.010342,-0.011061,-0.011852,-0.012859,-0.015984,-0.015062
-0.013836,-0.0099466,-0.014873,-0.014672,-0.0082233,-0.0092247,-0.0097166,-0.010034,-0.01336,-0.012662
0.0071225,0.004546,0.0055551,0.0029866,0.003313,0.0051404,0.0023844,0.0036804,0.0038952,0.0030368
-0.0098089,-0.0072944,-0.010981,-0.010756,-0.006203,-0.0069115,-0.0075785,-0.0072465,-0.0097465,-0.0095551
0.010331,0.0092812,0.009649,0.0084967,0.0083342,0.0083528,0.0068559,0.0088233,0.0081886,0.0078963
0.0066484,0.0057212,0.0055771,0.0045391,0.0049,0.004856,0.0038577,0.0051683,0.0045922,0.0043882
0.0036479,0.0027505,0.0023368,0.0012779,0.0019948,0.0019585,0.0013749,0.0021128,0.0016808,0.0014654
0.0049451,0.0063872,0.0065224,-0.00021435,0.0061025,0.00718,0.0061739,0.0040818,0.0030676,0.0052198
-0.010894,-0.010691,-0.015217,-0.014989,-0.010064,-0.0096925,-0.010978,-0.011507,-0.013561,-0.012459
-0.002928,0.0045471,0.001836,0.0030134,0.00049681,0.0022289,0.00024662,-0.00053081,0.0010925,0.00041553
0.014831,0.013216,0.017324,0.015651,0.008609,0.0092137,0.015182,0.012227,0.018017,0.015309
0.0037187,0.00092337,0.0037173,8.1883e-05,0.0011772,0.00057046,0.0014204,3.357e-05,0.00041783,0.0061469
-0.0048137,-0.0092548,-0.0081105,-0.010264,-0.0056408,-0.0068772,-0.0067174,-0.0054596,-0.0090581,-0.0076208
-0.012009,-0.010355,-0.017239,-0.01525,-0.007391,-0.0072672,-0.010453,-0.0093857,-0.017571,-0.0096734
0.0094699,0.0061261,0.0076962,0.0083206,0.0088157,0.0055164,0.0097075,0.0075467,0.011263,0.0085167
-0.001755,-0.0063743,-0.005347,-0.007066,-0.0022948,-0.0044332,-0.0031229,-0.0027601,-0.0050669,-0.004178
-0.0032985,0.0031355,0.0021341,0.0019984,-0.00067494,0.00080744,-0.00021406,-5.007e-05,0.00030943,0.0011015
7.1576e-06,0.0049326,0.0038148,0.005074,0.0010605,0.0032399,0.001701,0.0013889,0.0031199,0.0026094
0.00027104,-0.001988,-0.0028313,-0.0037594,-0.00043092,0.00051002,-0.0025959,-0.0033158,-0.0021571,-0.0039448
0.0012133,0.0043338,0.0049289,0.0054606,0.0021483,0.0012856,0.0040312,0.0050384,0.0041921,0.0059855
-0.0021206,-0.0061533,-0.0064966,-0.0066282,-0.0033612,-0.0026253,-0.0049418,-0.0061543,-0.005642,-0.0073855
0.011081,0.0062789,0.006038,0.0064735,0.0083262,0.0076043,0.0075655,0.0084389,0.0080966,0.0082837
0.0010811,0.0073773,0.0059202,0.0063301,0.003005,0.0050318,0.0033624,0.0037489,0.0046828,0.0052164
-0.012647,-0.010526,-0.013103,-0.014171,-0.011859,-0.01074,-0.01107,-0.011962,-0.013645,-0.011769
0.024144,0.022769,0.027412,0.026984,0.020748,0.019487,0.024263,0.022413,0.027278,0.022778
-0.0071041,-0.010729,-0.009115,-0.012083,-0.010776,-0.012913,-0.0077876,-0.012975,-0.012287,-0.010058
0.0071599,0.0069572,0.0086852,0.008009,0.0076646,0.007591,0.0061243,0.0066341,0.0074886,0.0060322
-0.019609,-0.018514,-0.024119,-0.022103,-0.016061,-0.013028,-0.014176,-0.017344,-0.024007,-0.015925
0.010214,0.010519,0.012022,0.013813,0.009803,0.0067578,0.0084875,0.0094738,0.012069,0.012425
0.0089256,0.0088333,0.01074,0.010615,0.0093125,0.0084112,0.0075703,0.0082594,0.0096619,0.0086119
-0.01026,-0.0093711,-0.010301,-0.011759,-0.0094515,-0.0092651,-0.0081692,-0.0086518,-0.010676,-0.0092063
-0.0098335,-0.0096326,-0.011397,-0.011753,-0.0099975,-0.0089991,-0.0083553,-0.0091202,-0.010772,-0.0094651
0.0010835,0.0039013,0.0020853,0.0013584,0.0023188,0.0044227,0.00017564,-0.00082073,0.00094572,0.0012271
0.00040635,-0.0016571,-2.5508e-05,0.00027537,-0.00059641,-0.0027168,0.0011134,0.0024808,0.0010327,0.00067025
-0.00094987,0.00031824,-0.0010569,-0.00091937,-0.00028032,0.0018294,-0.0015997,-0.003184,-0.0019722,-0.0016179
0.019239,0.019196,0.019716,0.020753,0.017622,0.018362,0.015938,0.017622,0.020179,0.018956
-0.0062926,-0.0053811,-0.0067166,-0.0080078,-0.0062237,-0.0053052,-0.0049994,-0.0051037,-0.0066392,-0.0052952
0.0080738,0.0037585,0.0058726,0.0067919,0.0074159,0.0071174,0.005286,0.006476,0.0062868,0.0047555
-0.0020109,-0.0024424,-0.0054173,-0.0051562,-0.0053763,-0.0032641,-0.002553,-0.0017556,-0.0046869,-0.0047489
-0.0013353,-0.0041839,-0.0029695,-0.0013332,-0.0041086,-0.0048827,0.0010592,-0.0047694,-0.0030983,-0.0003753
-0.02087,-0.021162,-0.019886,-0.023546,-0.016622,-0.015859,-0.018922,-0.017927,-0.020081,-0.021798
-0.011579,-0.013018,-0.01791,-0.016321,-0.010493,-0.0096664,-0.010389,-0.011239,-0.015805,-0.011427
-0.0040187,-0.0043242,-0.0016857,-0.00041485,-0.0016119,-0.0029911,-0.0030507,-0.003792,-0.0046103,-0.0021005
-0.015967,-0.016507,-0.013734,-0.015084,-0.011815,-0.011814,-0.014335,-0.013585,-0.015656,-0.014857
0.0055457,0.0030695,0.0036476,0.0059252,0.0045029,0.0047936,0.0036342,0.0056737,0.0037034,0.0036686
0.0089893,0.0048552,0.006644,0.0094462,0.0075663,0.0066282,0.0058044,0.0075858,0.0073415,0.0056057
-8.6451e-05,-0.00057414,0.0023377,-0.0011122,0.001404,0.0031103,-2.2217e-05,-0.0018426,0.00033663,0.00091351
0.0045774,0.0017707,-0.00081523,0.0032767,0.002539,0.0025353,0.004508,0.0058877,0.0018205,0.0046145
-0.0064894,-0.0078506,-0.0049257,-0.0066442,-0.0047385,-0.0027733,-0.0049476,-0.0077073,-0.0069769,-0.0060599
0.001566,0.0016312,0.0045023,0.0025917,0.0052362,0.0066555,0.0027915,0.0035508,0.0032903,0.0027131
0.0068877,0.0043355,0.0054727,0.0077265,0.0058092,0.0060977,0.0048548,0.0070141,0.0054923,0.0048894
0.024898,0.029022,0.026372,0.026749,0.022382,0.021914,0.022761,0.02454,0.021792,0.022944
0.0084801,0.0043708,0.012304,0.0098832,-0.00011776,0.002125,0.0097353,0.0050375,0.012568,0.009462
0.011538,0.008174,0.014101,0.012336,0.0099571,0.0050648,0.00784,0.0083859,0.010012,0.011748
-0.016384,-0.010667,-0.012901,-0.01458,-0.01411,-0.013371,-0.012905,-0.01407,-0.015005,-0.012734
-0.011305,-5.3742e-05,-0.0017968,-0.0005069,-0.0035658,-0.00083829,-0.0089455,-0.0034918,-0.014473,-0.0021545
0.040216,0.031597,0.03653,0.029479,0.033508,0.036158,0.038142,0.035762,0.043636,0.039316
-0.0097586,-0.005438,-0.0073282,-0.010539,-0.0083189,-0.0069466,-0.0064812,-0.0082066,-0.0083763,-0.0061872
0.0095584,0.011063,0.0068131,0.0083233,0.0071058,0.005304,0.0072775,0.0087489,0.0083024,0.0072433
0.016122,0.016699,0.013828,0.014719,0.012232,0.011815,0.014055,0.013862,0.015184,0.014377
-0.005235,-0.0011626,0.0013585,-0.0028321,-0.0024904,-0.0023055,-0.0043879,-0.005637,-0.0016119,-0.0046364
0.0039252,0.0048356,0.0019054,0.0044071,0.0022831,0.00040264,0.0030047,0.0053829,0.0039492,0.0032032
-0.0044922,-0.0024368,6.5214e-05,-0.003887,-0.0028722,-0.0030184,-0.0047386,-0.0062281,-0.0023059,-0.0047748
0.0042668,0.0071907,0.0059908,0.0029676,0.0038762,0.0048247,0.0047713,0.0029211,0.0063024,0.007759
0.01918,0.020796,0.016516,0.016528,0.016372,0.014656,0.016212,0.01718,0.018165,0.017342
0.0075144,0.0039523,0.0070125,0.0078599,0.00623,0.0055472,0.0056912,0.0070539,0.0085482,0.0072193
0.011739,0.012405,0.012444,0.0098219,0.010745,0.0116,0.011902,0.011354,0.014486,0.014779
0.0034341,0.005572,-0.0012897,0.0049526,0.00086517,0.00083396,0.0062193,0.0036647,0.0076507,0.0075042
0.003093,0.0022573,0.0040351,0.0025812,0.0032814,0.0036362,0.0015214,0.0032794,0.0027366,0.0018613
-0.015684,-0.015988,-0.021325,-0.019163,-0.013628,-0.011508,-0.012538,-0.014264,-0.01991,-0.013663
0.0008759,0.0014866,0.0033713,0.0051639,0.0025547,0.00081429,0.0014986,0.00067556,0.00168,0.0036432
0.002744,0.0030917,0.0045879,0.0034272,0.004298,0.0039277,0.0020787,0.0039256,0.0027052,0.0031914
0.0063461,0.0056638,0.0061406,0.0074504,0.006154,0.0068916,0.0049193,0.0065242,0.0061914,0.0061815
0.0042341,0.0044025,0.0057955,0.0053118,0.0053639,0.0049663,0.0034199,0.0052776,0.0046013,0.00475
0.0012098,0.0038129,0.0024859,0.0013528,0.0026749,0.0050306,0.00067826,0.00043425,0.0007723,0.0020943
-0.0012967,0.00065964,-0.00060507,-0.0010616,0.00010314,0.0025356,-0.0014098,-0.001986,-0.0022397,-0.00081766
-0.0028489,-0.0015724,-0.0027618,-0.0025502,-0.0015993,0.0008762,-0.0026916,-0.0034458,-0.0042713,-0.0027889
0.0065657,0.0063663,0.0065476,0.010053,0.0072765,0.0082119,0.0052347,0.0092091,0.0068591,0.0055832
-0.00028442,-0.0009212,0.00017804,0.0013096,0.00040022,0.00045774,-0.00062565,0.00055985,-0.00047173,-0.00044913
-0.0046891,-0.0049425,-0.0035386,-0.0061764,-0.0017713,0.00059374,-0.0024284,-0.0038064,-0.0026702,-0.0024761
0.0041026,0.0020076,0.0022174,0.0018774,0.0029927,0.00319,0.0023623,0.0030577,0.0029508,0.0030842
0.0042419,0.0016288,0.0014078,0.0018951,0.0021079,0.0007441,0.00073979,0.002459,0.0029227,-0.00028875
-0.0022607,-0.0046513,-0.0034222,-0.002083,-0.0033582,-0.0038362,-0.0012432,-0.00374,-0.0038727,-0.001145
0.0023878,0.0067241,0.0013791,0.0001624,0.0023946,0.0022757,0.0028338,0.0006059,0.0015649,-0.00094144
-0.0012644,-0.0030163,-0.00099704,-8.304e-05,-0.0027367,-0.0025561,-0.0022465,0.0011255,-0.00031653,-0.0022132
0.003949,0.0080369,0.007326,0.0057135,0.0046407,0.0052502,0.0026873,0.0031048,0.0026206,0.00537
0.021666,0.020542,0.023894,0.021402,0.01642,0.016234,0.017699,0.017439,0.021979,0.020198
-0.0014002,-0.0016166,-0.0021894,-0.0020774,-0.00082574,-0.00024512,-0.0014544,-0.0024392,-0.001857,-0.0018692
-7.8523e-05,-0.00062739,0.0021563,0.0011272,0.0024235,0.0028998,0.0019658,0.001487,0.00029491,0.0013326
-0.0010814,-0.00044297,-0.002953,-0.0018536,-0.0033001,-0.0042779,-0.0024443,-0.0024148,-0.0017399,-0.0017064
0.0021187,0.0014058,0.0035934,0.0024411,0.0040609,0.005547,0.0028136,0.003222,0.0030541,0.001949
-0.0057885,-0.0056025,-0.0059098,-0.0073076,-0.005055,-0.0041768,-0.0044348,-0.0064857,-0.0066688,-0.003814
-0.00049168,-0.00063198,-0.00028308,-0.001983,-0.0010681,-0.00022065,0.00021503,-0.0022265,-0.0015846,0.00058486
-0.0046891,-0.0049425,-0.0035386,-0.0061764,-0.0017713,0.00059374,-0.0024284,-0.0038064,-0.0026702,-0.0024761
0.0041026,0.0020076,0.0022174,0.0018774,0.0029927,0.00319,0.0023623,0.0030577,0.0029508,0.0030842
0.0042419,0.0016288,0.0014078,0.0018951,0.0021079,0.0007441,0.00073979,0.002459,0.0029227,-0.00028875
-0.0022607,-0.0046513,-0.0034222,-0.002083,-0.0033582,-0.0038362,-0.0012432,-0.00374,-0.0038727,-0.001145
0.0023878,0.0067241,0.0013791,0.0001624,0.0023946,0.0022757,0.0028338,0.0006059,0.0015649,-0.00094144
-0.0012644,-0.0030163,-0.00099704,-8.304e-05,-0.0027367,-0.0025561,-0.0022465,0.0011255,-0.00031653,-0.0022132
0.003949,0.0080369,0.007326,0.0057135,0.0046407,0.0052502,0.0026873,0.0031048,0.0026206,0.00537
0.021666,0.020542,0.023894,0.021402,0.01642,0.016234,0.017699,0.017439,0.021979,0.020198
-0.0014002,-0.0016166,-0.0021894,-0.0020774,-0.00082574,-0.00024512,-0.0014544,-0.0024392,-0.001857,-0.0018692
-7.8523e-05,-0.00062739,0.0021563,0.0011272,0.0024235,0.0028998,0.0019658,0.001487,0.00029491,0.0013326
-0.0010814,-0.00044297,-0.002953,-0.0018536,-0.0033001,-0.0042779,-0.0024443,-0.0024148,-0.0017399,-0.0017064
0.0021187,0.0014058,0.0035934,0.0024411,0.0040609,0.005547,0.0028136,0.003222,0.0030541,0.001949
-0.0057885,-0.0056025,-0.0059098,-0.0073076,-0.005055,-0.0041768,-0.0044348,-0.0064857,-0.0066688,-0.003814
-0.00049168,-0.00063198,-0.00028308,-0.001983,-0.0010681,-0.00022065,0.00021503,-0.0022265,-0.0015846,0.00058486
-0.0046891,-0.0049425,-0.0035386,-0.0061764,-0.0017713,0.00059374,-0.0024284,-0.0038064,-0.0026702,-0.0024761
0.0041026,0.0020076,0.0022174,0.0018774,0.0029927,0.00319,0.0023623,0.0030577,0.0029508,0.0030842
0.0042419,0.0016288,0.0014078,0.0018951,0.0021079,0.0007441,0.00073979,0.002459,0.0029227,-0.00028875
-0.0022607,-0.0046513,-0.0034222,-0.002083,-0.0033582,-0.0038362,-0.0012432,-0.00374,-0.0038727,-0.001145
0.0023878,0.0067241,0.0013791,0.0001624,0.0023946,0.0022757,0.0028338,0.0006059,0.0015649,-0.00094144
-0.0012644,-0.0030163,-0.00099704,-8.304e-05,-0.0027367,-0.0025561,-0.0022465,0.0011255,-0.00031653,-0.0022132
0.003949,0.0080369,0.007326,0.0057135,0.0046407,0.0052502,0.0026873,0.0031048,0.0026206,0.00537
0.021666,0.020542,0.023894,0.021402,0.01642,0.016234,0.017699,0.017439,0.021979,0.020198
-0.0014002,-0.0016166,-0.0021894,-0.0020774,-0.00082574,-0.00024512,-0.0014544,-0.0024392,-0.001857,-0.0018692
-7.8523e-05,-0.00062739,0.0021563,0.0011272,0.0024235,0.0028998,0.0019658,0.001487,0.00029491,0.0013326
-0.0010814,-0.00044297,-0.002953,-0.0018536,-0.0033001,-0.0042779,-0.0024443,-0.0024148,-0.0017399,-0.0017064
0.0021187,0.0014058,0.0035934,0.0024411,0.0040609,0.005547,0.0028136,0.003222,0.0030541,0.001949
-0.0057885,-0.0056025,-0.0059098,-0.0073076,-0.005055,-0.0041768,-0.0044348,-0.0064857,-0.0066688,-0.003814
-0.00049168,-0.00063198,-0.00028308,-0.001983,-0.0010681,-0.00022065,0.00021503,-0.0022265,-0.0015846,0.00058486
-0.0046891,-0.0049425,-0.0035386,-0.0061764,-0.0017713,0.00059374,-0.0024284,-0.0038064,-0.0026702,-0.0024761
0.0041026,0.0020076,0.0022174,0.0018774,0.0029927,0.00319,0.0023623,0.0030577,0.0029508,0.0030842
0.0042419,0.0016288,0.0014078,0.0018951,0.0021079,0.0007441,0.00073979,0.002459,0.0029227,-0.00028875
-0.0022607,-0.0046513,-0.0034222,-0.002083,-0.0033582,-0.0038362,-0.0012432,-0.00374,-0.0038727,-0.001145
0.0023878,0.0067241,0.0013791,0.0001624,0.0023946,0.0022757,0.0028338,0.0006059,0.0015649,-0.00094144
-0.0012644,-0.0030163,-0.00099704,-8.304e-05,-0.0027367,-0.0025561,-0.0022465,0.0011255,-0.00031653,-0.0022132
0.003949,0.0080369,0.007326,0.0057135,0.0046407,0.0052502,0.0026873,0.0031048,0.0026206,0.00537
0.021666,0.020542,0.023894,0.021402,0.01642,0.016234,0.017699,0.017439,0.021979,0.020198
-0.0014002,-0.0016166,-0.0021894,-0.0020774,-0.00082574,-0.00024512,-0.0014544,-0.0024392,-0.001857,-0.0018692
-7.8523e-05,-0.00062739,0.0021563,0.0011272,0.0024235,0.0028998,0.0019658,0.001487,0.00029491,0.0013326
-0.0010814,-0.00044297,-0.002953,-0.0018536,-0.0033001,-0.0042779,-0.0024443,-0.0024148,-0.0017399,-0.0017064
0.0021187,0.0014058,0.0035934,0.0024411,0.0040609,0.005547,0.0028136,0.003222,0.0030541,0.001949
-0.0057885,-0.0056025,-0.0059098,-0.0073076,-0.005055,-0.0041768,-0.0044348,-0.0064857,-0.0066688,-0.003814
-0.00049168,-0.00063198,-0.00028308,-0.001983,-0.0010681,-0.00022065,0.00021503,-0.0022265,-0.0015846,0.00058486
0.0048466,0.005159,0.0037062,0.0063067,0.0019889,-0.0003918,0.0025464,0.0039919,0.0028697,0.0026475
-0.0053413,-0.0027167,-0.0071781,-0.007005,-0.0065625,-0.0068439,-0.0078756,-0.0067776,-0.0049717,-0.011292
-0.00077581,-0.0006722,-0.0016918,0.0036663,0.001588,0.00047692,-0.00014095,0.0025434,0.0011287,-0.0025704
-0.0022607,-0.0046513,-0.0034222,-0.002083,-0.0033582,-0.0038362,-0.0012432,-0.00374,-0.0038727,-0.001145
0.0023878,0.0067241,0.0013791,0.0001624,0.0023946,0.0022757,0.0028338,0.0006059,0.0015649,-0.00094144
-0.0012644,-0.0030163,-0.00099704,-8.304e-05,-0.0027367,-0.0025561,-0.0022465,0.0011255,-0.00031653,-0.0022132
0.003949,0.0080369,0.007326,0.0057135,0.0046407,0.0052502,0.0026873,0.0031048,0.0026206,0.00537
0.022261,0.021241,0.024249,0.022099,0.01696,0.016668,0.018422,0.017881,0.023128,0.020913
0.0014002,0.0016166,0.0021894,0.0020774,0.00082574,0.00024512,0.0014544,0.0024392,0.001857,0.0018692
-7.8523e-05,-0.00062739,0.0021563,0.0011272,0.0024235,0.0028998,0.0019658,0.001487,0.00029491,0.0013326
0.0010814,0.00044297,0.002953,0.0018536,0.0033001,0.0042779,0.0024443,0.0024148,0.0017399,0.0017064
0.0021187,0.0014058,0.0035934,0.0024411,0.0040609,0.005547,0.0028136,0.003222,0.0030541,0.001949
-0.0077136,-0.0067938,-0.0066536,-0.0063398,-0.0057559,-0.004,-0.0031672,-0.0074568,-0.0097322,-0.0043833
0.0014709,0.0015785,0.0026588,0.0012063,0.0011399,0.0030567,0.0036644,-0.00040849,-0.00079595,0.0029387
0.0022753,0.0024532,0.0047419,0.003648,0.0016659,0.002458,0.0025047,0.0030091,0.0011229,-0.0012897
-0.0015129,-0.0072979,-0.0018942,-0.0049712,-0.00028081,-0.0037004,0.0010676,-0.0033181,-0.0016448,-0.00068346
0.0099811,0.0033142,0.010624,0.006214,-0.0025694,0.0035586,0.0038083,0.0037152,0.008952,0.0082841
0.0041341,0.0027422,0.0027004,0.0046508,-0.0014552,4.5691e-05,0.0019334,0.0030191,0.0016217,0.00199
0.023737,0.016564,0.020083,0.019214,0.016866,0.019609,0.015014,0.018901,0.022623,0.021002
0.020779,0.017646,0.022053,0.021276,0.014029,0.016222,0.015801,0.014706,0.017749,0.018688
-0.0057351,-0.0014113,-0.0027639,0.00073869,-0.0032175,-0.0048983,-0.0023659,-0.00092347,-0.0082175,-0.0035843
0.014126,0.011757,0.012316,0.012945,0.0071888,0.008136,0.011,0.009876,0.012412,0.011078
-0.014151,-0.012042,-0.014977,-0.015973,-0.0090806,-0.0093331,-0.011165,-0.011046,-0.010969,-0.011305
0.0035449,0.0022323,0.003553,0.0031102,0.0010677,0.0028867,0.0036913,0.0021599,0.0028689,0.0028667
-0.0039992,-0.0023008,-0.0035047,-0.0034002,-0.0018631,-0.0035018,-0.0036131,-0.0028228,-0.0032979,-0.0027986
0.0043306,0.0022393,0.0033032,0.00353,0.0025806,0.0040103,0.0034117,0.0033783,0.0035834,0.0026008
-0.010604,-0.010137,-0.012019,-0.011926,-0.0086262,-0.01071,-0.0066817,-0.010282,-0.012472,-0.007686
-0.0080809,-0.0085965,-0.010535,-0.0098818,-0.007893,-0.0096918,-0.0054465,-0.00867,-0.010252,-0.0069275
0.01669,0.012913,0.016834,0.013244,0.011988,0.014854,0.014522,0.013428,0.015132,0.012373
-0.0084866,-0.010199,-0.0080545,-0.0078851,-0.0059251,-0.0078183,-0.0019769,-0.007856,-0.0076826,-0.0055648
-0.014129,-0.015966,-0.012774,-0.014759,-0.017818,-0.016811,-0.014987,-0.015697,-0.01441,-0.015924
-0.0075615,-0.0078727,-0.0097417,-0.0056276,-0.0078742,-0.010014,-0.0089444,-0.0069895,-0.010441,-0.0088047
0.011354,0.0085664,0.009838,0.010847,0.0084903,0.0098933,0.00556,0.0092388,0.012299,0.011009
0.017456,0.014261,0.015621,0.016031,0.012122,0.01309,0.011501,0.011304,0.015094,0.014637
0.017764,0.021062,0.021388,0.022134,0.015642,0.017338,0.020008,0.01918,0.017212,0.019695
-0.008876,-0.0082189,-0.01059,-0.0067625,-0.0080635,-0.012357,-0.0097588,-0.0090887,-0.010493,-0.011354
-0.004224,-0.0050892,-0.0050333,-0.0063538,-0.0040014,-0.0020716,-0.0015712,-0.003639,-0.0029577,-0.002732
-0.010827,-0.0095615,-0.00916,-0.0086428,-0.0072508,-0.0093781,-0.0093125,-0.0095888,-0.010812,-0.010327
0.010162,0.0092213,0.0089291,0.0081199,0.0064075,0.0085112,0.0091531,0.0087533,0.010183,0.010115
-0.0095884,-0.0089784,-0.0088191,-0.0077033,-0.0056357,-0.0077206,-0.0090649,-0.0079945,-0.0096465,-0.0099863
-0.022609,-0.020441,-0.022982,-0.022147,-0.018418,-0.020749,-0.016653,-0.020618,-0.023461,-0.019276
-0.024736,-0.022988,-0.026073,-0.023894,-0.020566,-0.024165,-0.019602,-0.022644,-0.026166,-0.023115
0.01118,0.006366,0.0070008,0.0069533,0.0037712,0.0039777,0.0074519,0.0055985,0.0074294,0.0060492
-0.0034769,-0.0070505,-0.0024687,-0.0024299,-0.004107,-0.0039535,-0.0015608,-0.0050423,-0.0014874,-0.0034536
0.014009,0.009328,0.011994,0.010607,0.0026697,0.0090809,0.0071038,0.0083953,0.012366,0.0099431
-0.015017,-0.011933,-0.015498,-0.013682,-0.011793,-0.012018,-0.011836,-0.011194,-0.016298,-0.01223
0.011018,0.0097312,0.01239,0.010813,0.0077378,0.010865,0.0076018,0.010451,0.012514,0.012483
0.01427,0.013281,0.016257,0.015159,0.012363,0.012455,0.010304,0.010079,0.012887,0.013729
-0.017275,-0.012439,-0.021402,-0.012766,-0.017668,-0.020305,-0.011563,-0.016913,-0.01685,-0.015356
-0.012784,-0.010036,-0.012077,-0.011657,-0.011701,-0.01151,-0.0087532,-0.010673,-0.012806,-0.01051
-0.0061137,-0.0066654,-0.0074339,-0.008549,-0.0054489,-0.0049526,-0.0057405,-0.0077684,-0.0044992,-0.0056129
0.005178,0.0066434,0.0072535,0.006423,0.0036589,0.0076491,0.0062212,0.0051108,0.0056444,0.007542
0.013625,0.010442,0.009237,0.0083801,0.0073278,0.0085464,0.0093082,0.0081684,0.012844,0.010839
0.0051958,0.0065713,0.0072312,0.0066582,0.0045301,0.0084975,0.0059229,0.0058754,0.0060558,0.0067471
-0.011732,-0.011453,-0.014404,-0.013574,-0.0092612,-0.010462,-0.0086846,-0.010961,-0.014336,-0.0099106
-0.015125,-0.01437,-0.017444,-0.016579,-0.012272,-0.013313,-0.010841,-0.013877,-0.017607,-0.012585
0.0086982,0.0037312,0.0069184,0.0073473,0.0079044,0.0086628,0.0049635,0.0068166,0.0082749,0.0048483
-0.010095,-0.013302,-0.0082612,-0.0072441,-0.0043958,-0.0084881,-0.0022935,-0.0085792,-0.0079485,-0.0094431
-0.010542,-0.010187,-0.0029952,-0.0046281,-0.012266,-0.012536,-0.0071713,-0.0091764,-0.0090331,-0.005431
0.0090743,0.0091385,0.012897,0.01207,0.0078932,0.0064478,0.0089201,0.0092229,0.0086212,0.0082494
-0.010127,-0.007638,-0.0078288,-0.0067414,-0.0033337,-0.0048436,-0.0084953,-0.0055973,-0.010323,-0.0083939
0.016133,0.017572,0.015495,0.013648,0.0098652,0.01512,0.014,0.015294,0.015606,0.018447
0.0027114,0.013737,0.014263,0.017099,0.0052814,0.011156,0.0036448,0.011073,0.0061333,0.010375
0.0076855,0.0090028,0.0091361,0.012143,0.0089156,0.0041545,0.0076869,0.0069781,0.0076455,0.0070851
-0.0011802,-0.0032484,-0.002711,-0.0028519,-0.0031377,-0.0016096,-0.00039829,-0.00048699,-6.4334e-05,-0.0017568
-0.013412,-0.010201,-0.0088202,-0.0083863,-0.0077161,-0.0087516,-0.0090408,-0.0083657,-0.012566,-0.010572
-0.0054606,-0.006886,-0.007588,-0.0068565,-0.0042597,-0.0083327,-0.0063196,-0.005706,-0.0061345,-0.0074395
-0.013549,-0.01042,-0.0092881,-0.0080831,-0.0069254,-0.0082128,-0.0093127,-0.0078233,-0.012833,-0.010751
0.0089261,0.011867,0.012397,0.0082795,0.0098504,0.0078401,0.0094922,0.0094472,0.0097606,0.011135
0.0030989,0.0057353,0.0049282,0.0042771,0.0041325,0.0017435,0.0039422,0.0036535,0.0032986,0.0049563
-0.012778,-0.0079748,-0.011696,-0.010512,-0.01068,-0.011625,-0.0095547,-0.010176,-0.011651,-0.0082215
-0.011329,-0.0073785,-0.012729,-0.0073676,-0.011621,-0.010961,-0.01201,-0.010585,-0.011891,-0.0090529
-0.0070242,-0.0091476,-0.0098803,-0.0088037,-0.013489,-0.0078778,-0.0099872,-0.0083775,-0.0081873,-0.0095033
-0.010937,-0.0093115,-0.012627,-0.0097413,-0.0097641,-0.010313,-0.010005,-0.0084654,-0.012627,-0.0099699
0.015435,0.013368,0.015536,0.014918,0.011608,0.0147,0.010196,0.013681,0.017039,0.015762
0.016323,0.014391,0.016734,0.016212,0.012747,0.013502,0.011455,0.011256,0.014625,0.014944
0.0031877,0.0075324,0.0040779,0.0082518,0.0016713,0.0012968,0.0073593,0.0048338,0.0031752,0.0056728
-0.0081668,-0.0061335,-0.0088151,-0.0068228,-0.0084935,-0.0094427,-0.0069677,-0.0070876,-0.0087265,-0.0085542
0.0048085,0.0066116,0.0064589,0.0068374,0.0055623,0.0045568,0.0032788,0.0043482,0.0041806,0.0051368
-0.0012971,2.5682e-05,0.00072487,0.00031079,-0.00071577,0.00068968,-0.00012494,-0.00060392,-0.00068246,0.00018123
-0.00085089,0.00025354,0.00086463,0.00070423,1.0701e-05,0.0014182,-8.3173e-05,9.2288e-05,-0.00018596,0.00014725
-0.00058892,0.00028586,0.00076306,0.00087734,0.00060674,0.0019746,-0.00020995,0.00063471,0.0001075,-8.3861e-05
-0.010166,-0.0090379,-0.010173,-0.01092,-0.0080445,-0.0076515,-0.0066872,-0.0093859,-0.012677,-0.0086667
-0.011757,-0.010628,-0.012018,-0.012422,-0.0092662,-0.010011,-0.0078896,-0.010538,-0.014402,-0.010704
