-0.088599,-0.099332,-0.092082,-0.10231,-0.098252,-0.081794,-0.077291,-0.093898,-0.10533,-0.090439
0.041329,0.050739,0.044114,0.050811,0.051931,0.04081,0.037836,0.045605,0.048918,0.037523
-0.064965,-0.074714,-0.063265,-0.066692,-0.067,-0.064707,-0.057284,-0.065993,-0.068143,-0.060347
0.026494,0.030428,0.021524,0.024646,0.024038,0.027297,0.022914,0.025531,0.027172,0.025143
0.15991,0.17584,0.1671,0.17684,0.17102,0.14696,0.1392,0.16448,0.17818,0.15562
0.021693,0.027779,0.027367,0.028662,0.027952,0.024431,0.02082,0.027473,0.028648,0.024548
-0.026971,-0.031985,-0.030618,-0.035454,-0.032578,-0.027174,-0.024653,-0.030167,-0.03468,-0.027699
-0.0014597,-0.0022205,-0.0015766,-0.0013853,0.0033455,-0.00088625,0.00088388,0.0009126,-0.003191,-0.0035858
-0.01333,-0.014014,-0.0063918,-0.0063524,-0.0090059,-0.0099125,-0.015431,-0.0097697,-0.0031216,-0.00051211
-0.034276,-0.039592,-0.034279,-0.037629,-0.03498,-0.033584,-0.030479,-0.034894,-0.042826,-0.035553
0.011519,0.011423,0.021169,0.018671,0.018946,0.0093818,0.0059822,0.01686,0.028118,0.021305
0.0079479,0.012512,0.010107,0.005854,0.0095941,0.011464,0.0075731,0.0084256,0.0085423,0.0070803
0.002456,0.0040491,0.0046143,0.0040129,0.0047732,0.0023274,0.0023601,0.0049883,0.0050513,0.0037395
-0.013379,-0.012909,-0.0158,-0.01538,-0.019017,-0.012754,-0.013399,-0.014328,-0.013055,-0.015884
-0.020336,-0.023168,-0.017281,-0.019513,-0.019965,-0.018461,-0.017368,-0.018523,-0.022842,-0.0177
0.010363,0.0070717,-0.0014865,6.812e-05,-0.0022335,0.0079455,0.010187,0.0049439,-0.0050189,0.00069593
-0.0090284,-0.0092937,-0.0023559,-0.0078105,-0.0052975,-0.0053072,-0.010383,-0.0059971,-0.0038372,-0.0038731
0.0098096,0.014174,0.015835,0.015274,0.018767,0.0085485,0.0066067,0.013334,0.01198,0.013686
-0.0080269,-0.0067992,0.00049654,-0.0038275,-0.0027372,-0.0049737,-0.0030001,-0.0013896,-0.0021929,-0.0020934
0.002775,0.0045656,0.0023277,0.0019929,0.0052248,0.0043607,0.0016515,0.0017347,0.0070151,0.002404
-0.026971,-0.031985,-0.030618,-0.035454,-0.032578,-0.027174,-0.024653,-0.030167,-0.03468,-0.027699
-0.020075,-0.018936,-0.01141,-0.019101,-0.016949,-0.015321,-0.02047,-0.018372,-0.012675,-0.015476
-0.02177,-0.015186,-0.013713,-0.019476,-0.016398,-0.01506,-0.017224,-0.017028,-0.012956,-0.015626
0.0022322,0.0026836,0.0022041,-0.00054632,0.003548,0.0028648,-0.00045465,0.0012229,0.0025983,0.0041346
0.039263,0.041882,0.041033,0.045799,0.04114,0.037486,0.034785,0.0402,0.042278,0.036564
-0.022626,-0.021547,-0.028948,-0.0303,-0.031136,-0.021426,-0.02083,-0.026062,-0.034271,-0.024627
0.012712,0.0099383,0.0094409,0.013664,0.0088027,0.0069207,0.010741,0.009129,0.0071194,0.010655
-0.026971,-0.031985,-0.030618,-0.035454,-0.032578,-0.027174,-0.024653,-0.030167,-0.03468,-0.027699
0.011833,0.010287,0.010712,0.021861,0.019822,0.012793,0.0088595,0.013708,0.017842,0.012852
-0.032801,-0.035868,-0.031192,-0.034436,-0.036712,-0.031568,-0.029081,-0.034293,-0.033577,-0.028502
-0.035104,-0.034558,-0.034868,-0.040647,-0.03857,-0.033127,-0.031421,-0.036207,-0.039917,-0.033127
-0.0003486,0.0035127,0.0053414,0.00094961,0.00037074,0.0016075,0.0016652,0.0034681,0.0037228,0.0023866
-0.040093,-0.046761,-0.040695,-0.041038,-0.03961,-0.038566,-0.037796,-0.041099,-0.040136,-0.039118
-0.014661,-0.016926,-0.016337,-0.016857,-0.016348,-0.014938,-0.012448,-0.015824,-0.017513,-0.015428
-0.026971,-0.031985,-0.030618,-0.035454,-0.032578,-0.027174,-0.024653,-0.030167,-0.03468,-0.027699
-0.0075119,-0.009039,-0.0099231,-0.0086388,-0.0051136,-0.006226,-0.0034547,-0.0045656,-0.010689,-0.0048355
-0.025476,-0.029872,-0.024989,-0.029665,-0.032007,-0.023841,-0.023128,-0.024574,-0.030939,-0.024419
0.012126,0.01465,0.0060007,0.011896,0.011901,0.011582,0.011657,0.0057657,0.0066443,0.0067589
0.0043475,0.0023107,0.0091916,0.0081504,0.0063832,0.00075536,0.0014777,0.0071952,0.013928,0.010312
0.0053911,0.0090027,0.0081904,0.0037316,0.006881,0.0087239,0.005167,0.0056647,0.0060905,0.0044143
0.0025427,0.0041482,0.0047128,0.0041051,0.0048658,0.0024183,0.0024272,0.0050659,0.0051612,0.0038285
-0.013515,-0.013064,-0.015957,-0.015527,-0.019169,-0.012895,-0.013507,-0.014454,-0.013225,-0.016027
-0.0046849,-0.0061939,-0.0063748,-0.0053188,-0.0062811,-0.0080714,-0.0042436,-0.0096901,-0.0068634,-0.0037495
0.034161,0.034245,0.025973,0.024563,0.024685,0.034193,0.030246,0.02834,0.028821,0.023808
-0.017424,-0.017353,-0.016396,-0.017464,-0.01949,-0.018185,-0.01566,-0.012928,-0.017587,-0.014272
0.0054928,0.0048779,0.0079245,0.0091699,0.0098651,0.0074319,0.0044339,0.0054468,0.0077586,0.0068284
-0.016445,-0.016709,-0.0085265,-0.012402,-0.01197,-0.013266,-0.0097416,-0.010096,-0.011871,-0.010104
0.0029435,0.004758,0.0025226,0.0021752,0.0054046,0.0045351,0.0017831,0.0018904,0.0072266,0.0025794
-0.026971,-0.031985,-0.030618,-0.035454,-0.032578,-0.027174,-0.024653,-0.030167,-0.03468,-0.027699
-0.037646,-0.043727,-0.039957,-0.044383,-0.041323,-0.040521,-0.035586,-0.043877,-0.043057,-0.040909
-0.023352,-0.02153,-0.019625,-0.017793,-0.020941,-0.019718,-0.017653,-0.020733,-0.020414,-0.017757
0.024004,0.026086,0.022202,0.02582,0.026481,0.024737,0.020398,0.02124,0.02608,0.020333
0.0080211,0.0084641,0.010508,0.0089002,0.0090168,0.0079429,0.0090285,0.013274,0.0085787,0.010376
-0.016197,-0.014163,-0.022425,-0.022546,-0.022557,-0.015656,-0.015557,-0.020052,-0.027246,-0.019047
0.012998,0.010322,0.0098116,0.013968,0.009152,0.0072635,0.010961,0.0094188,0.0075605,0.010977
-0.026971,-0.031985,-0.030618,-0.035454,-0.032578,-0.027174,-0.024653,-0.030167,-0.03468,-0.027699
-0.015834,-0.019008,-0.01025,-0.00077327,-0.0051665,-0.0067369,-0.014008,-0.006907,-0.0013005,-0.0094406
-0.0067442,-0.0086304,-0.0031245,-0.0085414,-0.0044751,-0.0083902,-0.0052092,-0.01102,-0.0047625,-0.0043407
0.0063967,0.0049802,0.0001217,-0.0044148,-0.0022812,0.0007282,0.0014296,-0.0011027,-0.002424,0.00075404
0.023638,0.02872,0.02529,0.025511,0.024853,0.024458,0.022117,0.02865,0.024165,0.0225
-0.035874,-0.039561,-0.032807,-0.034948,-0.034127,-0.032602,-0.032393,-0.033588,-0.032215,-0.032975
-0.014508,-0.016776,-0.016288,-0.016771,-0.016296,-0.014809,-0.012303,-0.015726,-0.017421,-0.015272
-0.026971,-0.031985,-0.030618,-0.035454,-0.032578,-0.027174,-0.024653,-0.030167,-0.03468,-0.027699
1.6189e-16,1.8574e-16,1.95e-16,2.0105e-16,2.0836e-16,1.6124e-16,1.2981e-16,1.9343e-16,2.2627e-16,1.9626e-16
4.8058e-17,5.0802e-17,4.6209e-17,5.2148e-17,4.838e-17,4.1808e-17,2.9654e-17,4.112e-17,4.9379e-17,4.5403e-17
0.0072553,0.0096418,0.0054213,0.0095018,0.0084,0.0080811,0.0088538,0.0098092,0.008598,0.0073092
-0.012021,-0.019942,-0.020791,-0.015716,-0.014514,-0.014395,-0.0091219,-0.014487,-0.019591,-0.020399
0.048123,0.060239,0.058787,0.055513,0.063601,0.048681,0.039297,0.051979,0.063025,0.049953
-0.012631,-0.010094,-0.011544,-0.0095226,-0.016304,-0.0073336,-0.0089795,-0.010067,-0.02115,-0.011367
-0.011912,-0.015475,-0.0097029,-0.014632,-0.01535,-0.013102,-0.012248,-0.01394,-0.011152,-0.0088061
2.3217e-17,4.2698e-17,4.3851e-17,3.9367e-17,4.6449e-17,3.8827e-17,2.9824e-17,5.1993e-17,3.3737e-17,4.5731e-17
-2.3928e-17,-2.4987e-17,-1.4906e-17,-2.0497e-17,-2.3693e-17,-2.5575e-17,-2.0045e-17,-2.1074e-17,-2.4638e-17,-1.6357e-17
-0.0053432,-0.004218,0.0070625,0.0035495,0.0071882,-0.0035148,-0.0078944,0.0031182,0.0084094,0.0078555
-0.036979,-0.040742,-0.033019,-0.042799,-0.04337,-0.031353,-0.030151,-0.033333,-0.039129,-0.030126
0.050758,0.053695,0.058461,0.063148,0.056507,0.047302,0.040254,0.047769,0.060527,0.047121
-0.022576,-0.019646,-0.01678,-0.019085,-0.011846,-0.019596,-0.019211,-0.0090475,-0.0084783,-0.0092803
-0.020635,-0.027131,-0.02666,-0.02868,-0.027907,-0.023704,-0.019205,-0.025358,-0.028087,-0.027607
-1.2608e-18,3.6132e-18,2.867e-17,3.6215e-17,3.894e-17,1.8756e-17,-1.858e-18,2.2632e-17,3.8966e-17,2.1435e-17
-6.2738e-17,-8.0429e-17,-8.0817e-17,-9.0044e-17,-9.3568e-17,-6.2403e-17,-5.0308e-17,-7.8003e-17,-1.0982e-16,-7.9807e-17
0.012484,0.017133,0.020215,0.018963,0.019319,0.012758,0.0075608,0.017507,0.019138,0.019589
-0.01559,-0.01897,-0.021218,-0.016271,-0.01844,-0.015228,-0.01605,-0.02033,-0.024894,-0.013735
0.0043899,0.0011271,-0.00064985,-0.00036633,0.0011527,0.0040005,0.0062227,0.002946,-0.0021307,-0.0017102
0.018282,0.016908,0.01453,0.014365,0.013135,0.017165,0.016535,0.015885,0.018723,0.012801
-0.019082,-0.018488,-0.013315,-0.01901,-0.012448,-0.016379,-0.016992,-0.017748,-0.018809,-0.017442
5.0646e-17,5.3093e-17,4.2942e-17,4.8428e-17,3.7956e-17,3.587e-17,3.8499e-17,3.2854e-17,5.6051e-17,3.171e-17
1.2624e-16,1.3257e-16,1.1313e-16,1.2235e-16,1.1994e-16,1.0735e-16,9.9321e-17,1.1455e-16,1.02e-16,9.7395e-17
0.041727,0.042985,0.041518,0.046582,0.04262,0.039709,0.035407,0.039692,0.044713,0.036627
-0.017841,-0.014475,-0.0015509,-0.016274,-0.010082,-0.014308,-0.014233,-0.011647,-0.0090041,-0.013528
-0.014088,-0.011189,-0.0037473,-0.011284,-0.0086135,-0.0071918,-0.015044,-0.0072664,-0.00064679,-0.0033597
-0.01121,-0.0058991,-0.0095382,-0.0079229,-0.0055951,-0.011852,-0.01106,-0.0096812,-0.019326,-0.0075615
-0.014907,-0.013532,-0.013243,-0.017887,-0.016984,-0.012359,-0.013058,-0.013378,-0.015988,-0.010382
5.49e-17,5.9973e-17,6.8212e-17,5.7621e-17,6.9858e-17,5.2863e-17,4.8978e-17,7.3782e-17,8.154e-17,5.8623e-17
4.0065e-17,5.2359e-17,5.9022e-17,5.6042e-17,5.4315e-17,4.627e-17,3.9281e-17,4.7037e-17,7.1821e-17,6.0725e-17
-0.0075209,-0.0051117,-0.00217,-0.0075053,-0.0077122,-0.0042662,-0.004169,-0.0041351,-0.0058687,-0.004484
-0.0025144,-0.0019718,-0.0035474,-0.0026823,-4.5121e-05,-0.0056437,-0.0041317,-0.00052887,-0.00052244,-0.00022329
-0.00015897,-0.0028737,-0.0062333,-0.00063983,-0.0033977,-0.0021845,-0.0020398,-0.0047383,-0.0068306,-0.0067307
-0.023867,-0.024393,-0.020922,-0.019265,-0.023813,-0.023485,-0.018555,-0.023177,-0.020136,-0.021791
-0.030696,-0.029301,-0.025899,-0.027845,-0.025067,-0.025917,-0.028624,-0.028711,-0.025714,-0.02352
4.6312e-18,3.3214e-18,-3.181e-19,4.6784e-18,-1.0197e-19,5.1412e-18,2.5179e-18,5.6666e-18,-7.039e-18,-7.8442e-19
-7.0062e-17,-7.4367e-17,-7.1481e-17,-8.8627e-17,-8.3855e-17,-5.9536e-17,-6.6426e-17,-6.3527e-17,-7.9916e-17,-6.0812e-17
0.0054815,0.0068581,0.012296,0.012583,0.012939,0.0049144,0.0010661,0.0040414,0.0098799,0.0098145
-0.021719,-0.024486,-0.020678,-0.0281,-0.029864,-0.01896,-0.016696,-0.019226,-0.027738,-0.021223
0.044084,0.04518,0.047626,0.051671,0.046412,0.038063,0.034909,0.038529,0.04696,0.037069
-0.025622,-0.024892,-0.024988,-0.024985,-0.020471,-0.022482,-0.020195,-0.017378,-0.020475,-0.016871
0.0052923,0.00561,-0.0015486,0.0014673,0.0016635,0.0040542,0.0065454,0.0040477,0.0031628,0.00038041
6.7884e-17,7.6593e-17,6.7708e-17,6.8532e-17,7.3177e-17,6.1733e-17,5.9436e-17,5.1642e-17,6.0328e-17,5.0463e-17
-3.1641e-17,-3.5188e-17,-2.5527e-17,-2.9355e-17,-2.9314e-17,-2.482e-17,-3.0368e-17,-3.2254e-17,-2.5247e-17,-2.1105e-17
0.0068366,0.0031066,0.0041165,0.007198,0.0048367,0.0062969,0.0028364,0.0039077,0.0086089,0.0059849
0.0013177,0.00121,-0.0058631,0.00062098,-0.0040472,0.00027577,0.00078883,-0.0055053,-0.0071785,3.5485e-06
0.045215,0.047004,0.041591,0.040874,0.039701,0.044052,0.040817,0.040645,0.047011,0.038677
0.023397,0.022235,0.018254,0.020726,0.018384,0.021314,0.020966,0.018838,0.02684,0.017682
-0.026527,-0.024779,-0.021181,-0.025022,-0.021212,-0.026487,-0.02185,-0.020696,-0.027889,-0.022542
4.1131e-17,4.6374e-17,4.8923e-17,5.3482e-17,4.8375e-17,3.4234e-17,3.1445e-17,4.2611e-17,5.221e-17,4.1093e-17
-8.1569e-17,-9.4064e-17,-1.0097e-16,-9.629e-17,-9.707e-17,-7.875e-17,-7.6082e-17,-8.0394e-17,-1.1309e-16,-7.7627e-17
-0.0023157,-0.0059359,-0.0030485,-0.0077526,-0.0035825,-0.0020226,-0.0014862,-0.0027572,-0.0060156,-0.0027286
-0.028801,-0.030474,-0.019851,-0.031559,-0.025573,-0.027726,-0.022372,-0.026142,-0.029488,-0.027805
-0.020715,-0.023487,-0.02113,-0.019739,-0.02004,-0.020334,-0.021145,-0.021089,-0.017423,-0.013654
-0.019815,-0.014407,-0.016345,-0.017349,-0.014355,-0.020071,-0.017573,-0.017939,-0.025877,-0.01537
0.030736,0.035705,0.026945,0.033934,0.027548,0.028848,0.027149,0.026898,0.031529,0.024347
4.5909e-18,9.2798e-18,-1.0442e-17,-1.6863e-18,-4.7114e-18,4.9076e-18,5.8413e-18,-2.5009e-18,2.6942e-18,-3.736e-18
1.3884e-17,1.06e-17,1.2203e-17,1.9976e-17,3.4179e-18,1.1765e-17,4.5669e-18,7.835e-18,1.0153e-17,1.0395e-17
0.012451,0.013181,0.013001,0.01244,0.010666,0.012138,0.013127,0.011487,0.010722,0.011415
-0.0046095,-0.0044468,-0.00036557,-0.00033894,0.0013493,-0.0059521,-0.0037727,-0.001186,0.0045572,0.00045154
-0.011712,-0.012532,-0.0099256,-0.0092499,-0.0095128,-0.0073655,-0.010511,-0.011702,-0.011153,-0.016306
-0.024943,-0.028565,-0.028641,-0.026492,-0.029609,-0.025444,-0.021953,-0.025282,-0.025722,-0.024463
-0.013684,-0.015539,-0.01678,-0.018055,-0.013946,-0.014739,-0.013798,-0.014456,-0.01898,-0.01215
0.1281,0.13542,0.12676,0.13809,0.1379,0.11977,0.11137,0.1266,0.13929,0.12148
0.012126,0.015449,0.0039609,0.0078853,0.0078598,0.0057357,0.0074453,0.002914,0.010787,0.0077467
0.012764,0.01477,0.024407,0.0194,0.023881,0.022464,0.010323,0.021751,0.031717,0.021719
-0.084876,-0.096189,-0.097959,-0.10061,-0.10068,-0.084304,-0.073701,-0.091742,-0.11109,-0.090111
0.026056,0.029981,0.024806,0.029211,0.030322,0.022786,0.01788,0.023721,0.033772,0.025924
-0.018479,-0.020151,-0.018422,-0.020527,-0.020117,-0.017395,-0.015326,-0.018806,-0.020376,-0.018313
-0.0042004,-0.0048002,-0.0044109,-0.0046769,-0.0044083,-0.0040661,-0.0035788,-0.004154,-0.0042018,-0.0040132
0.010313,0.011595,0.010165,0.016306,0.015497,0.0097591,0.0089485,0.015985,0.016482,0.00911
0.0049126,0.0076156,0.002583,0.0039857,0.0054787,0.0025491,0.00042543,0.00096529,0.0065941,0.0053206
0.045203,0.047074,0.047089,0.048295,0.048291,0.042781,0.037015,0.04299,0.052051,0.044613
-0.0028297,-0.0028768,-0.0025763,-0.0024292,-0.0027735,-0.002453,-0.0021463,-0.002538,-0.0031365,-0.002518
-0.07095,-0.07724,-0.074918,-0.079032,-0.077958,-0.069448,-0.064636,-0.076214,-0.079182,-0.06996
0.037015,0.04258,0.036595,0.036263,0.034154,0.034436,0.03433,0.036055,0.038082,0.035151
-0.012253,-0.014041,-0.014384,-0.010651,-0.010576,-0.010711,-0.010545,-0.0097821,-0.011732,-0.010973
-0.032696,-0.036721,-0.027968,-0.036454,-0.033583,-0.031827,-0.029998,-0.036952,-0.036682,-0.033053
0.043967,0.048186,0.040318,0.046863,0.043862,0.040771,0.037322,0.045936,0.047637,0.04259
0.032642,0.039788,0.036009,0.035472,0.034559,0.033974,0.033007,0.034788,0.037234,0.035452
-0.061711,-0.070683,-0.057909,-0.060374,-0.05278,-0.06478,-0.05488,-0.057733,-0.070571,-0.053347
0.024549,0.020757,0.013616,0.017967,0.020726,0.018141,0.012279,0.017101,0.020863,0.01501
0.055243,0.060048,0.051793,0.056754,0.057525,0.05012,0.047154,0.051143,0.054974,0.051857
-0.028732,-0.030543,-0.028168,-0.027262,-0.028557,-0.027826,-0.024849,-0.028205,-0.029375,-0.027903
-0.021079,-0.024579,-0.020015,-0.026912,-0.025896,-0.017708,-0.017351,-0.020048,-0.023524,-0.019915
-0.02052,-0.020469,-0.021939,-0.025203,-0.022653,-0.018586,-0.018721,-0.020262,-0.026429,-0.019988
0.070131,0.079226,0.08442,0.08516,0.08293,0.065785,0.059059,0.076781,0.085323,0.070524
0.1062,0.11275,0.10965,0.12157,0.11903,0.10665,0.095771,0.10498,0.1129,0.096326
-0.0079009,-0.01392,-0.0098549,-0.0099812,-0.011038,-0.01246,-0.009175,-0.0090292,-0.016344,-0.0086816
-0.0010156,-0.0071398,-0.0056348,-0.00059664,-0.0055439,-0.010951,-0.0027132,-0.0043141,0.0032838,-0.0037167
-0.0092408,-0.013677,-0.013855,-0.012216,-0.015075,-0.013656,-0.0088732,-0.011411,-0.01774,-0.0085669
0.037763,0.036613,0.046172,0.046922,0.051246,0.038633,0.027881,0.045705,0.043963,0.03904
-0.0043315,-0.0088217,-0.0083956,-0.0057265,-0.009379,-0.011435,-0.0052062,-0.0065579,-0.0070397,-0.0049259
-0.0057552,-0.0028682,-0.00090399,-0.0047348,-0.0053566,-0.0036891,-0.00116,0.00019918,-0.00076222,0.0036533
-0.00035646,0.0031725,0.0075813,0.0055644,0.0097151,-0.0014155,-0.0013459,0.0089168,0.0093245,0.0093404
-0.021193,-0.016685,-0.012888,-0.024083,-0.01725,-0.018517,-0.014873,-0.013855,-0.0132,-0.010576
0.068311,0.07494,0.067267,0.070144,0.064141,0.064786,0.06363,0.063853,0.066811,0.063925
-0.011816,-0.00742,-0.0031042,-0.0090472,-0.0042603,-0.0094989,-0.0082488,-0.0031115,-0.0017494,-0.00036752
0.06171,0.066214,0.059132,0.06311,0.06166,0.057362,0.055486,0.060122,0.064763,0.061573
-0.010374,-0.01224,-0.010942,-0.010946,-0.010912,-0.0098711,-0.012829,-0.015703,-0.0080222,-0.01344
-0.060939,-0.068655,-0.066055,-0.068918,-0.069671,-0.057943,-0.054324,-0.06312,-0.070251,-0.064486
-0.013814,-0.013537,-0.008723,-0.010685,-0.01005,-0.01091,-0.015049,-0.01425,-0.00599,-0.011615
-0.016174,-0.021247,-0.024508,-0.021901,-0.021834,-0.018173,-0.016946,-0.026489,-0.02526,-0.027953
-0.0177,-0.013215,-0.0063666,-0.015604,-0.0090729,-0.0091364,-0.014919,-0.0065175,-0.013999,-0.0085468
-0.022118,-0.022401,-0.017023,-0.020529,-0.019125,-0.020836,-0.018068,-0.018796,-0.018453,-0.018969
0.0069631,0.012,0.016446,0.010228,0.014594,0.0084055,0.0052362,0.01023,0.017168,0.011329
0.013428,0.018999,0.018846,0.016443,0.019392,0.016008,0.011922,0.018117,0.020418,0.018361
-0.032026,-0.034945,-0.030538,-0.031529,-0.030429,-0.032648,-0.027812,-0.033453,-0.030239,-0.030946
0.022791,0.025181,0.021358,0.02101,0.020068,0.024143,0.019436,0.018791,0.024885,0.022547
-0.025441,-0.029489,-0.021236,-0.025072,-0.023689,-0.026542,-0.023021,-0.025483,-0.027477,-0.026204
-0.010796,-0.010463,-0.015419,-0.016774,-0.014747,-0.0081068,-0.0054335,-0.0097615,-0.022046,-0.014621
-0.01588,-0.017374,-0.0095741,-0.013155,-0.0096161,-0.013749,-0.014537,-0.011143,-0.012602,-0.011857
-0.0034194,-0.0012046,0.0023205,0.00039178,0.0013828,-0.00078455,-0.0047558,7.333e-06,0.005106,0.0029169
-0.0049112,-0.0015584,-0.012835,-0.015335,-0.014456,-0.0046546,-0.00085657,-0.009684,-0.018916,-0.011726
-0.011948,-0.012931,-0.0052966,-0.0072316,-0.0053472,-0.0095928,-0.010316,-0.0060208,-0.0059866,-0.0076556
0.0038803,0.0051324,0.00060561,0.00037377,-0.0003234,0.0017016,0.0039545,0.0016543,0.0024442,0.0014995
-0.01111,-0.011497,-0.0077142,-0.011259,-0.0098802,-0.0082262,-0.010311,-0.0096862,-0.012039,-0.0091503
0.012866,0.012872,0.0092713,0.007627,0.0077413,0.0108,0.012443,0.011615,0.0090253,0.0083182
-0.010472,-0.012814,-0.0083785,-0.0074501,-0.01001,-0.010553,-0.010077,-0.0086476,-0.0060426,-0.00748
0.0078028,0.0091236,0.0080715,0.0057874,0.005413,0.0076785,0.0069014,0.0077397,0.0063474,0.0062488
-0.018329,-0.021571,-0.013835,-0.017676,-0.016312,-0.019686,-0.016412,-0.018081,-0.020096,-0.019022
-0.012025,-0.011347,-0.016291,-0.017761,-0.015369,-0.0083037,-0.0071006,-0.011687,-0.022623,-0.016677
-0.020535,-0.022408,-0.014341,-0.018087,-0.014526,-0.01799,-0.018694,-0.015721,-0.017539,-0.016522
-0.0076661,-0.0055479,-0.0034609,-0.0048885,-0.003667,-0.0047583,-0.0093295,-0.0068272,-0.00040789,-0.0033533
-0.005605,-0.0018926,-0.012749,-0.015814,-0.014578,-0.004621,-0.0019356,-0.010867,-0.018274,-0.012306
-0.01666,-0.017844,-0.010101,-0.012066,-0.010125,-0.013633,-0.014622,-0.010857,-0.011179,-0.01285
0.00042098,0.0015355,-0.0025439,-0.0031373,-0.0035584,-0.0018652,0.0011264,-0.00176,-0.001097,-0.0018659
-0.010719,-0.010697,-0.0064293,-0.010605,-0.0087877,-0.0075988,-0.010066,-0.0090426,-0.010763,-0.0083449
0.002851,0.0018376,-0.00028097,-0.0018044,-0.00104,0.001085,0.0043304,0.0010668,-0.00059083,-0.0010181
-0.010834,-0.012312,-0.0075518,-0.0070048,-0.0090633,-0.010476,-0.010744,-0.0077853,-0.0050659,-0.0065643
0.0046301,0.0059209,0.0058781,0.0030868,0.0030837,0.0048116,0.004228,0.0047442,0.0037887,0.0036661
0.013956,0.016855,0.013094,0.018611,0.0083361,0.011963,0.012586,0.014368,0.008153,0.010965
-0.0057773,-0.0030194,-0.0053006,-0.0056886,-0.0031161,-0.0049248,-0.0032415,-0.0055535,-0.0041911,-0.0042128
-0.012772,-0.016772,-0.012533,-0.014852,-0.010788,-0.012204,-0.015094,-0.013215,-0.012677,-0.010241
0.0015941,0.0043081,0.0042774,0.0069229,0.0091216,0.0030266,0.0053846,0.00054983,0.011041,0.0039008
-0.0071955,-0.0054489,-0.0078911,-0.0075341,-0.0045993,-0.00587,-0.0055241,-0.0065578,-0.011073,-0.0041588
0.0048055,0.0050241,0.0066714,0.0058206,0.0093872,0.0052435,0.005165,0.0069852,0.0074146,0.0064085
0.0037773,0.0052944,0.00038524,0.00012669,0.0022901,0.0039416,0.0042081,0.0018387,7.7757e-05,0.0048774
0.0028981,0.0026931,0.00016956,0.00032267,0.0021804,0.0015866,0.003718,0.0010147,-0.00038823,0.0032943
0.017655,0.019007,0.015523,0.014534,0.016246,0.015886,0.016855,0.013219,0.016495,0.012654
-0.023995,-0.027425,-0.028593,-0.0272,-0.027288,-0.023759,-0.020739,-0.023815,-0.033076,-0.020834
0.0074495,0.006267,0.0048635,0.0013067,0.0015888,0.0051049,0.0089347,0.0028933,0.0021932,0.0021135
0.091319,0.096701,0.096837,0.10811,0.10265,0.080786,0.088914,0.094016,0.11127,0.088838
0.015235,0.018442,0.0094517,0.0103,0.010307,0.013185,0.013653,0.015121,0.0076503,0.011175
-0.014034,-0.016447,-0.010421,-0.012167,-0.010043,-0.0095031,-0.012579,-0.010571,-0.0078697,-0.0094687
0.0049072,0.0045279,0.0062811,0.0074509,0.00922,0.0077848,0.0013483,0.0084628,0.012406,0.0093455
0.047957,0.05654,0.044051,0.045657,0.044498,0.044514,0.040644,0.04969,0.043218,0.045627
-0.0018476,-0.0031039,7.3794e-05,0.0002862,0.002119,0.0013947,-0.0034295,0.0015975,0.0049404,0.0023637
0.031312,0.032388,0.026861,0.029642,0.029762,0.030518,0.026367,0.025598,0.027939,0.023896
0.0080413,0.004341,0.0046371,0.0051541,0.0060867,0.0072446,0.0056003,0.0026313,0.0028899,0.0028439
0.0097222,0.011904,0.0063872,0.0076685,0.0093725,0.0079473,0.011604,0.0049424,0.003806,0.0065629
-0.032508,-0.032554,-0.024849,-0.031434,-0.033073,-0.023494,-0.027259,-0.027422,-0.040038,-0.031508
0.01399,0.013543,0.0099018,0.011855,0.013278,0.012213,0.013011,0.0083994,0.0090704,0.0095287
-0.0066874,-0.006921,-0.019589,-0.018347,-0.026772,-0.012124,-0.0010733,-0.016462,-0.028179,-0.018204
-0.022479,-0.022876,-0.012892,-0.014908,-0.013526,-0.018052,-0.01794,-0.020319,-0.020246,-0.015686
0.0011345,0.0035618,0.0063966,0.0063989,0.0067451,0.0010293,0.0036077,0.0026791,0.01114,0.00047285
-0.0096476,-0.009241,-0.0048476,-0.0063578,-0.0014392,-0.0096907,-0.0081034,-0.007393,-0.0019778,-0.0060766
-0.040144,-0.040624,-0.026142,-0.030454,-0.029098,-0.028296,-0.033921,-0.033191,-0.043648,-0.02451
-0.0080073,-0.0075555,-0.0030875,-0.0037441,-0.00064381,-0.0081577,-0.0055971,-0.0062737,0.00083733,-0.0059471
0.01578,0.013341,0.0072945,0.010491,0.010304,0.015369,0.010533,0.013383,0.0038017,0.0086048
0.0038203,0.00052421,-0.0049257,-0.0063756,-0.0054216,5.5849e-05,0.0025113,-0.0033162,-0.0092602,-0.0046931
0.022564,0.022232,0.012454,0.015338,0.015072,0.01728,0.017195,0.017107,0.010489,0.012478
0.0039357,6.4222e-05,0.0010086,-0.0016891,-1.421e-05,0.0068864,-0.0033023,0.0051485,-0.0048325,0.0052196
0.021215,0.02005,0.011315,0.013303,0.013167,0.016196,0.016483,0.014539,0.0091706,0.010936
-0.04864,-0.055054,-0.047037,-0.055651,-0.050882,-0.047409,-0.043157,-0.050277,-0.057761,-0.050041
-0.020969,-0.023052,-0.027533,-0.02795,-0.025935,-0.018198,-0.014357,-0.019938,-0.031952,-0.023922
-0.017129,-0.019583,-0.014862,-0.015221,-0.012333,-0.014903,-0.015081,-0.014114,-0.016117,-0.015344
-0.0079517,-0.0070195,-0.0082813,-0.0061592,-0.0057054,-0.0063328,-0.0091507,-0.0092662,-0.0029829,-0.0067567
-0.014376,-0.012367,-0.022446,-0.026628,-0.023898,-0.011988,-0.0077414,-0.016843,-0.028543,-0.018058
-0.0095678,-0.010204,-0.0063959,-0.0045458,-0.0038193,-0.0069136,-0.0085101,-0.0058014,-0.0031989,-0.007011
0.005116,0.007019,0.0022546,0.0025667,0.0021259,0.0032681,0.0051418,0.0011288,0.0046209,0.0027969
-0.011826,-0.011728,-0.0092219,-0.011449,-0.011569,-0.0084694,-0.0098543,-0.011177,-0.013133,-0.010251
0.0017977,0.00043108,-4.4973e-05,-0.00082622,-0.00015531,0.0014736,0.0028763,0.0023993,-0.00038649,0.00029728
-0.012166,-0.014104,-0.0083876,-0.0095463,-0.009881,-0.011106,-0.011907,-0.0094393,-0.006637,-0.0084958
0.0061882,0.008032,0.0072781,0.0062562,0.0051953,0.0070032,0.0063979,0.0065274,0.0055471,0.0056273
0.044477,0.050775,0.043193,0.051583,0.046887,0.043704,0.039441,0.046513,0.053671,0.046075
0.022498,0.024754,0.02888,0.029232,0.027143,0.019345,0.016304,0.022058,0.032961,0.025815
0.020743,0.023509,0.018568,0.019098,0.016291,0.018121,0.018318,0.017664,0.020202,0.019102
0.014515,0.012307,0.021822,0.026471,0.023451,0.011676,0.0083344,0.017417,0.027344,0.018018
0.010557,0.0099231,0.011738,0.0095496,0.0092492,0.0091624,0.011898,0.013028,0.0067134,0.010532
-0.012409,-0.01317,-0.0094496,-0.0074902,-0.006968,-0.0093652,-0.011154,-0.0088169,-0.0065494,-0.010343
-0.0030328,-0.0048804,-0.00065501,-0.00079925,-0.00048546,-0.001105,-0.0035276,0.00074982,-0.0028529,-0.00083441
0.011853,0.011488,0.008395,0.011068,0.010903,0.0083696,0.0098976,0.010897,0.012454,0.010005
0.011428,0.012658,0.0065844,0.0078119,0.0079588,0.010156,0.011454,0.0074905,0.0048963,0.0067733
0.001286,0.0029052,0.0026459,0.003556,0.0024506,0.0015757,-0.00034281,0.00072525,0.0028059,0.0025436
0.004656,0.0065525,0.0065213,0.0051883,0.0044029,0.0055659,0.0051541,0.0051582,0.0047182,0.0043469
0.041358,0.04756,0.04031,0.048521,0.043887,0.040922,0.036657,0.043682,0.05059,0.043097
0.023542,0.025926,0.02976,0.03007,0.027936,0.020138,0.017695,0.023567,0.033561,0.027135
0.02305,0.025953,0.020823,0.021406,0.018692,0.020122,0.02038,0.019853,0.022664,0.021466
0.014914,0.01251,0.021523,0.026554,0.023351,0.011751,0.0089926,0.018101,0.026742,0.018342
0.011577,0.011102,0.013544,0.01117,0.011013,0.010421,0.013176,0.014926,0.0085319,0.01245
-0.014552,-0.015505,-0.011871,-0.0097999,-0.0094299,-0.011354,-0.013249,-0.011255,-0.0091115,-0.012886
-0.0015346,-0.003349,0.00045134,0.00042536,0.00064375,0.00043741,-0.0023647,0.0020778,-0.0016145,0.0005528
0.011864,0.011309,0.007797,0.010786,0.010416,0.0082953,0.0099217,0.010689,0.011954,0.0098231
0.010815,0.011539,0.0054294,0.0065651,0.0066118,0.0094687,0.01099,0.0061009,0.0036549,0.0056275
0.0024282,0.0041952,0.0033435,0.0044475,0.0030979,0.0027511,0.00058056,0.0019332,0.0034207,0.0035547
0.0037163,0.0056707,0.006161,0.0045866,0.0040096,0.0047005,0.0043907,0.0043387,0.0043299,0.0035934
-0.0044183,-0.0019505,-0.0038493,-0.0027788,-0.0044934,-0.0043224,-0.0025099,-0.0040653,-0.0019177,-0.0035135
-0.0083979,-0.0060116,-0.0061354,-0.009966,-0.0051619,-0.0074704,-0.0060228,-0.0074593,-0.011945,-0.0048717
0.0045407,0.0045216,0.0031117,0.0016928,0.0015278,0.005289,0.003322,0.0032769,0.004366,0.0028871
0.012988,0.011341,0.0096025,0.011229,0.011155,0.010187,0.010374,0.010245,0.01403,0.0094323
0.0057869,0.0056968,0.0020862,0.0063025,0.0053056,0.0061421,0.0066028,0.0031391,0.0054589,0.0040428
-0.015074,-0.015278,-0.010631,-0.013269,-0.011659,-0.014385,-0.014618,-0.012741,-0.013128,-0.01041
-0.012635,-0.013272,-0.0092353,-0.011775,-0.010226,-0.01259,-0.01266,-0.010855,-0.01095,-0.0092523
-0.002376,-0.0032956,-0.0053491,-0.0024524,-0.0018178,-0.0023619,-0.0017571,-0.0037474,-0.0038695,-0.0028632
0.0093577,0.010567,0.0071482,0.0096945,0.0083403,0.0095479,0.0092068,0.0088205,0.0088598,0.0074974
0.0058502,0.0078449,0.0082664,0.0071929,0.0069436,0.0049158,0.0066256,0.0077926,0.0086528,0.0057792
-0.0030688,-0.0050428,-0.0052305,-0.0048767,-0.004453,-0.0025462,-0.0041537,-0.0046408,-0.0054704,-0.0033946
0.00088263,0.0028866,0.0027683,0.0029546,0.0023444,0.00070953,0.0021421,0.002132,0.0028173,0.0014803
0.012838,0.014441,0.012334,0.0076488,0.0070448,0.01178,0.01079,0.013219,0.011924,0.010714
0.012748,0.01389,0.0092638,0.0098986,0.0096172,0.011515,0.011371,0.012561,0.010589,0.009424
-0.0044183,-0.0019505,-0.0038493,-0.0027788,-0.0044934,-0.0043224,-0.0025099,-0.0040653,-0.0019177,-0.0035135
-0.0083979,-0.0060116,-0.0061354,-0.009966,-0.0051619,-0.0074704,-0.0060228,-0.0074593,-0.011945,-0.0048717
0.0045407,0.0045216,0.0031117,0.0016928,0.0015278,0.005289,0.003322,0.0032769,0.004366,0.0028871
0.012988,0.011341,0.0096025,0.011229,0.011155,0.010187,0.010374,0.010245,0.01403,0.0094323
0.0057869,0.0056968,0.0020862,0.0063025,0.0053056,0.0061421,0.0066028,0.0031391,0.0054589,0.0040428
-0.015074,-0.015278,-0.010631,-0.013269,-0.011659,-0.014385,-0.014618,-0.012741,-0.013128,-0.01041
-0.012635,-0.013272,-0.0092353,-0.011775,-0.010226,-0.01259,-0.01266,-0.010855,-0.01095,-0.0092523
-0.002376,-0.0032956,-0.0053491,-0.0024524,-0.0018178,-0.0023619,-0.0017571,-0.0037474,-0.0038695,-0.0028632
0.0093577,0.010567,0.0071482,0.0096945,0.0083403,0.0095479,0.0092068,0.0088205,0.0088598,0.0074974
0.0058502,0.0078449,0.0082664,0.0071929,0.0069436,0.0049158,0.0066256,0.0077926,0.0086528,0.0057792
-0.0030688,-0.0050428,-0.0052305,-0.0048767,-0.004453,-0.0025462,-0.0041537,-0.0046408,-0.0054704,-0.0033946
0.00088263,0.0028866,0.0027683,0.0029546,0.0023444,0.00070953,0.0021421,0.002132,0.0028173,0.0014803
0.012838,0.014441,0.012334,0.0076488,0.0070448,0.01178,0.01079,0.013219,0.011924,0.010714
0.012748,0.01389,0.0092638,0.0098986,0.0096172,0.011515,0.011371,0.012561,0.010589,0.009424
-0.0044183,-0.0019505,-0.0038493,-0.0027788,-0.0044934,-0.0043224,-0.0025099,-0.0040653,-0.0019177,-0.0035135
-0.0083979,-0.0060116,-0.0061354,-0.009966,-0.0051619,-0.0074704,-0.0060228,-0.0074593,-0.011945,-0.0048717
0.0045407,0.0045216,0.0031117,0.0016928,0.0015278,0.005289,0.003322,0.0032769,0.004366,0.0028871
0.012988,0.011341,0.0096025,0.011229,0.011155,0.010187,0.010374,0.010245,0.01403,0.0094323
0.0057869,0.0056968,0.0020862,0.0063025,0.0053056,0.0061421,0.0066028,0.0031391,0.0054589,0.0040428
-0.015074,-0.015278,-0.010631,-0.013269,-0.011659,-0.014385,-0.014618,-0.012741,-0.013128,-0.01041
-0.012635,-0.013272,-0.0092353,-0.011775,-0.010226,-0.01259,-0.01266,-0.010855,-0.01095,-0.0092523
-0.002376,-0.0032956,-0.0053491,-0.0024524,-0.0018178,-0.0023619,-0.0017571,-0.0037474,-0.0038695,-0.0028632
0.0093577,0.010567,0.0071482,0.0096945,0.0083403,0.0095479,0.0092068,0.0088205,0.0088598,0.0074974
0.0058502,0.0078449,0.0082664,0.0071929,0.0069436,0.0049158,0.0066256,0.0077926,0.0086528,0.0057792
-0.0030688,-0.0050428,-0.0052305,-0.0048767,-0.004453,-0.0025462,-0.0041537,-0.0046408,-0.0054704,-0.0033946
0.00088263,0.0028866,0.0027683,0.0029546,0.0023444,0.00070953,0.0021421,0.002132,0.0028173,0.0014803
0.012838,0.014441,0.012334,0.0076488,0.0070448,0.01178,0.01079,0.013219,0.011924,0.010714
0.012748,0.01389,0.0092638,0.0098986,0.0096172,0.011515,0.011371,0.012561,0.010589,0.009424
-0.0044183,-0.0019505,-0.0038493,-0.0027788,-0.0044934,-0.0043224,-0.0025099,-0.0040653,-0.0019177,-0.0035135
-0.0083979,-0.0060116,-0.0061354,-0.009966,-0.0051619,-0.0074704,-0.0060228,-0.0074593,-0.011945,-0.0048717
0.0045407,0.0045216,0.0031117,0.0016928,0.0015278,0.005289,0.003322,0.0032769,0.004366,0.0028871
0.012988,0.011341,0.0096025,0.011229,0.011155,0.010187,0.010374,0.010245,0.01403,0.0094323
0.0057869,0.0056968,0.0020862,0.0063025,0.0053056,0.0061421,0.0066028,0.0031391,0.0054589,0.0040428
-0.015074,-0.015278,-0.010631,-0.013269,-0.011659,-0.014385,-0.014618,-0.012741,-0.013128,-0.01041
-0.012635,-0.013272,-0.0092353,-0.011775,-0.010226,-0.01259,-0.01266,-0.010855,-0.01095,-0.0092523
-0.002376,-0.0032956,-0.0053491,-0.0024524,-0.0018178,-0.0023619,-0.0017571,-0.0037474,-0.0038695,-0.0028632
0.0093577,0.010567,0.0071482,0.0096945,0.0083403,0.0095479,0.0092068,0.0088205,0.0088598,0.0074974
0.0058502,0.0078449,0.0082664,0.0071929,0.0069436,0.0049158,0.0066256,0.0077926,0.0086528,0.0057792
-0.0030688,-0.0050428,-0.0052305,-0.0048767,-0.004453,-0.0025462,-0.0041537,-0.0046408,-0.0054704,-0.0033946
0.00088263,0.0028866,0.0027683,0.0029546,0.0023444,0.00070953,0.0021421,0.002132,0.0028173,0.0014803
0.012838,0.014441,0.012334,0.0076488,0.0070448,0.01178,0.01079,0.013219,0.011924,0.010714
0.012748,0.01389,0.0092638,0.0098986,0.0096172,0.011515,0.011371,0.012561,0.010589,0.009424
0.0044177,0.0019472,0.0038491,0.0027761,0.0044912,0.0043222,0.0025084,0.0040651,0.0019149,0.003512
-0.0060503,-0.0061712,-0.0062503,-0.0093572,-0.01036,-0.00075621,-0.0062404,-0.0074586,-0.011733,-0.0066768
0.002095,0.00066578,-0.0012429,0.0040714,0.0043466,0.0038108,0.0038954,0.0020968,0.0036765,0.0063246
0.012988,0.011341,0.0096025,0.011229,0.011155,0.010187,0.010374,0.010245,0.01403,0.0094323
0.0057869,0.0056968,0.0020862,0.0063025,0.0053056,0.0061421,0.0066028,0.0031391,0.0054589,0.0040428
-0.015074,-0.015278,-0.010631,-0.013269,-0.011659,-0.014385,-0.014618,-0.012741,-0.013128,-0.01041
-0.012635,-0.013272,-0.0092353,-0.011775,-0.010226,-0.01259,-0.01266,-0.010855,-0.01095,-0.0092523
0.002376,0.0032956,0.0053491,0.0024524,0.0018178,0.0023619,0.0017571,0.0037474,0.0038695,0.0028632
-0.0093577,-0.010567,-0.0071482,-0.0096945,-0.0083403,-0.0095479,-0.0092068,-0.0088205,-0.0088598,-0.0074974
0.0058502,0.0078449,0.0082664,0.0071929,0.0069436,0.0049158,0.0066256,0.0077926,0.0086528,0.0057792
0.0030688,0.0050428,0.0052305,0.0048767,0.004453,0.0025462,0.0041537,0.0046408,0.0054704,0.0033946
0.00088263,0.0028866,0.0027683,0.0029546,0.0023444,0.00070953,0.0021421,0.002132,0.0028173,0.0014803
0.0038642,0.0044858,0.0084325,0.0039687,0.0023585,0.0063185,0.0035453,0.0054396,0.007355,0.0065442
-0.012748,-0.01389,-0.0092638,-0.0098986,-0.0096172,-0.011515,-0.011371,-0.012561,-0.010589,-0.009424
0.0048353,-0.00026397,0.00064312,0.007014,0.0054055,0.0056354,-0.00094038,0.0034901,0.0014407,0.0026219
0.01308,0.010419,0.0088709,0.012514,0.010679,0.011073,0.011597,0.010769,0.0065126,0.0091989
0.00070587,-0.0016222,-0.0020665,-0.0013274,0.0039741,0.00045234,0.00099501,-0.0012988,0.00093208,-0.0041659
-0.012916,-0.0081463,-0.0078959,-0.014451,-0.013224,-0.013424,-0.0068695,-0.0098958,-0.0080865,-0.0089495
-0.015204,-0.014259,-0.010639,-0.015237,-0.0091354,-0.015632,-0.011497,-0.0095353,-0.0078021,-0.0079091
0.0079716,0.0095516,0.0070477,0.01086,0.011976,0.0092028,0.0086782,0.0053041,0.011203,0.004918
-0.0092579,-0.0045295,-0.0051811,-0.0092073,-0.0076352,-0.0093358,-0.0033858,-0.0073286,-0.0037494,-0.0065761
0.0041905,0.00099016,-0.00034338,0.0048967,0.0038129,0.0057093,0.00055066,0.0034106,-0.001204,0.0027518
0.0075717,0.0031006,0.0036599,0.0079106,0.0066033,0.0079937,0.0020635,0.0060791,0.002475,0.005363
-0.0060302,-0.0051548,-0.0022206,-0.0054843,-0.0060601,-0.0087481,-0.0063753,-0.0050892,0.00035075,-0.0039806
0.0060814,0.0053911,0.0020363,0.0056129,0.0055965,0.0086249,0.0063771,0.0052573,-0.00013328,0.0041502
-0.0060594,-0.005448,-0.0017718,-0.0056876,-0.0051431,-0.008458,-0.0061387,-0.0053251,6.0588e-05,-0.0042316
-0.0029937,-1.1436e-05,0.00049646,-0.0031025,-0.003951,-0.0055532,0.00085927,-0.0020368,0.0035129,-0.0011661
0.0055938,0.0018795,0.0011421,0.0063133,0.0044592,0.006271,0.001466,0.004713,0.00091303,0.0040428
-0.013968,-0.013227,-0.013748,-0.012563,-0.012335,-0.012885,-0.013468,-0.013167,-0.011738,-0.012932
0.020387,0.020611,0.021656,0.021765,0.023885,0.02095,0.018115,0.023049,0.023514,0.021531
-0.0084567,-0.0095566,-0.01269,-0.011657,-0.0060327,-0.0077067,-0.0057594,-0.0092078,-0.012292,-0.011855
0.0078288,0.0072384,0.0083711,0.0070082,0.0063401,0.0071398,0.007238,0.0085204,0.0058645,0.008374
-0.016909,-0.017988,-0.015868,-0.01981,-0.013512,-0.015354,-0.012852,-0.013612,-0.01664,-0.012297
0.011632,0.011613,0.0078643,0.013198,0.012555,0.011434,0.012201,0.0073766,0.011134,0.0060418
0.0099186,0.0093525,0.0093074,0.0096108,0.0089192,0.0092807,0.0096445,0.0093303,0.0080142,0.0088586
-0.010776,-0.0090188,-0.011174,-0.0099866,-0.0096631,-0.0098019,-0.0096658,-0.0094073,-0.0085808,-0.010027
-0.010711,-0.0098151,-0.010103,-0.010129,-0.009402,-0.0099452,-0.010268,-0.009804,-0.0085433,-0.0094602
0.0008823,-0.00085131,0.0022439,0.0013155,0.00089416,0.00032562,-0.0012341,0.00054791,-0.0011765,0.0028813
-0.00075416,0.001165,-0.0022414,-0.0010796,-0.0011442,-0.00031041,0.0012133,-0.00025662,0.0014712,-0.0026779
0.0011657,-0.00091698,0.002752,0.0013959,0.0018295,0.0007714,-0.00065338,0.00051853,-0.0011245,0.0029456
0.013166,0.011537,0.013641,0.012981,0.011085,0.011269,0.011597,0.012254,0.012758,0.012509
-0.0095612,-0.0080913,-0.0094551,-0.0085988,-0.0087507,-0.0090158,-0.0089128,-0.0081266,-0.0066956,-0.0085301
0.0040976,0.0064599,0.0056532,0.0097445,0.0076449,0.0035216,0.0059156,0.0048635,0.0058962,0.0022298
-0.0078734,-0.0084104,-0.0059086,-0.0070002,-0.0066013,-0.0066224,-0.0060689,-0.0066016,-0.0075179,-0.0042597
-0.0057835,-0.0061773,-0.006487,-0.003326,-0.0015571,-0.00095802,-0.0038335,-0.0075909,0.0028801,-0.0033431
-0.02097,-0.025707,-0.01815,-0.017957,-0.018731,-0.012883,-0.021441,-0.021213,-0.019362,-0.018452
-0.01731,-0.017565,-0.014955,-0.017545,-0.014013,-0.016273,-0.013482,-0.015335,-0.014105,-0.013058
-0.0027346,-0.00037966,-0.0051963,-0.0030977,-0.0016359,-0.0046135,-0.002832,0.00024611,-0.0027172,-0.00084626
-0.014873,-0.016397,-0.014853,-0.013365,-0.01267,-0.010595,-0.015377,-0.012894,-0.013688,-0.012237
0.0023783,0.0059726,0.0030941,0.0044471,0.0041243,0.0014689,0.004953,0.0043427,0.0042292,0.00087179
0.0061361,0.0087415,0.0072943,0.0090701,0.0078663,0.0048925,0.0076266,0.0070267,0.0068931,0.004081
-0.0016607,-0.0027476,-0.00039294,0.00067447,-0.00041363,-0.0017058,-0.0040395,-0.0018834,0.0032343,0.00038922
-0.00018242,0.002015,-0.0029323,-0.0016428,-0.0024164,-0.0020316,0.0036932,-0.0012287,0.002582,-0.0030905
-0.0060449,-0.0080482,-0.0041338,-0.004365,-0.0043359,-0.0052351,-0.0076023,-0.006321,-0.0021823,-0.0040457
-0.0040715,-0.0036356,-0.00096973,-0.0036877,-0.0016979,-0.0040479,-0.0065238,-0.0016592,0.00085363,-0.00065763
0.001286,0.0042577,0.001291,0.0033664,0.0020385,0.00024406,0.0043793,0.0024819,0.0021302,8.0274e-05
0.02228,0.028504,0.023985,0.023111,0.022623,0.016804,0.021752,0.024685,0.028575,0.020687
0.013964,0.0085721,0.0053455,0.014724,0.0063898,0.015417,0.012135,0.010123,0.0090695,0.0078784
0.008002,0.0053126,0.004705,0.0065739,0.0086377,0.0050844,0.0076814,0.0052086,0.0023393,0.001893
-0.012399,-0.016001,-0.013305,-0.018099,-0.015411,-0.010751,-0.014226,-0.01192,-0.014508,-0.0091978
-0.0085532,-0.00363,-0.0026494,-0.0080327,-0.0019893,-0.0020244,-0.0055476,0.003826,0.0033119,0.0018911
0.037419,0.042006,0.036,0.047201,0.040931,0.036663,0.035011,0.030361,0.043109,0.030328
-0.0069062,-0.009182,-0.0079502,-0.0098294,-0.0082423,-0.0054599,-0.0082747,-0.0073895,-0.0072847,-0.0046526
0.0074044,0.0088023,0.0054476,0.0077083,0.0062764,0.0049665,0.010079,0.0064059,0.0065784,0.0057041
0.014426,0.016449,0.014823,0.014038,0.013313,0.010302,0.015427,0.013125,0.014595,0.012357
-0.0019604,-0.0040611,0.00071897,-0.00026385,-0.00014581,6.4514e-05,-0.0052538,-0.00048629,-0.004856,0.0013719
0.0042988,0.0059092,0.0027575,0.0023085,0.0028649,0.0038146,0.0061769,0.0045838,4.6921e-05,0.0022988
0.00090509,-0.001499,0.0034485,0.0019618,0.0030588,0.0026315,-0.0032253,0.0014988,-0.0018118,0.0034509
0.0019838,-0.00073275,0.00065068,0.0031644,0.00049193,0.0031764,-0.00035973,-0.00013147,0.0020708,0.0039499
0.014415,0.017027,0.014782,0.016047,0.014806,0.010841,0.015722,0.013987,0.016216,0.012905
0.0071362,0.0074324,0.0063438,0.0065514,0.0061824,0.0078591,0.0083056,0.0060692,0.0054673,0.0069524
0.0064462,0.0070039,0.005686,0.0067955,0.0071193,0.0053063,0.0043603,0.0030287,0.0057558,0.0068367
0.0033982,0.0043416,0.0041156,0.0072337,0.0043914,0.0069213,0.0022552,0.0033054,0.0093011,0.0065916
0.0012244,0.0021138,0.0017875,0.0020095,0.00048795,0.0026492,0.0021827,0.0020086,0.0017896,0.0028148
-0.01704,-0.017669,-0.015554,-0.018331,-0.013575,-0.01577,-0.013208,-0.014461,-0.01493,-0.012772
0.0031822,0.0045164,-0.00072448,0.0033642,0.0034924,0.001871,0.0032905,0.0030346,0.0024389,0.0013431
0.0017283,0.0033407,0.0017757,0.0026427,0.0028008,0.002871,0.0032366,0.0029125,0.0031761,0.0024991
0.0051193,0.0053698,0.0064969,0.0046801,0.005624,0.0054684,0.0047354,0.0053946,0.0067779,0.0056387
0.0032034,0.004388,0.0031135,0.0035633,0.0036881,0.0041448,0.0043353,0.0038431,0.0041266,0.0035503
-0.00015321,-0.0003245,0.0010823,0.00087441,0.00041174,-0.00055131,-0.0023973,0.00040038,0.0026257,0.0020236
-0.0012812,-0.0017391,0.00022387,-0.00041189,-0.00030929,-0.0013829,-0.0032176,-0.00076332,0.0012819,0.00089561
-0.0018898,-0.0025776,-9.1898e-05,-0.0012137,-0.00053518,-0.0017841,-0.0035256,-0.0013981,0.00056997,0.00022785
0.005831,0.0071689,0.0081837,0.0051965,0.0082094,0.0051089,0.0059239,0.0076789,0.009733,0.008038
0.0018495,0.0022232,0.0024213,0.0011294,0.002386,0.0029963,0.0025169,0.0020334,0.0020306,0.00223
-0.0022624,-0.0035448,-0.00082607,-0.0016627,-0.0011505,-0.00081904,-0.0044359,-0.001991,-0.0011563,-0.0018393
0.0038913,0.0053769,0.0028971,0.0031734,0.0011699,0.0042649,0.0036376,0.0056275,0.0061352,0.0046575
0.0023175,0.00050224,0.0030666,0.0044564,0.00094674,0.001412,0.0026195,0.0024034,0.00042714,0.0013051
-0.0039247,-0.0031244,-0.006242,-0.0050969,-0.0038491,-0.0036485,-0.00074376,-0.0049726,-0.0048275,-0.0028253
9.6117e-05,0.0028892,0.0037624,0.0014302,0.00083797,-6.9327e-05,0.00036712,3.3428e-06,0.002187,-0.00016874
0.0013353,-0.00033746,-0.0020279,0.0013756,-0.00011766,0.0018366,0.00096789,0.00091926,1.1923e-05,-0.00010323
0.00085134,0.0067435,0.004444,0.0063113,0.0052815,0.0013983,0.0054852,0.0009766,0.0011104,0.0021098
0.022109,0.024377,0.018731,0.021439,0.020623,0.021092,0.018264,0.021148,0.023586,0.019332
-0.00267,-0.0027389,-0.00087935,-0.0039489,-0.0024564,-0.0028464,-0.0026336,-0.0017246,-0.0021228,-0.0024598
0.0016983,0.0010816,0.0023395,0.0041366,0.0031172,0.0033546,0.0025531,0.0023178,0.001544,0.0017449
-0.0015426,-0.0013905,-0.0031276,-0.0037967,-0.0028321,-0.0033215,-0.0027581,-0.0028239,-0.0018547,-0.0017531
0.0012372,0.001535,0.0037796,0.0032754,0.0023774,0.0031337,0.0028208,0.0031769,0.002017,0.0016164
-0.004778,-0.006641,-0.0059631,-0.0048075,-0.0047213,-0.0049467,-0.006667,-0.0061995,-0.0050774,-0.00453
0.00045668,-0.00077517,-0.0011213,-0.00018871,-0.00019631,0.00019919,-0.0019389,-0.00088366,0.00084351,-0.00028497
-0.0022624,-0.0035448,-0.00082607,-0.0016627,-0.0011505,-0.00081904,-0.0044359,-0.001991,-0.0011563,-0.0018393
0.0038913,0.0053769,0.0028971,0.0031734,0.0011699,0.0042649,0.0036376,0.0056275,0.0061352,0.0046575
0.0023175,0.00050224,0.0030666,0.0044564,0.00094674,0.001412,0.0026195,0.0024034,0.00042714,0.0013051
-0.0039247,-0.0031244,-0.006242,-0.0050969,-0.0038491,-0.0036485,-0.00074376,-0.0049726,-0.0048275,-0.0028253
9.6117e-05,0.0028892,0.0037624,0.0014302,0.00083797,-6.9327e-05,0.00036712,3.3428e-06,0.002187,-0.00016874
0.0013353,-0.00033746,-0.0020279,0.0013756,-0.00011766,0.0018366,0.00096789,0.00091926,1.1923e-05,-0.00010323
0.00085134,0.0067435,0.004444,0.0063113,0.0052815,0.0013983,0.0054852,0.0009766,0.0011104,0.0021098
0.022109,0.024377,0.018731,0.021439,0.020623,0.021092,0.018264,0.021148,0.023586,0.019332
-0.00267,-0.0027389,-0.00087935,-0.0039489,-0.0024564,-0.0028464,-0.0026336,-0.0017246,-0.0021228,-0.0024598
0.0016983,0.0010816,0.0023395,0.0041366,0.0031172,0.0033546,0.0025531,0.0023178,0.001544,0.0017449
-0.0015426,-0.0013905,-0.0031276,-0.0037967,-0.0028321,-0.0033215,-0.0027581,-0.0028239,-0.0018547,-0.0017531
0.0012372,0.001535,0.0037796,0.0032754,0.0023774,0.0031337,0.0028208,0.0031769,0.002017,0.0016164
-0.004778,-0.006641,-0.0059631,-0.0048075,-0.0047213,-0.0049467,-0.006667,-0.0061995,-0.0050774,-0.00453
0.00045668,-0.00077517,-0.0011213,-0.00018871,-0.00019631,0.00019919,-0.0019389,-0.00088366,0.00084351,-0.00028497
-0.0022624,-0.0035448,-0.00082607,-0.0016627,-0.0011505,-0.00081904,-0.0044359,-0.001991,-0.0011563,-0.0018393
0.0038913,0.0053769,0.0028971,0.0031734,0.0011699,0.0042649,0.0036376,0.0056275,0.0061352,0.0046575
0.0023175,0.00050224,0.0030666,0.0044564,0.00094674,0.001412,0.0026195,0.0024034,0.00042714,0.0013051
-0.0039247,-0.0031244,-0.006242,-0.0050969,-0.0038491,-0.0036485,-0.00074376,-0.0049726,-0.0048275,-0.0028253
9.6117e-05,0.0028892,0.0037624,0.0014302,0.00083797,-6.9327e-05,0.00036712,3.3428e-06,0.002187,-0.00016874
0.0013353,-0.00033746,-0.0020279,0.0013756,-0.00011766,0.0018366,0.00096789,0.00091926,1.1923e-05,-0.00010323
0.00085134,0.0067435,0.004444,0.0063113,0.0052815,0.0013983,0.0054852,0.0009766,0.0011104,0.0021098
0.022109,0.024377,0.018731,0.021439,0.020623,0.021092,0.018264,0.021148,0.023586,0.019332
-0.00267,-0.0027389,-0.00087935,-0.0039489,-0.0024564,-0.0028464,-0.0026336,-0.0017246,-0.0021228,-0.0024598
0.0016983,0.0010816,0.0023395,0.0041366,0.0031172,0.0033546,0.0025531,0.0023178,0.001544,0.0017449
-0.0015426,-0.0013905,-0.0031276,-0.0037967,-0.0028321,-0.0033215,-0.0027581,-0.0028239,-0.0018547,-0.0017531
0.0012372,0.001535,0.0037796,0.0032754,0.0023774,0.0031337,0.0028208,0.0031769,0.002017,0.0016164
-0.004778,-0.006641,-0.0059631,-0.0048075,-0.0047213,-0.0049467,-0.006667,-0.0061995,-0.0050774,-0.00453
0.00045668,-0.00077517,-0.0011213,-0.00018871,-0.00019631,0.00019919,-0.0019389,-0.00088366,0.00084351,-0.00028497
-0.0022624,-0.0035448,-0.00082607,-0.0016627,-0.0011505,-0.00081904,-0.0044359,-0.001991,-0.0011563,-0.0018393
0.0038913,0.0053769,0.0028971,0.0031734,0.0011699,0.0042649,0.0036376,0.0056275,0.0061352,0.0046575
0.0023175,0.00050224,0.0030666,0.0044564,0.00094674,0.001412,0.0026195,0.0024034,0.00042714,0.0013051
-0.0039247,-0.0031244,-0.006242,-0.0050969,-0.0038491,-0.0036485,-0.00074376,-0.0049726,-0.0048275,-0.0028253
9.6117e-05,0.0028892,0.0037624,0.0014302,0.00083797,-6.9327e-05,0.00036712,3.3428e-06,0.002187,-0.00016874
0.0013353,-0.00033746,-0.0020279,0.0013756,-0.00011766,0.0018366,0.00096789,0.00091926,1.1923e-05,-0.00010323
0.00085134,0.0067435,0.004444,0.0063113,0.0052815,0.0013983,0.0054852,0.0009766,0.0011104,0.0021098
0.022109,0.024377,0.018731,0.021439,0.020623,0.021092,0.018264,0.021148,0.023586,0.019332
-0.00267,-0.0027389,-0.00087935,-0.0039489,-0.0024564,-0.0028464,-0.0026336,-0.0017246,-0.0021228,-0.0024598
0.0016983,0.0010816,0.0023395,0.0041366,0.0031172,0.0033546,0.0025531,0.0023178,0.001544,0.0017449
-0.0015426,-0.0013905,-0.0031276,-0.0037967,-0.0028321,-0.0033215,-0.0027581,-0.0028239,-0.0018547,-0.0017531
0.0012372,0.001535,0.0037796,0.0032754,0.0023774,0.0031337,0.0028208,0.0031769,0.002017,0.0016164
-0.004778,-0.006641,-0.0059631,-0.0048075,-0.0047213,-0.0049467,-0.006667,-0.0061995,-0.0050774,-0.00453
0.00045668,-0.00077517,-0.0011213,-0.00018871,-0.00019631,0.00019919,-0.0019389,-0.00088366,0.00084351,-0.00028497
0.0023905,0.0037082,0.00098841,0.0019165,0.0014014,0.00097481,0.0045294,0.0021415,0.0014159,0.0019826
0.0030802,0.0070146,0.0046029,0.0065643,0.0045947,0.002101,0.0064506,0.0044184,0.0047969,0.00035246
-0.0087935,-0.0091786,-0.0070096,-0.0043294,-0.0096319,-0.0082285,-0.0056593,-0.0068191,-0.010948,-0.0090719
-0.0039247,-0.0031244,-0.006242,-0.0050969,-0.0038491,-0.0036485,-0.00074376,-0.0049726,-0.0048275,-0.0028253
9.6117e-05,0.0028892,0.0037624,0.0014302,0.00083797,-6.9327e-05,0.00036712,3.3428e-06,0.002187,-0.00016874
0.0013353,-0.00033746,-0.0020279,0.0013756,-0.00011766,0.0018366,0.00096789,0.00091926,1.1923e-05,-0.00010323
0.00085134,0.0067435,0.004444,0.0063113,0.0052815,0.0013983,0.0054852,0.0009766,0.0011104,0.0021098
0.022874,0.024918,0.018634,0.02208,0.020849,0.021371,0.019147,0.021042,0.022304,0.019631
0.00267,0.0027389,0.00087935,0.0039489,0.0024564,0.0028464,0.0026336,0.0017246,0.0021228,0.0024598
0.0016983,0.0010816,0.0023395,0.0041366,0.0031172,0.0033546,0.0025531,0.0023178,0.001544,0.0017449
0.0015426,0.0013905,0.0031276,0.0037967,0.0028321,0.0033215,0.0027581,0.0028239,0.0018547,0.0017531
0.0012372,0.001535,0.0037796,0.0032754,0.0023774,0.0031337,0.0028208,0.0031769,0.002017,0.0016164
-0.0054021,-0.0061299,-0.0030515,-0.0044179,-0.0076443,-0.0063743,-0.0053107,-0.0056552,-0.0069349,-0.0050397
0.0028511,0.00296,0.004415,0.0037581,0.00096577,0.0012873,0.0013541,0.0027942,0.004198,0.0025771
0.0024378,0.0026629,-0.00021071,0.0013774,0.0032604,0.0031799,0.0027399,0.0030439,-0.0017981,-0.00081145
0.00049444,0.00037364,-0.0013407,0.00078664,0.003828,-0.0020903,-0.00055807,-0.0013467,0.0041263,-0.0019055
0.0099931,0.012767,0.0065932,0.0076751,0.0055379,0.0081667,0.0065433,0.0072281,0.0069418,0.0042545
0.0035227,0.0052287,0.003297,0.0017284,0.0016591,0.0040731,0.0036989,0.0037095,0.0056128,0.0039164
0.020233,0.021639,0.02126,0.015621,0.019216,0.016731,0.014785,0.019725,0.026157,0.02286
0.020854,0.019401,0.016064,0.017941,0.017222,0.018258,0.016859,0.019672,0.017544,0.015702
-0.0019194,-0.0012181,-0.0005159,-0.008585,-0.0073761,-0.0059675,-0.0015987,-0.0015522,-0.0056981,-0.0061498
0.013211,0.015405,0.013382,0.015283,0.010554,0.011633,0.011438,0.012625,0.015432,0.010958
-0.015028,-0.014766,-0.013173,-0.012765,-0.012177,-0.013181,-0.012176,-0.014371,-0.014502,-0.01175
0.0047196,0.0041787,8.6283e-05,0.0025862,-0.00047481,5.7199e-05,0.0031622,0.0032045,0.0033698,0.0018949
-0.0042007,-0.0038721,-0.00073273,-0.0020961,0.00063589,0.00032762,-0.0029702,-0.0029835,-0.003464,-0.0018472
0.0035504,0.003415,0.0013212,0.0014669,-0.00088191,-0.00081227,0.0026532,0.0026509,0.0034436,0.0017089
-0.0045945,-0.0072336,-0.010041,-0.010247,-0.0092111,-0.0076412,-0.0071576,-0.0069075,-0.0087762,-0.0074844
-0.0038291,-0.0057074,-0.0076963,-0.0078942,-0.0083296,-0.0063011,-0.0057211,-0.0058784,-0.0068786,-0.0065302
0.014251,0.020075,0.010707,0.016486,0.014141,0.01242,0.013054,0.012968,0.015859,0.012348
-0.011083,-0.011285,-0.015385,-0.012619,-0.015223,-0.013778,-0.0090948,-0.013566,-0.013521,-0.014463
-0.0085288,-0.01131,-0.013414,-0.012737,-0.014307,-0.0095597,-0.0093652,-0.011079,-0.017893,-0.014085
-0.0092263,-0.010796,-0.0080996,-0.011283,-0.0079751,-0.0059017,-0.0053414,-0.0088389,-0.0085634,-0.0057408
0.0089961,0.0072656,0.011159,0.0039902,0.0091852,0.0087709,0.0069383,0.0085642,0.011647,0.011299
0.013642,0.012756,0.011834,0.013675,0.012434,0.012954,0.012131,0.013641,0.012567,0.012186
0.025003,0.025106,0.022257,0.024302,0.021018,0.017697,0.020224,0.024267,0.019217,0.021269
-0.0098959,-0.013857,-0.0071546,-0.010715,-0.010377,-0.0075535,-0.0063222,-0.0099118,-0.0119,-0.01009
-0.0031859,-0.00097793,-0.0035667,-0.0025467,-0.0042037,-0.0042207,-0.0038462,-0.0031733,-0.0031433,-0.0035659
-0.0093898,-0.013439,-0.010799,-0.01275,-0.011004,-0.00966,-0.0077068,-0.0099843,-0.013449,-0.010319
0.0096397,0.013484,0.009993,0.012964,0.010896,0.0097758,0.0076415,0.0099249,0.013154,0.010133
-0.0099481,-0.013594,-0.0092109,-0.01324,-0.010835,-0.0099382,-0.0076386,-0.0099162,-0.012903,-0.0099797
-0.016881,-0.022516,-0.019655,-0.022983,-0.021214,-0.017368,-0.017354,-0.018495,-0.022597,-0.017163
-0.020213,-0.026303,-0.021441,-0.025768,-0.02408,-0.019654,-0.018979,-0.021564,-0.026135,-0.020642
0.014589,0.017333,0.0075414,0.0068261,0.010519,0.006703,0.010354,0.010463,0.0088581,0.0043318
-0.007861,-0.0053883,-0.0066615,-0.0090147,-0.005497,-0.0084222,-0.0038129,-0.0063749,-0.0060979,-0.0067236
-0.00041889,0.0030259,-0.00033299,0.00085413,-0.0017694,0.00062488,0.00078773,-0.0018693,-0.0014059,-0.0014845
-0.014896,-0.01355,-0.013724,-0.015367,-0.011973,-0.009778,-0.010992,-0.013508,-0.013041,-0.011456
0.010331,0.014859,0.0096071,0.0060264,0.0083894,0.010077,0.0080338,0.0088179,0.011442,0.010798
0.012148,0.011933,0.01325,0.015581,0.013399,0.012952,0.010638,0.014701,0.013837,0.013436
-0.0116,-0.016274,-0.019372,-0.015139,-0.017843,-0.013485,-0.010417,-0.016985,-0.020838,-0.019453
-0.010827,-0.0095448,-0.0096339,-0.0091704,-0.0083409,-0.0067946,-0.0077098,-0.010269,-0.01288,-0.0089244
-0.0064897,-0.007641,-0.005573,-0.0060237,-0.0067395,-0.0054389,-0.0042859,-0.0069928,-0.007539,-0.0047202
0.0072,0.010128,0.0042966,0.0099133,0.0082022,0.0069673,0.0051294,0.0055642,0.0057849,0.0070141
0.013127,0.015862,0.011825,0.013303,0.013399,0.011675,0.011334,0.011689,0.014413,0.012892
0.0065414,0.010253,0.0055483,0.0088326,0.0071837,0.0059107,0.0052528,0.0053808,0.0056223,0.0064793
-0.011044,-0.011841,-0.010776,-0.011821,-0.0099105,-0.0092531,-0.011293,-0.010271,-0.012156,-0.0075055
-0.013853,-0.014144,-0.012848,-0.0134,-0.011519,-0.010952,-0.013178,-0.012553,-0.015492,-0.010674
0.0050725,0.0027019,0.0037803,0.0065558,0.0075125,0.0059023,0.004088,0.0047923,0.0048505,0.0042654
-0.0024358,-0.0083163,-0.0064584,0.00065814,-0.0051751,-0.0055059,-0.0048459,-0.0054111,-0.0079487,-0.0055972
0.0079053,0.0090443,-0.0016594,0.0028356,0.0078537,0.0041318,0.0025046,0.0044435,0.00092885,0.0016078
0.012312,0.013544,0.0093047,0.012786,0.010188,0.0091612,0.0099663,0.0098507,0.013336,0.0085426
-0.012959,-0.015353,-0.0053501,-0.01041,-0.0083867,-0.0066375,-0.010805,-0.007198,-0.0087742,-0.0046513
0.016053,0.020789,0.010109,0.014259,0.017212,0.013481,0.010998,0.015611,0.015663,0.0096804
0.0083063,0.014074,0.015409,0.002312,0.0087798,0.0087106,0.0067664,0.01748,0.01451,0.011458
0.0080746,0.009329,0.008125,0.011896,0.007313,0.0066352,0.0073502,0.0071197,0.010901,0.0062195
0.00081263,0.00021815,-0.0023463,-0.0031817,-0.0034817,-0.0035427,-9.582e-05,-0.0018815,-0.0019758,-0.0026578
-0.012575,-0.015346,-0.012207,-0.013133,-0.013625,-0.011707,-0.010798,-0.011533,-0.014382,-0.012977
-0.0071839,-0.010532,-0.0051419,-0.0096857,-0.0079098,-0.0066938,-0.0054487,-0.0057358,-0.0059509,-0.0069885
-0.013322,-0.01604,-0.011459,-0.013223,-0.013159,-0.011478,-0.011483,-0.011689,-0.014307,-0.012541
0.013464,0.014446,0.010785,0.012348,0.014131,0.0092137,0.0088897,0.013521,0.014534,0.0072205
0.007016,0.0064472,0.0043836,0.0053761,0.0054738,0.0039659,0.0036883,0.0060663,0.0073325,0.0021609
-0.009138,-0.010345,-0.0074655,-0.011044,-0.010697,-0.0088527,-0.0082868,-0.0089147,-0.010213,-0.0083418
-0.013113,-0.0099153,-0.012477,-0.01959,-0.010524,-0.010779,-0.0093235,-0.010748,-0.010198,-0.012259
-0.0070121,-0.0081063,-0.0043788,-0.0044758,-0.011078,-0.0058611,-0.0048306,-0.0075968,-0.0087026,-0.0066219
-0.012378,-0.012081,-0.011428,-0.013313,-0.0096398,-0.0080367,-0.0084687,-0.011172,-0.010909,-0.0087155
0.01375,0.015863,0.014429,0.0095733,0.013115,0.013008,0.010845,0.012862,0.016554,0.014947
0.013687,0.013366,0.01328,0.015656,0.013987,0.013716,0.011993,0.015122,0.014139,0.013576
0.010193,0.0080866,0.0048779,0.0081527,0.0044966,0.0042282,0.0081181,0.0065884,0.0015764,0.0038207
-0.0082539,-0.008465,-0.0064755,-0.0074159,-0.0073109,-0.0054335,-0.0049616,-0.007602,-0.0098049,-0.0069901
0.0036489,0.0038108,0.0051973,0.0059992,0.0071827,0.0062809,0.0038858,0.0054446,0.0052828,0.0054152
0.00040358,0.00031566,-0.0022387,0.00017455,0.00029072,-0.00042835,8.8224e-05,-0.00083096,-0.0021212,-0.00034927
0.00010963,0.00032137,-0.0014705,-0.0001767,0.00013221,-0.00071636,0.00019027,-0.00082953,-0.0019419,-0.00033907
-0.00039593,9.3384e-05,-0.00085861,-0.00075315,-0.00020918,-0.0011824,0.00010283,-0.0010105,-0.0019475,-0.00049717
-0.0079421,-0.0090289,-0.0076686,-0.0099503,-0.0089039,-0.0074349,-0.0090579,-0.0074909,-0.0097284,-0.0054423
-0.0097587,-0.01076,-0.008593,-0.010239,-0.0094962,-0.0088362,-0.0096889,-0.0084939,-0.011231,-0.0078578
